hub,n2v_0,n2v_1,n2v_2,n2v_3,n2v_4,n2v_5,n2v_6,n2v_7,n2v_8,n2v_9,n2v_10,n2v_11,n2v_12,n2v_13,n2v_14,n2v_15,n2v_16,n2v_17,n2v_18,n2v_19,n2v_20,n2v_21,n2v_22,n2v_23,n2v_24,n2v_25,n2v_26,n2v_27,n2v_28,n2v_29,n2v_30,n2v_31
IND000000AAL,0.19177245,-0.5066253,0.40959528,0.11674816,0.58866197,0.07926267,0.2011696,-0.2569547,-0.51547605,-0.77997607,-0.4167224,-0.31991398,0.7216038,-0.34560245,-0.36421597,0.4767133,-0.33795354,-0.46927568,0.27313453,0.08940074,-0.0037029288,-0.16724144,-1.2682588,0.0005096422,0.5130071,0.47349045,0.51154757,-0.27476922,-0.32300168,0.40562186,-0.07912601,-0.19896474
IND411033AAA,0.1192641,-0.5246838,0.44709083,0.083325535,0.564929,0.0918824,0.1924,-0.3441308,-0.4224113,-0.69623953,-0.3592405,-0.3105586,0.6590533,-0.39742303,-0.349942,0.4266009,-0.42500326,-0.4110707,0.2983848,0.014566892,0.039678536,-0.13576724,-1.1429414,-0.097287625,0.53297615,0.32954967,0.4084744,-0.23256238,-0.19035594,0.37988833,-0.12649667,-0.15861614
IND000000AAS,0.27264357,-0.35448697,-0.32063273,0.4241887,0.8607865,-0.58803606,0.46436757,0.17739247,1.086139,-0.17080928,-1.8307017,-1.4153945,-0.23945646,1.1138884,-0.92002136,-1.2151445,-0.30682632,1.219667,-0.32459998,0.8177814,0.18205641,-0.12288623,-2.0501533,1.2710181,1.4771249,1.2545137,-0.38268775,-1.2769212,-1.3068101,0.44701168,-0.8122725,1.4134259
IND783370AAC,0.2357281,-0.36144862,-0.34041256,0.37591347,0.81593007,-0.5894223,0.51092577,0.21374123,1.1540463,-0.20074405,-1.8603873,-1.4277655,-0.2584128,0.9795239,-0.7699836,-1.3292432,-0.4053802,1.2652484,-0.33492902,0.67187476,0.20053741,-0.18079886,-2.1921496,1.2790775,1.4805967,1.3776705,-0.29109427,-1.366789,-1.4524482,0.35229576,-0.6721063,1.3407613
IND000000ABA,-0.26313266,-0.72269565,-0.3977756,-0.59708214,0.20605811,0.16317129,-0.4630455,-0.19591804,0.6416008,-0.6144474,-0.016051542,-0.24047698,-0.2978991,-1.0238391,0.9167042,0.4481414,-0.06445484,0.23538485,-0.118566945,-0.45956543,0.6508771,0.093000375,-0.9808808,0.6845323,0.796245,0.3597302,1.1957178,-1.4988612,0.0372405,0.72717685,-0.43091673,0.3204049
IND683565AAA,-0.32135534,-0.7090795,-0.51553863,-0.4758761,0.35441908,0.19993046,-0.42961955,-0.3130314,0.7633449,-0.76453173,-0.09846867,-0.009425727,-0.28188965,-0.9798689,0.85737056,0.35756624,-0.021476848,0.17032588,-0.21957651,-0.4550102,0.7065001,0.13771991,-0.88410777,0.62000334,0.6127532,0.35793775,1.2317663,-1.5148344,0.029647835,0.8809898,-0.46131414,0.34297746
IND000000ABD,0.5628995,-0.6489622,-0.17838354,-0.79664624,0.29362628,0.031754628,-0.2683055,-0.6133703,0.36324164,-1.2886661,-0.39926767,0.14000227,-0.019425038,-0.32660767,1.0227399,0.025790812,0.2112097,-0.19972216,-0.17365286,-0.45432657,0.5875465,-0.019032938,-0.6054664,0.39381146,-0.13184285,0.47650397,0.9629724,-0.71235096,-0.2269416,0.7594161,0.07504117,0.2611863
IND562132AAA,0.18621767,-0.086767785,0.37833914,-0.49817386,0.20767014,0.05471138,-0.46182668,-0.12595361,0.0587422,-0.8791784,0.034184907,0.090830475,-0.02267001,-0.00030615792,0.25776464,0.14905821,0.22560194,-0.337411,0.0692249,-0.08307267,0.31947798,0.048730314,-0.80074245,0.6034056,0.415176,0.12698418,0.45579338,-0.4456445,-0.023323962,0.44116598,-0.30603263,0.22974034
IND000000ABG,0.048078302,-0.22940093,-0.62147826,-0.44399977,1.3443156,-0.3892883,0.21300496,0.16609703,1.1374034,0.78925925,-0.8323446,-0.30051515,-0.2765191,-0.8431265,-0.36831883,-1.2618908,-0.66490895,0.0030491091,0.75742865,-0.21750848,-0.16669008,0.062009964,-0.36323082,-0.05205042,1.6562048,0.19292702,0.108593754,-0.40239257,-0.91698664,0.17652772,-0.15534133,0.13471429
IND501359AAF,1.2025281,-0.5360646,-1.3272668,-0.5718669,1.7434742,-0.91850734,-0.6313824,-0.451275,1.2739431,1.0172129,-1.2557425,0.1271001,-0.25643918,-1.0666674,-1.2685515,-1.7275596,-0.17135264,0.0933639,1.0765934,-0.00145281,-1.833824,-0.902153,-0.094650835,-1.3641343,1.743314,0.15671282,1.2158607,0.13766536,-0.73494154,1.1100051,-0.8257597,-0.039561372
IND000000ACA,0.16420731,-0.20145996,-0.7108065,-0.32973683,0.31146175,-0.7867374,0.25750697,0.11916743,0.19426894,0.14520763,0.75793403,0.60057205,0.13745263,0.39163393,-0.540269,-0.46018717,0.5789044,0.83729875,-0.19868256,-0.03721283,0.0017448397,-0.6107047,-1.4091853,0.5398734,1.446164,0.8909154,-0.29534897,0.101593144,0.09957545,1.1193742,-1.0291508,0.47100988
IND140406AAA,0.07636468,-0.36892524,-0.73900396,-0.5714147,0.21645275,-0.6740216,0.25519,0.3640531,0.3396459,0.26441842,0.553991,0.8736439,0.24105042,0.49917877,-0.41882655,-0.6674247,0.49725243,1.2305206,-0.26465195,0.009912989,-0.37476423,-0.57652885,-1.5261112,0.78569955,1.7303277,0.8261287,-0.36007878,0.2408308,-0.08659182,1.1901522,-0.8976357,0.4125883
IND142001AAB,0.08585711,-0.018712165,-0.51444256,-0.46285987,0.33361152,-0.7240555,0.33338758,0.25513262,0.22029689,0.13358814,0.8465069,0.43721882,0.102687016,0.3673229,-0.3101594,-0.7461653,0.32737735,0.77133226,-0.13162598,-0.09246498,-0.29115397,-0.6299722,-1.4314786,0.44332704,1.283184,0.79929215,0.069948986,0.11316814,0.4654445,1.1556354,-0.57160556,0.18197978
IND142401AAA,0.11263566,-0.2549766,-0.68725574,-0.48001146,0.13745353,-0.8838363,0.25136787,0.46657747,0.21280403,-0.005790446,0.5738945,0.74519545,0.337326,0.5237063,-0.53729486,-0.6033359,0.48756406,0.9707386,-0.111564055,-0.011981305,-0.42616504,-0.4038449,-1.4222049,0.71024895,1.680775,0.7723685,-0.08804524,0.25813878,0.16797781,1.2886673,-0.8548157,0.5459423
IND143001AAA,-0.22872305,0.120240025,-0.6227049,-0.49936032,0.45643634,-1.0225902,0.17899048,0.20892863,0.012657239,-0.081285566,0.9489003,0.4661884,0.15207058,0.16297403,-0.2999693,-0.3840637,0.2900193,0.7601102,0.07889363,-0.2859156,-0.060962327,-0.72696835,-1.0559591,0.62422806,1.3949168,0.64000624,-0.06183747,-0.0063862945,0.031920955,1.4747356,-0.9144991,0.58601314
IND144001AAB,-0.22977823,-0.030165689,-0.7094043,-0.45557234,0.5562008,-0.8427488,0.16912064,0.36822912,-0.05119405,-0.107748814,0.8348732,0.45268053,0.16261147,0.14684503,-0.25184554,-0.34722802,0.2592823,0.6052206,0.046167385,-0.22897841,0.0026117088,-0.59677565,-1.0179323,0.61640716,1.2300256,0.67073184,-0.20591511,0.038812835,0.06942216,1.4486665,-1.172785,0.64299804
IND144514AAA,0.2754024,-0.032459382,-0.84859955,-0.5518848,0.39199656,-0.79617155,0.25308293,0.361571,0.36304963,0.45656046,0.5069849,0.60547227,0.14275262,0.24077141,-0.6425191,-0.38425416,0.40697172,0.82610726,-0.12356779,-0.24909323,-0.05092712,-0.74281085,-1.3897498,0.8045769,1.9377973,1.1584786,-0.10852718,0.32395086,0.37136802,1.0616857,-0.9220285,0.46574408
IND147301AAA,-0.95378095,-0.48283124,-0.6879306,-0.9775544,0.10876876,-0.37577713,0.40695402,0.093546435,0.22712871,0.085409656,0.53012353,1.271107,0.45214435,-0.029384939,-1.0474188,-1.2138282,-0.14271425,1.1939598,0.5573638,-0.52078587,-0.10994603,-0.8936753,-2.2793455,0.6990472,1.916358,1.1911684,0.03257388,0.44342485,0.24466893,0.66385055,-1.0862232,0.12999362
IND152026AAA,0.20697969,-0.19671728,-0.6602516,-0.46654302,0.35597217,-0.77619594,0.2765248,0.28873143,0.20670891,-0.02665011,0.8771876,0.46354076,0.19995315,0.5638607,-0.40446872,-0.5177319,0.32051417,0.7533406,-0.20064662,-0.089307584,-0.27693376,-0.52225167,-1.3326778,0.40454498,1.2610984,0.719455,0.18495382,0.20756702,0.49777767,1.187008,-0.6516903,0.30896878
IND160002AAC,-0.13982964,-0.045918122,-0.40253848,-0.54316735,0.36940354,-0.82015127,0.57044005,0.019845547,-0.05655435,-0.04115471,0.59697855,0.13763924,0.17026089,0.26293972,0.16146788,-0.45583957,0.26183924,0.55762243,0.028853688,-0.19050431,-0.12113266,-0.7988693,-1.1459272,0.1833307,0.7243069,0.41111103,0.17233396,-0.08951369,0.23915577,1.1372947,-0.66689044,0.504714
IND000000ACB,0.61197025,-0.14326271,-0.028757665,-0.35941812,0.49166465,-0.4516986,0.09672538,0.16699658,-0.5209136,-0.3762308,0.1299676,0.065071404,0.328402,-0.15145066,-0.2534028,0.04351947,-0.19735862,0.45058239,0.081446424,-0.02669068,0.28905618,-0.64723516,-0.6695296,0.37936693,-0.08083079,-0.13671936,0.041968778,-0.18660918,-0.017126879,0.5691307,0.15239853,-0.1991337
IND000000AEL,0.7293832,-0.12587245,-0.018735915,-0.31416014,0.50341564,-0.5848913,0.035328772,0.09632587,-0.48301414,-0.48511532,0.2584968,0.050880615,0.3696571,0.013756125,-0.31793818,-0.09130282,-0.1691281,0.4262617,0.035988055,-0.07314801,0.3276066,-0.73005533,-0.62476337,0.42226067,-0.15779002,-0.2120002,0.14806709,-0.22749941,-0.15474954,0.6908336,0.15101603,-0.25049537
IND110024AAA,-1.1863307,0.030431008,0.70189005,-1.9390792,0.7627399,0.064196624,-0.41154194,0.7730975,-0.6580544,-0.46708667,0.0060083955,0.0861578,1.354615,-0.7804865,-0.540481,-0.036354236,0.32366845,1.5470874,-0.466646,0.3138022,0.48845837,-1.2312926,-1.2738463,-0.8394705,0.7447102,-0.21771145,0.052042887,-0.09336437,-0.27999163,0.9103032,0.32768464,0.027842304
IND110030AAD,0.76088315,-0.109676786,-0.0126319695,-0.45377162,0.59179276,-0.37820473,0.14529558,0.18585077,-0.5459058,-0.5316144,0.21594588,0.17525977,0.4430385,-0.05995302,-0.41727006,0.07196737,-0.12011705,0.67909604,0.120723434,-0.07010379,0.36676455,-0.7062665,-0.5525218,0.3551929,-0.11119503,-0.16064556,0.20699133,-0.280983,-0.006289441,0.7604681,0.016267493,-0.20681654
IND110037AAK,0.69579524,-0.122131065,-0.12397055,-0.4762097,0.4993313,-0.48243335,0.11097727,0.27139935,-0.48050857,-0.32291782,0.12375339,0.11589735,0.51547736,-0.09099927,-0.24400578,0.016239047,-0.2860729,0.3538877,0.1436544,-0.10812048,0.3180695,-0.75278413,-0.67748636,0.36109358,-0.13663964,-0.23474896,0.085970044,-0.18524353,-0.08173891,0.6886552,0.075821795,-0.16460128
IND110043AAA,0.90633893,-0.36269102,-0.098334946,-0.6772466,0.5111783,-0.33288527,0.03056372,0.6455046,-0.35263464,-0.41879445,-0.08593324,0.22892715,0.5157782,-0.113546535,-0.3088509,0.014817174,-0.30399105,0.48457488,0.11455318,-0.28401387,0.4254376,-0.7335323,-0.6925043,0.4426771,-0.26556534,0.050061647,-0.15353453,-0.3496566,-0.0010263455,0.8742329,0.08489046,-0.40660635
IND110043AAC,0.715292,-0.067258395,0.045578748,-0.44701442,0.53810036,-0.36466074,0.19729121,0.19297051,-0.43820998,-0.51124215,0.18527819,0.01993697,0.3013637,-0.06776227,-0.3942071,-0.011670817,-0.16229132,0.44221225,0.035131123,-0.11496556,0.38452443,-0.6995736,-0.6085346,0.5530116,-0.11581591,-0.16674075,0.033849962,-0.3049803,0.043900013,0.6872565,0.057853322,-0.16469826
IND110052AAA,0.67377895,-0.20912926,-0.062367685,-0.50187737,0.6067602,-0.37057927,0.09893923,0.22002955,-0.5491335,-0.4971802,0.14685227,0.21555188,0.33086225,-0.07809321,-0.3653796,0.048782855,-0.109455235,0.38994002,0.019468589,-0.14111724,0.24846475,-0.68688065,-0.64063925,0.3506215,-0.15941407,-0.20324473,0.0803953,-0.1960716,-0.061466955,0.73291546,0.040263448,-0.23234206
IND110064AAA,0.6984644,-0.08688507,-0.028173301,-0.32376838,0.5660446,-0.3047209,0.075246125,0.18949369,-0.48705503,-0.47834352,0.2517605,0.14681613,0.5175993,-0.010326218,-0.24754502,0.030053966,-0.28844377,0.6092574,0.09181323,-0.13905136,0.34535757,-0.65714836,-0.7029625,0.3938402,-0.20745316,-0.29935282,0.16986702,-0.16925788,-0.10510826,0.83363664,0.0651305,-0.11331007
IND110085AAB,-0.16003361,-0.2050832,0.028268276,-0.68827623,-0.12086645,-0.7108344,-0.015180621,0.07351448,-0.23895179,-0.49040717,-0.4117379,0.36446753,-0.1296257,-0.034702856,-0.90243304,0.04279065,-0.10922733,0.42720973,0.41905764,-0.58304334,0.03989628,-1.2806866,-1.0267557,0.13266829,-0.12149552,-0.7054796,0.37332383,-0.21138045,0.09410984,0.9982904,0.1974065,-0.20267247
IND110092AAC,0.64093256,-0.29007238,-0.034381583,-0.4202693,0.4581642,-0.35353497,0.14097914,0.16719069,-0.44667837,-0.38315114,0.21283594,0.19056734,0.4841768,-0.24080092,-0.3193625,-0.0066503305,-0.20414658,0.41884387,-0.08077414,0.026615817,0.22370635,-0.72621626,-0.5683721,0.44526646,-0.1380764,-0.16764665,0.1275218,-0.18120696,0.0898334,0.70334935,0.17408977,-0.11857032
IND110095AAB,0.76092434,-0.12415224,-0.044471346,-0.32247263,0.5112317,-0.45760027,0.082369715,0.19594063,-0.49830648,-0.49783653,0.11964512,0.24105723,0.41323534,-0.13119142,-0.26052257,0.013558997,-0.14413036,0.4918258,0.119368546,-0.104407795,0.3077927,-0.75298226,-0.5716623,0.4110689,-0.17561978,-0.2092081,0.11491444,-0.2446433,-0.07355195,0.62969446,0.082426295,-0.03961468
IND121002AAB,0.6878402,-0.09900015,-0.013031121,-0.43621722,0.5499062,-0.5530422,0.10297803,0.22292536,-0.5376758,-0.33018157,0.07625094,0.1498711,0.388046,-0.164131,-0.44647643,0.03475109,-0.25000998,0.43344626,0.21701367,-0.110412344,0.26186696,-0.6739202,-0.67161584,0.42429265,-0.18354459,-0.1431843,-0.05365185,-0.12994999,-0.012775945,0.7183845,0.018735902,-0.059656423
IND121004AAB,0.0017047743,-0.3972831,0.332181,0.20184918,1.0709227,-0.8922032,-0.0005541277,0.569653,-0.38885102,-0.11440633,0.4649095,-0.38676798,-0.4285698,-0.32561308,-0.27474597,0.025224732,-0.4506291,0.6843446,-0.15157117,-0.23736954,0.9731562,-0.90111095,-1.2325338,-0.007194652,0.23236048,-0.8653294,0.17285514,0.06057071,0.011112131,0.9044145,0.07678497,-0.2185765
IND122001AAA,0.6784449,-0.25029752,0.44988692,-0.42895913,0.69651026,-0.6615989,0.3863377,0.60539496,-0.24067356,-0.67268974,-0.07332538,0.2249309,0.45675084,-0.27826694,0.13923965,-0.40923062,0.15911824,0.59146583,0.46828237,-0.04368226,-0.0144715365,-0.87126565,-0.6723654,0.50266933,0.08481271,-0.5171773,-0.546119,-0.30878422,-0.5444246,0.6812601,0.0075242813,-0.61394775
IND122015AAC,0.052548554,-0.2542527,0.12573785,-1.0064384,0.19776872,0.08690846,0.11247104,-0.0026926454,-0.6262196,-0.31488073,0.11543249,0.4364907,0.04998093,-0.6250871,-0.44392365,-0.1525517,-0.17635426,0.5999317,0.9651139,-0.11814722,0.35200202,-1.2101934,-1.0655931,0.5978347,-0.16900583,-0.34496662,0.023652077,-0.048338443,-0.042295698,0.34395438,0.30399817,-0.27154228
IND124103AAA,0.6962533,-0.15806814,-0.17968634,-0.4321527,0.5791729,-0.33674756,0.23329587,-0.13481416,-0.46983737,-0.42752522,0.30288073,0.2747961,0.78073,-0.06721718,-0.32455254,-0.13501443,-0.05665888,0.62402827,0.049004834,-0.058156382,0.5835484,-0.93622845,-1.0645686,0.60660446,-0.22428323,-0.15727423,-0.058985174,-0.37844312,-0.24256606,0.68555903,0.18805559,-0.3745442
IND124112AAA,0.48440054,-0.6074827,-0.18844596,-0.45353246,0.3725892,-0.46960407,0.43074292,0.27334496,-0.7672454,-0.59260327,0.04728598,-0.21394944,0.008684291,-0.41275916,-0.39515328,-0.027483376,0.144141,0.45192206,0.1838614,0.3886695,0.20609227,-0.9500565,-0.86326396,0.820657,-0.08820065,-0.025974846,-0.08840786,-0.47824183,0.29523462,0.80244976,0.5923844,-0.21760513
IND125001AAA,-0.05956384,-0.5952007,0.32137448,-0.3628917,-0.019606695,-0.7763992,0.399695,-0.0034489273,-0.71648216,-0.2800729,-0.24713896,-0.23539612,-0.26234788,-0.20807031,-0.5334181,-0.08098557,0.120914176,0.8746948,-0.20965265,0.31404504,0.49013495,-0.68191266,-0.9951432,0.55357206,0.18534228,-0.23356071,0.06113153,-0.5146421,0.48274225,0.733934,0.3315248,-0.39386547
IND125005AAA,0.6989227,-0.8160801,0.029846163,-0.21989293,0.30624172,-0.5814276,0.71345043,0.1563766,-0.5927312,-0.43300232,-0.002970304,-0.42287454,-0.12796548,-0.46942773,-0.60998225,-0.14369862,0.03704118,0.595774,-0.13083234,0.5551433,0.1441469,-0.75488555,-0.92740744,1.2129277,0.31020135,-0.16012704,-0.052694682,-0.6662155,0.48427412,0.84602046,0.6977186,-0.17806163
IND125033AAA,0.03908047,-0.26144418,-0.026922889,-0.9275808,0.12928116,0.036198072,0.085213326,0.115203544,-0.7965098,-0.4951925,0.15963295,0.26110005,-0.10628775,-0.763191,-0.489547,-0.17742142,0.0052184355,0.83383906,0.890058,0.18227507,0.19288673,-1.2924801,-1.1888254,0.65792114,-0.24180862,-0.19015801,0.115608625,-0.11259874,0.106683865,0.44112682,0.4541162,-0.3324761
IND127021AAA,0.7538315,-0.11194381,-0.17472917,-0.39346957,0.58836645,-0.30897564,0.20058952,-0.06255342,-0.47145367,-0.32786605,0.23729673,0.23610552,0.9044762,-0.05800566,-0.30316198,-0.15845467,-0.093483,0.6051736,-0.0063098175,-0.07621259,0.53547585,-0.8670721,-0.94173604,0.5658922,-0.25913948,-0.0858948,-0.06569356,-0.4553484,-0.19290403,0.7778134,0.081996076,-0.37136474
IND131028AAB,-0.3220148,-0.4190468,-0.51769555,-0.5679925,0.27636766,-0.45392203,0.21979792,0.11786234,-0.63163805,0.29385176,0.12353853,-0.21318768,-0.11402254,0.20053463,-0.09792095,-0.91723377,-0.4216504,0.4701099,-0.18729207,0.10655989,0.3965698,-0.9906329,-0.642248,-0.20013316,0.61997664,0.50874037,0.4558864,-0.065255255,-0.35957074,1.3557408,-0.1876083,-0.46528426
IND201007AAA,0.121624015,0.0060291905,1.2438416,-0.76955986,0.45886144,-0.48866314,0.4710833,0.33643118,0.089574,0.012028739,-0.03366975,0.8381256,0.23949687,-0.8810479,-1.4468292,-1.3244948,-0.5801238,0.19742724,-0.4397901,0.2995566,1.0014095,-2.1523423,-0.6606808,0.4598334,1.3012488,-0.5901869,0.46866846,-0.58861125,0.69265205,0.49572742,-0.7772477,-0.6178168
IND201301AAF,-0.3278529,-1.0157514,0.5000508,-1.252939,0.32157862,-0.84780663,0.38329005,-0.68998754,0.05044335,-0.19878834,-0.37830287,1.1240677,-0.21071492,-0.766758,0.20403674,-0.60028493,-1.1176944,1.7960694,0.67491233,-0.63331515,0.9233375,-0.5890532,-1.2065871,0.50335586,0.1729481,-0.1037884,0.49007118,0.8578028,0.05818368,0.54711896,-0.6092591,-1.1102824
IND201301AAM,0.79370236,-0.29233643,-0.039400615,-0.36873996,0.4912893,-0.43429828,0.09606686,0.19837734,-0.56954855,-0.4909824,0.14564963,0.18325281,0.34413984,-0.21032241,-0.4148728,0.078208044,-0.06461929,0.4760384,0.06677666,-0.08070018,0.3287014,-0.6984973,-0.6536125,0.40284532,-0.13067275,-0.073962845,-0.0014116812,-0.2776008,0.020729234,0.7310219,0.124892615,-0.2806504
IND209304AAA,0.0228993,-0.24063304,0.34213144,-0.83324736,0.9174826,-0.7938682,-0.3191757,-0.20677587,-0.8012008,0.4828652,-0.17445984,0.5659842,-0.18141477,-0.817245,-0.0051679704,0.09514503,-0.23102756,0.24977769,-0.119823694,0.27473217,0.040090565,-0.4794715,-0.47980034,0.35313496,0.25613743,-0.7601704,0.08913454,-0.34763274,0.09968559,0.86465347,-0.0052272957,-0.22503449
IND282002AAD,0.11554493,-0.27557546,0.6403497,-0.6484259,0.37013736,-0.65372723,-0.19418275,0.5050834,-1.0677366,-0.04070381,-0.5275121,0.4085855,-0.28313103,0.41943198,-0.65288466,0.03779602,-0.68906534,0.789364,-0.16393027,0.33528835,0.5414891,-0.8717924,-1.0951303,0.27054912,0.26605168,-0.13070613,-0.25376874,0.048532624,-0.14033842,0.5856749,-0.39451262,0.033735264
IND301001AAB,0.58079016,0.56813127,-0.3932697,-0.5402252,-0.049565736,-0.51330745,-0.16209441,-0.1422502,0.2888232,-0.5666825,-0.43259358,0.14554012,-0.011059947,-0.6399774,-0.13538642,0.5349013,-0.4047583,0.2547551,-0.32435063,0.4715829,1.0635087,-1.5364727,-1.0643783,0.6418196,0.6461039,-0.10081625,-0.1739356,0.3165843,-0.39126045,0.79833645,0.27939335,-0.27727637
IND302014AAA,0.47010514,0.42980924,0.14299878,-0.41489628,0.03795798,-0.4065844,-0.24242376,0.044981953,0.12300802,-1.0030901,-0.045725036,0.093175106,-0.22783709,-0.55263466,0.04017156,0.18048711,-0.5576286,0.3400949,-0.98258704,0.39452267,0.671055,-0.6720346,-0.8600708,0.5781303,0.5890055,-0.23307402,-0.006701768,0.363643,-0.1767283,0.8272775,0.23044224,-0.28206322
IND302022AAD,0.7869153,-0.2092442,0.03166605,-0.31936115,0.4634218,-0.53051,0.09714631,0.17544466,-0.5418213,-0.43708327,0.11919594,0.17693983,0.40532422,-0.079424076,-0.39854652,0.05761953,-0.15764253,0.4491188,0.12586738,-0.09208016,0.35281652,-0.6860462,-0.66970897,0.4077971,-0.10111967,-0.09901305,0.04576381,-0.20446885,0.030472474,0.71375984,0.11633651,-0.15081763
IND328001AAA,0.8309848,-0.25165907,0.49237564,-0.5127391,0.4512111,-0.5687131,-0.14849149,0.48017824,-0.8607051,-0.12501034,-0.37059078,0.4786876,0.1633779,0.46336082,-0.57033706,0.04883744,-0.6103548,0.5953819,-0.03357275,0.32309744,0.28255227,-0.7562867,-1.1215092,0.3269583,-0.053750113,-0.17216285,-0.17775333,-0.1453613,-0.2115548,0.5091209,-0.23449798,-0.00039646094
IND382430AAB,0.257223,0.51869667,0.01576567,-0.31080595,0.89661837,-0.58056074,0.2597593,0.37015906,0.009191885,-0.81257075,-0.32395715,-0.112852,0.056894768,-0.9516939,-0.85848385,-0.3630773,-0.24126348,0.2863816,-0.26150098,-0.10879054,0.3068852,0.22244227,-0.96446526,0.5932034,-0.18956052,0.5612005,0.19698717,0.02980082,-0.4380635,0.67060965,0.043756284,-0.25744653
IND390022AAA,0.19572528,0.23234324,0.34733686,-0.6282896,1.0222743,-0.33756274,0.2960768,0.13090706,-0.2762659,-0.51773846,-0.314745,-0.3768225,-0.1325724,-0.63443995,-0.8741234,-0.07026461,-0.3840644,-0.09138558,-0.2704561,-0.49644634,0.35799688,-0.012663495,-1.0591581,0.3780653,-0.33809972,0.61397344,0.78221864,-0.22645478,0.054257244,0.6017752,-0.032745935,-0.09983902
IND421302AAG,-0.29528812,-0.09919932,0.1857431,0.012544101,0.62142015,-0.39902276,-0.06432873,-0.030468918,-0.683654,-0.38732892,-0.59720606,0.09129678,0.2896732,0.026819842,-0.26023662,-0.47521028,0.20376423,-0.31607133,0.08254013,-0.09396919,0.5680685,-0.044304166,-0.9877565,0.19913779,0.15282442,0.26891932,0.82615113,-0.11330928,-0.19431502,0.25289243,0.14257239,-0.5185213
IND462022AAA,0.22662474,-0.7228062,0.5390281,-0.34472403,0.54269516,-0.5747952,-0.7233651,0.19029325,-0.51350707,0.15841746,0.12239254,0.53383833,0.30330545,-0.67921656,0.15437809,0.19364864,0.31988877,-0.13186012,-0.45809904,0.3310622,-0.0875447,-0.6198985,-0.64132804,0.9967772,0.19566308,-0.37670636,0.8334772,-0.362005,-0.5509185,0.4043689,-0.123449184,-0.27509463
IND474003AAA,0.91845816,-0.3921672,0.6121851,-0.724468,0.9702438,-0.1939579,0.2799727,-0.0622709,-0.7836866,-0.2404375,-0.0904677,0.43961573,-0.21473892,0.35852423,-0.6097807,-0.006213671,-0.30794403,0.87989795,-0.018369436,0.586976,0.30335352,-1.0750842,-1.0443033,0.031585027,-0.04114907,0.2765602,-0.07290869,0.23439775,-0.3421229,0.16845165,0.10206566,0.25141278
IND501359AAE,0.13129643,-0.78882116,0.76964253,0.2802731,0.70039123,-0.14037852,-0.81149685,-0.21294202,-0.083478026,-0.37091208,-0.010082268,0.12574758,0.55890226,-0.090986714,-0.25593382,0.046155673,-0.04185625,0.091107756,0.42118973,-0.10848571,-0.044893164,-0.36293355,-0.33986938,0.61941737,0.33606747,0.27782887,0.2361684,-0.28194803,-0.11118368,0.44759408,0.4002836,0.028821107
IND521225AAB,0.3715283,-0.5826073,0.44237855,0.49487668,0.64948165,0.15810463,-0.44041866,-0.6229314,-0.40694654,-0.41580454,-0.106984295,0.1046883,0.48961726,-0.86049664,-0.41783068,0.41473043,-0.111072205,0.70419806,0.45089424,-0.08422165,-0.091682404,-1.0272274,-0.39428744,0.25687808,0.57567525,0.85280156,0.31894526,-0.4971041,0.11769522,0.5847107,0.016719384,-0.56680053
IND600056AAB,0.71646154,0.080058075,0.701254,-0.13702552,0.200209,-0.08601758,-0.6062529,-0.29283205,0.56846195,-0.18448506,0.45097548,-0.104351774,0.5585721,-0.023441756,0.009894235,-0.2428741,-0.39495984,0.3144826,0.7029727,0.282593,0.42977136,0.1511604,-0.56852764,0.58650076,0.4690395,-0.18035364,0.77874273,-0.9654586,-0.4720233,0.7323946,0.078903206,0.24570438
IND712311AAA,0.28951636,-0.2373945,-0.13530639,-0.37118685,0.9059606,-0.14394449,-0.7964855,-0.3164188,-0.46042147,-0.37420782,-0.4186924,0.13456571,0.07292134,0.051848322,-0.22109185,-0.47946304,0.22892834,0.20520166,0.4089144,-0.38123006,0.7778899,-0.05971316,-0.5388743,0.2705208,0.55170935,-0.3601313,-0.09316174,-0.48377973,0.54888946,-0.08423668,0.32775024,-0.08661193
IND751002AAB,0.34394532,-0.1856597,0.20108418,-0.23573916,0.47646412,0.32971987,-1.0683098,-0.10925772,-0.40901425,-0.71352834,-0.038473524,0.21323858,0.48728606,-0.004524053,0.0105037065,-0.20226678,-0.35129234,0.22521946,0.32731104,-0.60536146,0.3957266,0.10205803,-0.6622627,0.6690553,0.20982665,-0.29274747,0.08463202,-0.3117713,0.5339607,0.5319385,-0.06425884,0.57750654
IND821115AAB,0.4313039,0.11973382,-0.27018982,-0.8331752,1.3017458,-0.79747134,0.2994511,0.010359999,-0.6417529,-0.0628399,-0.40993318,0.5028378,0.21474382,-0.24534974,0.020076327,0.1486512,-0.9146926,0.3592621,0.05552992,-0.12979339,0.14871214,-0.5224071,-0.29798952,0.44640458,0.6756076,-0.49125695,-0.03827791,-0.73226726,0.12043451,0.49078625,0.6250128,0.08430742
IND834002AAB,0.7410371,0.27742463,0.1439454,-0.6745794,0.8737592,-0.639774,-0.24081948,0.010584933,-0.7444903,-0.31143716,-0.6378481,-0.37117496,0.5162019,0.033495277,-0.23310953,-0.48848543,0.32478043,0.3136339,0.4130112,0.31159046,0.18637142,-0.54449964,-0.76609254,0.45933425,0.4448385,-0.4263754,0.5571125,0.31847355,0.6223459,0.31475338,0.43139127,-0.71872675
IND842001AAA,0.9625322,-0.4913376,-0.5066362,-0.6794728,0.55261964,-0.23694965,0.20800312,-0.03453899,-0.4349162,0.10202635,0.07851796,-0.4398762,0.24449107,-0.7001899,-1.0329747,-0.6118622,-0.05481895,1.3233522,-0.5591134,-0.27687913,-0.67361945,-0.66489303,-1.3359338,0.3225081,1.0928066,-1.0966622,0.295103,-0.27006504,-1.0023878,-0.23169106,0.17456287,-0.30061123
IND000000ACK,0.034910515,-0.28055274,-0.6392041,-0.42398152,1.2913636,-0.4316589,0.14269371,0.11540837,1.1283897,0.77902466,-0.8568709,-0.28726673,-0.22242859,-0.89666957,-0.44207963,-1.2918975,-0.62916803,-0.07101893,0.79062593,-0.21729378,-0.14293791,0.051725633,-0.39789206,-0.15135235,1.6036937,0.13033935,0.1097084,-0.38208878,-0.9040624,0.19550695,-0.118306324,0.14699301
IND000000ACN,0.24047895,-0.33881792,-0.8745803,-0.6060651,1.6400218,-0.57662046,0.14216498,0.14049667,1.4714125,1.0005566,-1.1117432,-0.11165169,-0.34036237,-1.3009307,-0.6591626,-1.6481395,-0.7091972,-0.04037243,1.2734649,-0.26593062,-0.57873386,-0.06955554,-0.3937974,-0.38028717,2.0292656,0.16460386,0.25689992,-0.40244085,-1.1978188,0.23511401,-0.34674644,0.11324686
IND000000ACT,0.43828514,-0.18843567,-0.57458466,-0.4246952,0.44587475,-0.33844104,0.30286777,0.15036015,-0.7873168,0.06467167,0.53314805,0.007307106,0.15068452,0.39890075,-0.09116338,-0.3493302,-0.14179668,0.17773984,-0.2174868,-0.4323825,-0.20104407,-1.0275098,-0.6527788,-0.06976219,0.5146192,0.40673974,0.10366554,-0.3451598,0.10045073,1.2514503,-0.45407185,0.047486488
IND000000ADV,0.4540947,-0.5002239,-0.060799062,0.31924665,1.1384922,0.4850489,-0.18920884,-0.048653644,0.6615529,0.9001808,-0.88404644,-0.4505135,-0.7633342,-0.35007402,0.0778335,-0.91886556,-0.7858009,0.7647579,0.09134818,0.7008939,-0.47062618,-0.09164934,-0.836146,0.05299823,0.7453357,0.4479911,0.6476583,-0.24843197,-0.74297726,0.74001455,-1.2083856,0.83164746
IND600044AAC,0.8326701,-0.37585762,-0.89008605,0.08294958,0.6350048,-0.5601684,-0.3108164,-0.55632,0.33469135,0.7091748,-0.45889324,-0.98468786,-1.0861639,-0.30610034,-1.6591265,-1.4031692,-1.0572675,0.2343491,-0.20273782,0.1976241,-1.5682865,0.17888428,-1.6653906,-0.23373649,1.3176802,0.37583044,0.41386998,-1.5510421,-0.7542436,0.58630425,-1.3477463,1.3224959
IND000000AEM,0.44591767,-0.235355,-0.44428232,0.5488293,1.0828588,0.25448525,-0.050895967,-1.0800045,1.3740873,0.30169904,-0.8191929,-0.24806935,-0.7839221,-0.3314767,-0.644513,-0.43958825,-0.8704477,0.82062566,-0.11273614,0.7118357,-0.4817386,-0.15020557,-0.30234876,0.16908792,1.4234363,0.4719043,-0.502584,-0.065912746,-0.5254837,0.80363554,-0.29116186,0.61930203
IND110037AAB,0.08101261,-0.26236403,-0.95711577,0.44686365,0.7618068,-0.30477858,0.07641657,-0.2750379,0.7011476,0.14758037,-1.0432993,-0.59598935,-0.7378263,-0.28676993,-0.13572493,-0.7486937,-0.55143595,0.2328301,-0.23581567,0.7765353,-0.36212918,-0.4807691,-0.5934984,-0.09751161,1.1507636,0.17070696,0.26828775,-0.13003536,-0.19459572,0.27114245,0.033129875,0.93325156
IND110064AAB,0.14823039,-0.26505545,-0.9418889,0.4371126,0.7105859,-0.23121485,0.043932844,-0.26897046,0.62672037,0.21720019,-0.8648425,-0.57181853,-0.67612183,-0.2361153,-0.1807245,-0.77671206,-0.44946426,0.139313,-0.23242892,0.7500425,-0.31911168,-0.4308297,-0.56288826,-0.11368435,1.0724427,0.12604734,0.2738351,-0.043915194,-0.18046923,0.31433693,-0.05163738,0.8447949
IND000000AET,0.19660392,-0.28948182,-0.29588822,0.37767148,0.79849195,-0.56115043,0.46786365,0.15056069,1.0371648,-0.25502375,-1.7275167,-1.3920835,-0.26288328,1.0157162,-0.8401983,-1.3046503,-0.3559075,1.2162846,-0.35287857,0.6871611,0.17155059,-0.1502773,-1.8732566,1.1665727,1.4180397,1.2860806,-0.20232823,-1.273705,-1.3079789,0.4279006,-0.734195,1.2921535
IND000000AFJ,0.31217027,-1.4600601,-0.6552493,-0.26412362,1.2434278,0.23587918,-0.6248474,-0.10898438,1.5069196,0.18775246,-1.3158629,-0.009070485,-0.9236172,-0.41386193,-0.7472522,-1.0484817,0.8358668,0.38441846,-0.32392913,0.87441844,-0.3732699,-0.6478432,-1.2224292,-0.65081555,0.34175834,1.2033597,-0.20578259,0.11059785,0.02689169,1.5423532,-1.0788106,-0.041611627
IND695121AAA,0.28412586,-1.5897192,-0.5624521,-0.17626622,1.5696872,0.35614368,-0.59290564,-0.2051439,1.714472,0.18641739,-1.5179776,-0.0038938276,-0.95946234,-0.41692948,-0.7008788,-1.1804085,0.886837,0.42394325,-0.30410826,0.9806658,-0.41208073,-0.65793025,-1.2712405,-0.82799053,0.38260886,1.3845322,-0.22985302,0.15702574,0.20361635,1.8376876,-1.0548102,-0.1930029
IND000000AFR,-0.27750993,-0.6872462,-0.92450976,-0.28904614,0.12367667,0.28232124,-0.44117925,-0.09149775,1.104017,-1.1149155,-0.4632352,0.34007505,-0.06644847,-0.5617295,0.7314302,0.057662494,0.4131819,0.26517954,0.03607427,-0.20698656,1.2082882,0.40027496,-0.8772591,0.13884735,0.47981825,0.41707724,1.0430783,-1.0737518,-0.21401414,0.99906015,-0.13876139,0.23284759
IND683511AAA,-0.38321295,-0.58127224,-0.25558433,-0.5088179,0.12789111,0.38493422,-0.30977172,-0.052306194,0.66201067,-0.6732724,-0.1611851,-0.077534154,-0.21749881,-0.8198253,0.8179791,0.13686636,0.04899531,0.2096122,-0.0072497143,-0.5685141,0.67249024,0.16635512,-0.9222597,0.67887896,0.7824334,0.3705107,0.7462546,-1.1811591,-0.21149617,0.4186149,-0.3903958,0.282084
IND000000AFT,-0.29225332,0.3398218,0.5547379,0.33499983,0.741093,-0.66062933,0.25851354,-0.061075553,-1.2573988,-0.604521,-0.86821014,-0.09189015,0.40482897,-0.28623453,-0.18263234,-0.38487896,0.23893878,-0.30383644,0.19685201,-0.3241063,0.7011922,-0.2553816,-0.9906964,0.045982424,0.9728807,0.5143528,0.5806556,-0.460845,-0.8158231,0.06729259,-0.015140605,-0.20589042
IND400072AAB,-0.040250156,-0.0990942,0.33060643,0.31759337,0.6158671,-0.3691632,0.24652214,-0.30844188,-1.1062409,-0.5994863,-0.7387963,0.109747894,0.55751365,-0.14988558,-0.4026924,-0.34517896,0.12031275,-0.4915991,-0.038249057,-0.09028864,0.43201855,-0.08102746,-1.2014868,-0.18870741,0.71175367,0.2460268,0.8422344,-0.23230624,-0.7204477,0.09245834,0.1363596,-0.1302517
IND410209AAA,-0.9102977,0.6963615,0.9295745,0.011307864,0.35511148,-0.3214205,-0.16619964,-0.49693295,-1.5970924,-0.51555586,-1.0365642,0.15752068,0.5142668,-0.7121074,-0.49650103,-0.6851374,0.00526254,0.072643,0.61540914,-0.61879987,0.84301853,-0.47375444,-1.472229,0.22423501,1.0390962,0.57713526,0.59842795,-0.4511892,-0.92707497,0.0718674,-0.20993479,-0.28521517
IND410210AAA,-0.8304294,0.5712492,0.8337378,0.04618336,0.35561296,-0.37598553,0.14043249,-0.19470851,-1.6545691,-0.8004328,-0.91293055,-0.06574837,0.35771763,-0.540643,-0.11430882,-0.6596202,-0.2091769,-0.032781135,0.7337689,-0.45989195,0.85800457,-0.6764237,-1.7091815,0.25508472,1.0419344,0.62826663,0.5945466,-0.51670367,-1.0571783,-0.06491666,0.14257848,-0.17761457
IND110014AAA,-1.182997,-0.007620094,0.73690116,-2.0153022,0.7740638,0.122509636,-0.34483725,0.8349491,-0.79318035,-0.45231566,0.13535057,0.007889238,1.3043219,-0.83300906,-0.65747315,-0.084277675,0.3974337,1.5794054,-0.47853932,0.40336463,0.4574969,-1.2294544,-1.327651,-0.8112633,0.7693299,-0.23994152,0.035222586,-0.14487378,-0.28800187,1.0140101,0.5314763,0.08491849
IND110020AAB,-0.5113571,-0.34594488,0.19516936,-0.4156601,0.40636006,-0.88828176,0.038686145,0.20944251,-0.5472197,-0.086379066,-0.07396676,0.38562799,-0.40147275,-0.17324339,-0.58800477,-0.094273776,-0.31581357,0.5592074,-0.47996274,0.008919024,0.8476062,-0.5117544,-0.8972673,-0.17172727,0.3207617,-0.3478984,0.20122388,-0.10494531,0.2583546,1.0515159,-0.22376679,-0.3057773
IND110037AAM,-0.5302657,-0.21623215,0.28573135,-0.47737753,0.298475,-0.85985047,-0.024154339,0.13372932,-0.61117584,-0.10043085,-0.111039944,0.22407722,-0.36614656,-0.13016184,-0.47314122,-0.050921787,-0.2858631,0.5589173,-0.48834926,0.039543785,0.6821284,-0.57127625,-0.85944176,-0.116453834,0.3644694,-0.3650608,0.21501611,-0.030291123,0.18634543,0.87655264,-0.26205438,-0.3850164
IND110035AAC,-1.4107363,0.019649705,0.49034438,-1.018858,0.015422743,-0.13730043,0.04030717,-0.0800796,-0.5477367,-0.08487946,-0.34228757,0.6493268,-0.87099075,-0.5758144,-0.49447054,-0.06432279,-0.44608977,0.852913,0.33547592,0.123585,0.71611315,-0.98605216,-1.4645698,0.045079198,0.21670888,-0.39792705,0.45260644,0.015696364,0.20627908,0.74300104,-0.24517745,-0.54643464
IND201001AAC,-1.619841,-0.04837904,0.43327898,-1.0104183,-0.05973838,-0.1038862,0.15115407,-0.013480881,-0.7021053,-0.062754,-0.4090293,0.7207386,-0.8697171,-0.5195829,-0.44122308,-0.2255342,-0.43984362,0.8534989,0.37660977,0.011763126,0.7811306,-0.91683614,-1.5745554,0.23592108,0.3317586,-0.5116906,0.3731277,0.2490782,0.16709746,0.79528505,0.016220342,-0.25218716
IND201301AAD,-0.5549802,-0.31632107,0.33033988,-0.4848677,0.23833391,-0.9393022,0.044168446,0.12071158,-0.603113,-0.04292073,-0.20052809,0.21257658,-0.3310793,-0.10041418,-0.31536534,-0.12731011,-0.2848496,0.517867,-0.47468492,0.06966306,0.7327957,-0.5623028,-0.91930914,-0.09085359,0.37694398,-0.49179104,0.21478882,-0.03934253,0.1935104,0.97822154,-0.22665629,-0.3079108
IND202001AAB,-0.53230435,-0.3537719,0.68781453,-0.5695143,0.272186,-0.67550945,0.20256907,0.25301743,-0.7456982,0.10969597,-0.46084124,0.1940428,-0.5428165,0.38856,-0.7332129,0.020155476,-0.62402976,0.70476454,-0.7580573,0.38648546,0.81852216,-0.5240748,-1.2057323,0.048969183,0.46025017,-0.31928527,0.0063479748,-0.19123042,-0.35635126,0.79398793,-0.6194442,0.08052194
IND226004AAC,-1.3493971,0.060687646,0.39637813,-1.0852702,0.025914984,-0.1670221,0.037029553,-0.057681896,-0.7632752,-0.055782862,-0.23472252,0.51315325,-0.95382774,-0.48568913,-0.61319304,-0.16100937,-0.25729114,0.76272595,0.24862258,0.011955706,0.7615316,-0.8589302,-1.6055524,0.050184414,0.29676098,-0.43453392,0.27363005,0.086859405,0.07202976,0.7682362,0.009461704,-0.40953672
IND282001AAA,-0.12904017,-0.17820726,0.123106495,-0.5389948,0.5850328,-0.7444416,-0.02360681,0.1193143,-0.4172281,0.07406346,-0.0921596,0.5677547,-0.103870146,-0.2208364,-0.4314231,0.102883086,-0.25484148,0.42876518,-0.043469768,0.16287325,0.44641945,-0.42671382,-0.6762014,0.029336033,0.031211343,-0.66736287,0.27864808,-0.2537305,0.17437194,1.0691193,-0.059381746,-0.21932407
IND282001AAC,0.19533712,-0.17607181,-0.013084646,-0.3272108,0.46769357,-0.5404348,0.05290775,0.092411295,-0.3564763,-0.2655324,0.1304607,0.35335982,-0.065146044,0.0459395,-0.4844284,0.075497165,-0.0417296,0.71740323,0.016671859,0.04061608,0.60879725,-0.5835542,-0.8206697,0.07111322,-0.23087044,-0.36384702,0.15222596,-0.35776335,-0.0334692,0.9043776,-0.0921529,-0.20791052
IND811399AAA,-0.07959379,-0.26849023,0.35632947,-0.49279478,0.49828878,-0.73588276,0.13811098,-0.25899044,-0.837958,0.021154877,0.1297647,0.48966616,-0.4127461,-0.5584422,-0.226071,-0.31822333,-0.36051962,0.6105401,-0.45732516,0.036400955,0.80439025,-0.48197365,-0.495264,-0.1178016,0.5100887,-0.4884178,0.23694935,-0.21136713,0.32636106,0.95600134,-0.69457316,-0.50740445
IND110039AAA,0.02362088,-0.12094787,-0.021605663,-0.5780994,-0.038766716,-0.7778641,-0.11200702,-0.02290405,-0.15781617,-0.5590048,-0.32558736,0.4404361,-0.16581301,0.07979692,-0.9772812,0.15894836,-0.1597708,0.36409834,0.27607432,-0.5122208,-0.24737705,-1.3499902,-1.2391816,-0.105424546,-0.18267109,-0.7025473,0.49572474,-0.3313527,0.15905707,1.2453587,0.22916913,-0.18102999
IND110078AAA,0.9271457,-0.50236124,-0.18491557,-0.73036236,0.57943785,-0.30103195,0.056892686,0.7523177,-0.34025455,-0.39010578,-0.0827837,0.29040548,0.6160987,-0.09463903,-0.290445,0.05502774,-0.3806295,0.50841624,0.09219886,-0.34098166,0.54114217,-0.7208856,-0.7562417,0.42317912,-0.23448037,0.09563208,-0.24419197,-0.44819707,-0.07180922,0.9721394,0.093910165,-0.4634631
IND110044AAB,0.29232013,-0.5284351,0.15718153,-0.2570321,0.33268195,-0.6764234,0.18359184,0.029495435,-0.5312587,-0.22389002,0.17942691,0.51073694,0.09766646,-0.19193287,-0.4039309,-0.42385775,-0.5938911,0.6763834,-0.3530716,-0.041834652,1.0156194,-0.39931646,-0.4013857,-0.2947058,0.30981946,-0.29450879,0.5453794,-0.3066409,0.49720815,1.2082453,-0.83950275,-0.23456872
IND110083AAA,-0.70941985,-0.2091984,0.07994706,-1.1613269,-0.54447234,-0.55766714,-0.047212344,-0.07803227,-0.5104966,-0.32533264,-0.5791476,0.6225426,-0.3669748,-0.41047907,-1.1806551,0.052357815,-0.22953737,0.7620872,0.95857155,-0.6301986,0.045292903,-1.6079009,-1.5904346,0.330316,0.0033572393,-0.609214,0.557867,0.04035321,0.17903575,1.0438035,0.51009226,-0.30436063
IND110087AAA,-1.141657,-0.38114935,-0.0063340124,-1.0416886,-0.1548672,-0.40179694,0.22369844,-0.14057519,-0.31893256,-0.4856904,-0.83772683,0.42532158,-0.25810266,-0.24884416,-1.0057236,-0.1529028,-0.065529644,1.0299119,0.81864125,-0.51964587,0.15228593,-1.387979,-1.4687836,0.44077677,-0.49639028,-0.9018819,0.49394,-0.257926,0.106009506,1.2806643,0.37876272,-0.23091088
IND121001AAA,-0.0026797114,-0.47468233,0.4120064,0.32307267,1.2503276,-1.0600206,0.038483396,0.5841523,-0.35525793,-0.067668594,0.53603387,-0.4699379,-0.30019552,-0.3045347,-0.3975824,0.02250704,-0.4123913,0.82704026,-0.19093966,-0.3079322,1.018874,-0.9589704,-1.3330542,-0.07590374,0.2829597,-0.8049743,0.036260877,-0.004271235,-0.07427317,0.90737665,0.009509884,-0.17658508
IND121004AAA,0.086815596,-0.5167055,0.5143641,0.26968533,1.282378,-0.8216927,0.017060017,0.62285763,-0.34626427,-0.20870392,0.5294086,-0.36463296,-0.33672827,-0.3184611,-0.19444372,-0.050089974,-0.58358145,0.71755457,-0.087820545,-0.11248633,1.1379182,-0.86422586,-1.2869817,-0.22055979,0.23347723,-0.94812316,0.14913127,0.0031931554,-0.0007561563,1.0697582,0.13229467,-0.2929161
IND121004AAC,-0.0015311445,-0.50186974,0.34949732,0.4310781,1.1630933,-0.9175926,-0.17745022,0.787161,-0.30507192,-0.18522955,0.59679574,-0.27214718,-0.45353478,-0.28593326,-0.33156586,0.116533175,-0.44404086,0.80974966,-0.06912057,-0.13842818,0.980001,-1.0938348,-1.2324096,-0.034954395,0.32327962,-0.8272382,0.24171585,0.016565233,0.06835586,1.0066199,0.04590443,-0.19585006
IND121102AAA,0.043390755,-0.38182315,0.46784195,0.29425415,1.3126076,-0.963409,-0.015500106,0.6094047,-0.3702903,-0.23806328,0.64214367,-0.4054584,-0.424773,-0.3316631,-0.22694679,0.022803007,-0.39857388,0.8125336,-0.16580667,-0.21924844,1.1434416,-0.9129574,-1.1544074,-0.049103837,0.3429902,-0.9727111,0.3341926,-0.044621445,-0.0051801205,0.9179032,-0.07628011,-0.079341136
IND122001AAD,0.40824994,-0.25065348,0.6930738,-0.81419027,0.60346115,-0.48520714,0.66724235,0.8455694,-0.38183123,-0.779297,-0.20259766,0.38158977,0.40739083,-0.5894266,0.4418657,-0.53019273,0.3215141,0.9153376,1.1355377,0.1023496,-0.27151087,-1.2502669,-1.2427233,0.76771855,0.28670645,-0.62010753,-0.6332251,0.030568268,-0.9629036,0.52898914,0.12643299,-0.8390487
IND122050AAA,0.37847108,-0.36573744,0.70150703,-0.867582,0.5688746,-0.73850685,0.649494,0.8205441,-0.29887992,-0.9459886,-0.21030092,0.5071534,0.38627532,-0.716156,0.43701303,-0.5847284,0.38249993,0.9727047,1.157447,0.05895908,-0.38082814,-1.2685381,-1.4826629,0.70737934,0.2254028,-0.669701,-0.6655803,-0.04798421,-0.8994218,0.47058827,0.1341505,-0.9071267
IND122001AAJ,-0.6815906,-0.90094626,0.6950159,0.9376783,1.2495126,0.37930408,-0.7013472,-0.20399655,0.4303503,-0.45327815,-0.123387806,0.83500975,0.6391741,-0.54079545,-1.0213065,-0.18606368,-0.07207104,0.38423112,-0.0049743373,-0.6320389,-0.38191554,-0.29781598,-0.81415516,1.0152557,1.0900006,-0.10825755,-0.2871923,-1.0512697,-0.5515229,0.50573814,0.36296633,0.08922821
IND507123AAA,-0.5413163,-0.99296945,0.67683196,1.0403543,1.4736915,0.2302229,-0.6848176,-0.11415585,0.5520756,-0.6698141,-0.19846995,1.0266234,0.7409223,-0.29880548,-0.9631455,-0.07077113,0.024772028,0.30136076,-0.04259965,-0.56928,-0.26353553,-0.19538766,-0.7566253,0.8447264,0.9783565,-0.27695224,-0.3527525,-0.96335775,-0.60422236,0.7242372,0.36981156,0.10252618
IND122002AAD,1.1310055,-0.7116504,0.8451899,-0.74022686,1.119047,-1.1315883,0.77444994,1.2456454,0.4419389,-0.75584376,-0.21679054,-0.24161081,1.0162803,0.085446626,-0.33576006,-0.33546674,0.18726668,0.17294653,0.46864524,-0.03742919,-0.3445563,-1.13712,-0.7897986,0.42861766,0.29459754,-0.7785145,-0.7502548,-0.07362478,-1.1090535,1.2164024,0.00086563063,-0.085094504
IND122503AAA,1.2663879,-0.4817646,0.42766464,-0.31782082,1.173251,-0.94416976,0.50467944,0.9686737,0.027231216,-0.9741909,-0.21314439,-0.041108616,0.7794087,0.06636349,0.051297404,-0.41446683,0.19077076,0.18038055,0.47500876,-0.17556328,-0.1441777,-1.1079004,-0.62959945,0.13070536,0.15346959,-0.68342775,-0.6989881,-0.120991684,-0.9272026,1.2149612,-0.15316291,-0.21380416
IND122004AAA,0.95829004,-0.24518257,-1.1715095,0.44000968,1.0234241,-0.04236558,-0.5645405,-0.5125086,1.2955317,0.37311113,-0.4841644,-0.23889446,-0.8316923,-0.15498307,-0.501363,-0.9332697,-0.21803622,0.1532821,-0.14785752,0.62684804,-0.16804907,-0.25877863,-0.59748733,0.56288123,1.4890254,0.48028776,-0.1377838,-0.34944797,-0.7499389,0.1246796,-0.89405423,0.6857511
IND122413AAE,0.8582732,-0.46409598,-0.9708178,0.959093,0.4001983,0.10176917,-0.2021484,-0.29003185,1.1250497,0.50663036,-1.0252895,-0.6128817,-0.26890734,-0.7063157,-0.3214247,-1.0739511,-0.5375342,-0.085122555,-0.66132045,0.31100678,-0.117653094,-0.0025762843,-0.7484273,-0.3328016,1.6361538,0.3934852,0.45471984,-0.6152498,-0.07304692,0.9294302,-0.13954292,0.26031968
IND123001AAA,0.45378837,0.06093445,-1.2709819,0.59959877,1.7804427,-0.69810593,-0.8757004,-0.45324248,0.97626716,0.04365916,-0.49003968,-0.3616326,-0.18973744,-0.09503306,-0.8498197,-0.542376,-0.67361516,0.82335615,-0.96285033,0.06326885,-1.188852,-0.84407645,-0.2087368,0.19659083,2.2705433,-0.37871158,-0.24879916,-0.5175237,-0.9462422,1.2067269,-0.96994907,-0.4956734
IND123401AAB,0.46976003,0.10907258,-1.1984978,0.7725906,1.7504715,-0.8407079,-1.097561,-0.51566106,1.1053537,0.15837774,-0.56370014,-0.45836195,-0.18134208,0.2393596,-0.84728026,-0.57409114,-0.7819345,0.9694073,-1.0636909,0.20638658,-1.3143457,-0.9241101,-0.51999897,0.21351942,2.3350139,-0.5117735,-0.19314274,-0.5477042,-0.806547,1.2631528,-0.89034295,-0.5728482
IND123106AAB,0.51065546,-0.12307969,-1.4599665,0.36776057,1.7046444,-0.7662869,-0.9797773,-0.2889952,0.95827454,-0.1272532,-0.463322,-0.17874101,-0.30274847,-0.26874998,-0.95697856,-0.64592195,-0.6383362,0.810688,-0.98815554,-0.054895513,-1.1557736,-0.7044405,-0.13324013,0.31996143,2.319967,-0.52741086,-0.62086,-0.48419935,-1.1695217,1.438427,-1.1308123,-0.35615635
IND124001AAB,-0.6968757,-0.46945503,-0.44599003,-1.1657879,0.12069056,0.38928348,0.35994813,0.14369732,-0.9770138,0.07997908,-0.08253559,1.0014527,-0.47933748,-0.17042182,-0.26685545,-1.4978157,-0.40422302,0.7175137,0.10569481,0.9180839,0.40843606,-1.057321,-0.99968475,-0.20226933,0.38379636,1.4277736,0.86242956,-0.56484354,0.32831302,1.4152495,0.047916073,-0.16645947
IND126102AAA,-0.85060525,-0.840953,-0.43462288,-1.5956675,0.17154945,0.10757096,0.6900227,-0.072607376,-1.022096,-0.31777945,-0.37614596,1.2019663,-0.5578083,-0.2126068,-0.483148,-1.5245972,-0.1449722,0.8997991,0.33776465,0.4420852,-0.04660228,-1.3718013,-0.76395035,-0.24731198,0.39677474,1.4888126,1.0705627,-0.3290556,0.16625822,1.5230119,-0.03873649,-0.37492377
IND124141AAA,0.89138305,-0.136134,-0.28369936,-0.2674637,0.71987927,-0.49513453,0.21435434,-0.08499662,-0.40560043,-0.3695756,0.2530961,0.218545,0.9835088,0.09248271,-0.36323732,-0.028970214,-0.15191641,0.57293725,-0.14020464,-0.08849084,0.58203965,-0.6956436,-0.78853196,0.41751242,-0.28348634,-0.13017415,0.007498709,-0.4613979,-0.18749624,0.97738695,0.03786319,-0.16308221
IND124507AAA,-0.22023393,-0.32292417,-0.42809153,-0.61657625,0.2490423,-0.47460052,0.21142116,0.25644782,-0.5742033,0.19177696,0.2161276,-0.09476206,-0.17105347,0.3898587,-0.12769088,-0.89662564,-0.4745073,0.46016333,-0.039573293,0.1881359,0.31557342,-1.0699023,-0.635626,-0.28221697,0.7112407,0.4279712,0.6185903,-0.17950365,-0.29303923,1.41071,-0.14709671,-0.4701693
IND125047AAB,-0.35036108,-0.96585405,0.4473088,-1.018507,-0.26542982,-0.38891596,0.67031634,-0.20215112,-0.5343208,-0.37798938,-0.395714,-0.7146387,-0.26644328,-0.651947,-0.7866133,-0.10224533,0.2731112,1.1848509,0.20294416,0.6808972,0.09859107,-1.1727649,-1.3501567,1.1238228,0.20438583,-0.32490224,-0.10324253,-0.6820433,0.68462694,0.94879603,0.8769267,-0.55071497
IND335513AAA,0.58340764,-1.2772361,0.09472865,-0.1002811,0.4594138,-0.5833304,1.3395727,0.35718524,-0.33814523,-0.5504897,-0.18285362,-0.033780828,-0.6349114,-0.6969756,-0.8999226,-0.701241,0.28494832,1.2700397,-0.07547663,1.2051978,0.32214418,-0.50080717,-1.2152804,1.0591061,0.8865687,-0.39706185,0.28387222,-0.98705703,0.502184,0.8947691,0.69214046,0.06395499
IND335523AAB,-0.38623193,-0.92412347,0.24500021,-0.9398804,-0.13815692,-0.13918623,0.7109398,0.2556813,-0.8229896,-0.5130677,-0.27826002,0.13687192,-0.45570204,-0.71602064,-1.0963769,-0.1685393,0.4671388,1.1156186,0.48633635,0.73193216,0.39873284,-1.2563472,-1.5055162,1.200455,0.21973227,-0.31058466,0.22871673,-0.73307496,0.85946125,0.59039676,0.7750866,-0.22656663
IND335524AAA,-0.29217076,-0.98949635,0.21523044,-0.8453717,-0.15791136,0.08451919,0.7142118,0.32269207,-0.75848335,-0.43116874,-0.10614823,0.06260295,-0.2751388,-0.663233,-1.053789,-0.18610245,0.12156318,1.06786,0.55266,0.81190234,0.6229821,-0.8454978,-1.365512,1.1493362,0.15933418,-0.4740463,0.3028937,-0.7134085,0.7536938,0.8412211,0.6828149,-0.2323171
IND125051AAA,-0.6533154,-0.9287416,0.31897372,-0.9695855,-0.26356083,-0.3436228,0.67124265,-0.2233721,-0.7270935,-0.4443201,-0.48131588,-0.7500375,-0.252148,-0.7139139,-1.0406466,-0.058997512,0.4816433,1.293928,0.34544617,0.89815325,0.1595616,-1.3292094,-1.4571744,1.1759849,0.2188427,-0.3875765,-0.056318328,-0.8000646,0.6473438,1.0170643,1.0341929,-0.44454652
IND125104AAA,0.8403836,-1.2661202,-0.06941078,-0.15017,0.8654789,-0.26133013,1.3523492,0.27851474,-0.12421051,-0.47823164,-0.1468079,-0.49450165,-0.060204707,-0.33742467,-0.88647914,-0.004650818,0.08116323,0.92133784,-0.4741873,0.5522075,0.29642293,-0.39203703,-0.67114806,1.1851494,0.5465986,-0.45575514,0.338424,-0.8182809,0.5763162,1.5913725,0.53884846,0.23243983
IND125121AAA,0.71216524,-1.1511528,0.10195285,0.09952332,0.46845126,-1.1721447,0.73405206,0.12359205,-0.5680177,-0.52879655,-0.31052613,-0.7723774,0.1767505,0.13691278,-0.89471495,-0.03630345,0.30996075,0.88406074,-0.66250175,0.29831895,0.416734,-0.59944606,-1.1150546,0.5414131,0.46510887,-0.12345001,0.053510796,-0.66234684,0.81423634,1.3562697,0.02514924,-0.42541263
IND126112AAA,0.18732007,-0.6144348,-0.8058558,-0.3281128,0.1388382,-0.5136368,0.023810782,0.33087546,-0.50654167,-0.008162349,0.20374948,0.009659873,-0.42727676,0.6066758,0.064317085,-0.7018922,-0.45522347,0.44805703,-0.048248574,0.20698684,0.48915562,-1.0415279,-0.61458516,-0.19177139,0.72838205,0.32493097,0.44967738,0.0517471,-0.33973137,2.1922317,-0.2749438,-0.45637238
IND127201AAA,0.8192479,-0.14172786,-0.1912618,-0.35237977,0.6430339,-0.42812026,0.25244617,-0.072477646,-0.4501081,-0.34146032,0.24043468,0.19823857,0.96508974,0.048110027,-0.32629156,-0.08564624,-0.09715272,0.59483904,-0.08321845,-0.05145932,0.5874286,-0.7258363,-0.90179896,0.4867835,-0.24368721,-0.1260973,-0.07687596,-0.44750562,-0.22452575,0.9120184,0.08735692,-0.27892485
IND131021AAA,-0.16926195,-1.1466044,-0.2896214,0.31316784,0.53590864,-0.02232083,-0.2495496,-0.6711073,0.64481354,0.46023962,-0.92601985,-1.0757546,-0.8011815,-0.49116394,-0.90083057,-0.7901356,-0.7230104,0.028354771,-0.7849123,0.79370826,-0.6661281,-0.41701594,-0.41906646,-0.281251,1.0575155,0.4286971,0.57867205,-0.38089755,-0.019275073,1.0205474,0.07213655,1.0439038
IND131028AAA,0.5055832,-0.84491056,-0.7760171,0.03244798,0.9461536,-0.7718242,-0.6371108,-0.88894045,0.5574861,0.3846924,-0.76674724,-1.071101,-0.8601468,-0.23771505,0.3114179,-0.22147064,-0.56251514,0.62158024,-0.29432347,0.031524893,-0.19410789,-0.09185109,-0.42208773,-0.6621701,1.4985751,0.22039363,-0.07842374,-0.36374807,-0.9736321,0.7653243,-0.57541966,0.73364156
IND132103AAA,-0.20394099,-0.5849907,-0.27494502,-0.42697012,0.32030106,-0.3025639,0.48055708,0.27469423,-0.68469983,0.28535232,0.25694486,-0.013427463,-0.25918236,0.18405388,0.020188037,-0.8584905,-0.29339632,0.4602261,-0.212392,0.2637156,0.29681394,-0.9704432,-0.87435997,-0.31584984,0.7691713,0.6077229,0.46325666,-0.10654403,-0.4674337,1.6340913,-0.116373315,-0.68361014
IND136118AAA,-0.9977797,0.18676297,-0.70756316,-0.842745,0.7038383,0.38709447,0.50368106,-0.13127062,-0.20231299,0.7867312,0.27666786,0.33304527,-0.11607537,0.5167948,-0.5584127,-1.1708909,-0.9954337,0.31605434,0.81532305,-0.08999414,0.89772,-0.94660157,-1.6208063,-0.41922298,0.9960633,0.23012492,0.31667435,-0.068778574,-0.95403725,1.2569574,-0.24357575,-0.7548722
IND201204AAA,-0.26127678,-0.31789505,-0.30108792,-0.44341347,0.25038353,-0.5176241,0.37315482,-0.05568,-0.4950733,0.33249748,0.27640393,-0.054690976,-0.2535486,0.3837245,-0.05743218,-0.84502596,-0.27863538,0.93118674,-0.15156136,0.28721356,0.314115,-1.0772977,-0.8797326,-0.38600856,0.78435177,0.5643117,0.7067627,-0.3178839,-0.5698471,1.391863,-0.09592566,-0.7315981
IND244001AAA,-0.66670936,-0.5273634,-0.38843998,-0.5867978,-0.049330134,-0.36923409,0.19018418,0.14934254,-0.7206805,-0.06548637,0.070969015,0.037737127,-0.15273364,0.03199599,0.0149970185,-1.4775009,-0.55399776,0.6645478,0.23942418,0.26773402,-0.026276184,-0.7787666,-0.84400356,-0.3458525,0.7353252,0.16321692,0.46479592,-0.26431888,-0.6560393,1.5226365,-0.26204774,-0.5042686
IND244235AAA,-0.7874961,-0.22490504,-0.17109695,-0.44681627,0.29919815,0.23858503,0.5235029,0.25851095,-0.4590007,0.40797552,-0.14557758,-0.16342713,-0.28937483,-0.22668101,-0.113311306,-1.4117988,-0.16923396,1.0268432,0.4166102,-0.13436675,0.521494,-1.0321059,-0.364737,-0.04319882,1.0451398,0.4071201,0.8784887,0.1896909,-0.1912926,1.557134,0.36277124,-0.10691098
IND247667AAA,-0.3401647,-0.61674434,-0.5352745,-0.833645,0.18192762,-0.5535749,0.35568476,0.2573477,-0.7284639,0.17461967,0.21634308,-0.20277208,-0.40252608,0.09748553,-0.19040379,-1.0228062,-0.33825257,0.4111692,0.28302452,0.36183313,0.68737185,-1.0198059,-0.5914015,-0.22268657,1.014774,0.5828512,0.67368156,-0.06520943,-0.4627851,1.2259696,-0.10553639,-0.4530838
IND247667AAB,-1.0455391,-0.5713755,-0.12224918,-1.0904132,-0.17062134,0.43146595,0.5332579,-0.027894069,-0.6338845,0.16312684,0.091840684,0.13388745,-0.436486,-0.26881462,-0.4007118,-1.1487912,0.15224743,0.7691313,0.77174675,0.13589121,0.34116957,-1.352549,-1.1408712,-0.28697252,0.68453765,0.3795597,0.7913519,-0.06844725,-0.44670072,0.9697156,0.17260827,-0.5797531
IND248001AAD,-0.11117045,-0.51725215,-0.8385973,-0.43729645,0.27756852,-0.31043977,0.21002746,0.11179393,-0.76831114,0.33131677,0.19080472,-0.25690114,-0.25234735,0.12577789,0.007890154,-0.79831725,-0.27094245,0.6104105,-0.31060746,0.25505102,0.4861703,-1.102727,-0.8304882,-0.37860316,0.6452039,0.36444554,0.58159935,-0.13706693,-0.43757236,1.4391738,-0.23448575,-0.38849813
IND249407AAA,-0.12340511,-0.6840603,-0.6276812,-0.85342646,0.2972062,-0.9580335,0.39246142,0.26233512,-0.6856552,0.3043295,0.27951092,-0.35491008,-0.31473377,0.10955675,-0.13108467,-0.93215466,-0.25159276,0.29863775,0.2401413,0.38492408,0.78209704,-1.0948216,-0.5506413,-0.32741994,1.0948968,0.5602339,0.63415104,-0.09151143,-0.57036895,1.2390379,-0.031093078,-0.29945028
IND251001AAA,-0.15861227,-0.6342513,-0.80808324,-0.42467,0.0990314,-0.08087278,0.03155561,-0.031061556,-0.7288996,0.3816552,0.19137347,-0.23972826,-0.24629448,-0.05923013,-0.016282463,-0.88875324,-0.2042958,0.5380326,-0.2659001,0.2236474,0.54138833,-1.2322102,-0.9209976,-0.49446532,0.6941948,0.3734905,0.56506264,-0.030810116,-0.3055298,1.5757098,-0.40680718,-0.51215
IND131301AAA,0.046280835,0.027106417,-0.604745,-0.20975636,0.4429422,-0.36674207,0.20615783,0.24388981,-0.5973821,-0.021460127,0.18905725,-0.04511882,0.1209739,0.5469627,0.019519765,-0.63008106,-0.28410423,0.19855511,-0.4132018,0.095707074,0.3428028,-1.2893667,-0.6027742,-0.39876577,0.6758416,0.4174278,0.6197885,-0.17723343,-0.3138441,1.8451431,-0.1876019,-0.23699921
IND132001AAA,0.024352381,-0.5281228,-0.17751347,-0.39652425,0.4031798,-0.39704233,0.5280956,0.31033146,-0.70970917,0.3307132,0.31244907,-0.0649289,-0.23241837,0.2364394,0.07075738,-0.858587,-0.19002996,0.41446304,-0.28139064,0.22480763,0.26253366,-1.0581467,-0.8099589,-0.323096,0.86753803,0.5862203,0.3821312,-0.16624877,-0.6001682,1.7059184,-0.18383963,-0.7139279
IND132103AAB,0.38144863,-0.50300765,-0.3884708,-0.40740335,0.4086467,-0.68218696,0.13487817,0.118705586,-0.70398396,0.5484374,0.4166057,0.012928505,-0.17558567,0.4699566,-0.0040521272,-0.5788628,-0.41592497,0.33694535,-0.30495095,0.36165878,0.3595738,-1.2100515,-0.49226582,-0.2431981,0.8646067,0.20508201,0.708262,0.03193265,-0.25344345,1.6084877,-0.32834578,-0.2776249
IND133004AAA,0.45667046,0.058112677,-0.044185594,-1.1812526,0.34724796,-1.2474577,0.29977995,0.38688275,0.47076696,0.23715344,0.53758675,-0.5431531,0.014068499,0.118140005,0.0052071754,-0.29750243,0.52904993,0.42772382,-0.10441604,-0.18560657,-0.019649731,-1.2034574,-1.5727623,-0.023158643,0.7747961,0.7847714,0.44090593,0.5321603,0.25540477,0.9151864,-0.9085152,0.18536532
IND135001AAA,0.60417616,-0.10666622,-0.21421292,-1.2639166,0.3281709,-1.3736361,0.0998802,0.45162448,0.17611302,0.31231666,0.46135622,-0.41192052,-0.2722818,0.05585544,0.2641868,-0.28467533,0.45387882,0.3713874,-0.14637507,-0.35367438,-0.20627782,-1.2201976,-1.4798554,0.024517417,0.5927432,0.6077663,0.37163025,0.5382424,0.34576654,1.0731931,-0.9194844,0.372032
IND134102AAA,-0.30819088,0.17968765,-0.06927601,-0.12160503,0.21510012,-0.6667808,0.30805352,-0.052038796,-0.11563813,-0.015211236,0.6653675,0.41599637,0.70951307,-0.101474665,0.01940701,-0.46062055,0.3949678,0.3326589,-0.6684189,-0.18580496,-0.40715414,-0.8217477,-1.3525093,-0.118979394,0.7094644,0.92902076,0.8615805,0.017194454,0.42833608,1.459343,-0.6380517,0.08910064
IND174103AAA,-0.13164721,0.14338301,-0.094902545,0.1315445,0.31200022,-0.55586123,0.29483584,-0.035154793,-0.32446465,0.02187268,0.5357237,0.2999487,0.52860755,0.23503271,0.0829654,-0.5516992,0.36149287,0.3522593,-0.67057115,-0.19596717,-0.1407586,-0.6448537,-1.3752269,0.091440424,0.59884185,0.8904221,0.6530115,-0.054874804,0.6168619,1.6321514,-0.69460964,0.38225272
IND134109AAA,-0.17290811,0.03574297,-0.4295264,-0.6590786,0.21160191,-1.1155311,0.27328685,0.031117953,-0.099376075,-0.42721748,0.50657815,-0.3323456,0.1429309,0.32907438,0.11926386,-0.3685845,0.29622406,0.54280174,-0.316475,-0.3185753,-0.2253632,-0.74232656,-1.1333688,0.20094998,0.743845,0.5341442,0.32737896,0.12620342,0.40311396,1.0100931,-0.66219693,0.34014583
IND134203AAA,-0.043408226,0.0611502,-0.37149066,-0.30105314,0.26985902,-0.6696141,0.17059827,-0.11030674,-0.12726179,-0.14162347,0.79542136,-0.2264015,-0.08067158,-0.0063658226,0.16760503,-0.7093769,0.38947618,0.78143156,-0.059163846,-0.21475804,-0.13426614,-0.9435253,-1.1382335,0.35873172,0.81282634,0.3003704,0.33194578,0.19882159,0.5370328,1.2182314,-0.9226342,0.4855862
IND140501AAA,0.06698137,-0.027018657,-0.46544528,-0.20160718,0.30817947,-0.79026806,0.14014383,-0.17904395,-0.13633375,-0.17676854,0.86324257,-0.21729113,-0.028764276,0.030083952,0.11387328,-0.59716964,0.28227034,0.68492,-0.10448366,-0.14716536,-0.18301925,-0.8348628,-1.1625024,0.36597306,0.6848399,0.25944415,0.3717621,0.19940785,0.519726,1.3006345,-1.0143288,0.54575217
IND173025AAA,0.70634824,-0.061680347,-0.35382634,-0.8448491,0.34178197,-1.1787494,0.26420525,0.38614705,0.08085594,0.20319349,0.46695983,-0.44882405,-0.09400554,0.16238917,0.34427032,-0.18448238,0.43130255,0.51918936,-0.02988288,-0.38611147,-0.011897009,-1.1072533,-1.353448,0.18000324,0.5993957,0.5296044,0.36474133,0.43227056,0.28745103,1.1631774,-0.8735834,0.41365802
IND136027AAA,-1.1322402,0.25567994,-0.7617975,-0.9771103,0.9739582,0.38620195,0.57295847,-0.19199863,-0.16461737,0.8694752,0.3124412,0.43815818,0.07990133,0.6312064,-0.77470034,-1.3514047,-1.2213634,0.33702374,1.024641,-0.13643306,0.99014956,-1.0326698,-1.9131926,-0.45212156,1.0432496,0.15328121,0.3801297,0.083697855,-1.0605745,1.3945631,-0.36119455,-0.7847782
IND132039AAA,-1.3571494,0.10178103,-1.0284156,-1.1563874,1.0527567,0.46326703,1.0738847,-0.28090426,-0.07801642,0.839277,0.23386689,0.5995965,0.29575613,0.5544673,-0.96182764,-1.5664631,-1.3474752,0.33051467,1.2738962,-0.015225646,1.2046307,-1.0023094,-2.260579,-0.26749307,1.0504534,-0.12107679,0.47254452,0.06463514,-1.012729,1.6051711,-0.5178393,-0.9470069
IND136128AAA,-1.0606346,0.11301495,-0.6936686,-0.9431923,0.73683697,0.26764458,0.6112373,-0.15681447,-0.06582536,0.73021585,0.24921632,0.21446854,0.032752115,0.7016319,-0.7277308,-1.2713606,-1.0164243,0.27169088,0.8938184,-0.18742454,0.8366791,-1.0203135,-1.6652668,-0.30106592,1.0840944,0.0009898938,0.39092958,0.054247852,-0.9657079,1.3213925,-0.29877087,-0.9459431
IND140001AAA,-0.30561906,-0.31770056,-0.72705394,-0.54364645,0.4369241,-0.8496112,0.6878964,-0.074105546,-0.3096447,0.2649069,0.6262812,0.0814842,0.5637084,-0.14616084,0.53684664,-0.78239065,0.2887512,0.3473102,-0.49806836,-0.46937722,-0.07413471,-0.44207197,-1.3157212,0.44384226,0.8533691,0.29590252,0.24606308,-0.6240621,0.53335166,1.291105,-0.7575337,0.45171183
IND140118AAA,-0.25182885,-0.31031066,-0.68608725,-0.40100005,0.38671926,-0.74530065,0.6376838,-0.014195272,-0.29078862,0.10466938,0.6595204,0.030533886,0.6409615,-0.050178703,0.4739953,-0.63890296,0.347025,0.33455065,-0.54362935,-0.30623525,-0.14579794,-0.38775015,-1.2379353,0.47987723,0.83205736,0.27084994,0.36716717,-0.52308154,0.56050134,1.4570268,-0.8216246,0.46809724
IND140301AAA,-0.2978929,-0.3476564,-0.7677405,-0.65401137,0.41862988,-0.77069855,0.6374191,-0.11849491,-0.14577259,0.3105674,0.6447903,0.17592677,0.4997182,-0.14886798,0.52876633,-0.6910282,0.21746138,0.44036278,-0.19964592,-0.37291777,-0.084173754,-0.674467,-1.4017347,0.3925457,0.74240357,0.3703904,0.25032035,-0.3890486,0.4754085,1.2265583,-0.74652785,0.46480587
IND140901AAA,-0.10801422,-0.24375074,-0.6224559,-0.4319843,0.3241806,-0.6881986,0.54242265,0.11033205,-0.170164,0.041694313,0.7003481,0.14637616,0.17137645,0.011300485,0.38477767,-0.33798987,-0.013611492,0.42549407,-0.09234114,-0.104214266,-0.08292046,-0.82060647,-1.4143254,0.33809304,0.6423273,0.44171575,0.33447528,-0.04662865,0.47756875,1.2354603,-0.6095147,0.634276
IND140401AAA,0.09260778,-0.34212178,-0.73983383,-0.46313053,0.21690199,-0.74709284,0.08824896,0.36064458,0.06509372,0.3005178,0.5235706,0.81113905,0.37416434,0.52933574,-0.32896358,-0.5922294,0.55090934,1.2798963,-0.41945103,-0.03373353,-0.32986587,-0.4577939,-1.4430355,0.7694832,1.8065492,0.7880972,-0.25300205,0.28702638,0.04062643,1.2999297,-0.88387686,0.36552742
IND160055AAA,-0.025022842,-0.30117553,-0.5052039,-0.5307809,0.3892148,-0.74557567,0.505113,-0.005471962,-0.13832432,0.10376942,0.68644094,0.11087831,0.15947197,0.06262617,0.32540277,-0.46243382,0.11936698,0.35973322,-0.068880275,-0.25622207,-0.014264151,-0.7118917,-1.3079393,0.27066743,0.5925684,0.4018701,0.29885215,0.078512736,0.49823445,1.1244681,-0.6714133,0.7852002
IND141003AAB,0.044048287,-0.44525716,-1.0069872,0.035880268,0.53647465,-1.0399395,0.19759227,0.19008821,0.23235852,0.3026552,0.46636853,0.89455,0.17052458,0.3588417,-0.7284474,-0.4109605,-0.013653201,0.88225996,-0.05312433,-0.3967703,-0.23568326,-0.44276354,-1.405274,0.7413022,1.5939476,1.1065913,-0.07872103,0.21175458,0.5924344,0.99582064,-0.92630833,0.44820827
IND142026AAA,0.041972425,-0.39893013,-1.0516602,0.043381546,0.45908526,-0.9731803,0.079726376,0.13588047,0.42672792,0.27758718,0.62791836,0.91980344,0.34848934,0.304236,-0.64323467,-0.23674403,-0.11290097,1.1206512,-0.18287379,-0.38223332,-0.060086194,-0.4266626,-1.3560243,0.57326674,1.6762869,1.4329038,-0.15342003,0.30381775,0.51264894,1.3420306,-0.81920433,0.43255287
IND141109AAA,-0.1003411,-0.16103041,-0.75870657,-0.1811623,0.3688762,-0.8226771,-0.09690097,0.2691432,0.20944557,0.04879009,0.49909577,0.73656934,0.30766305,0.36464098,-0.52672255,-0.07370029,-0.023691693,0.9333409,-0.47928134,-0.49295172,-0.04355051,-0.53365046,-1.2219723,0.54614586,1.6432637,1.5026512,-0.13222793,0.46093434,0.5380527,1.2443734,-0.63644207,0.37534568
IND141115AAA,0.31364176,-0.03843331,-1.1448605,-0.4572114,0.20192736,-0.8845761,0.14694649,0.34490928,0.27262166,0.2774172,0.3746249,0.44369817,0.24608827,0.53035176,-0.7721715,-0.32070154,0.39707547,0.6529154,-0.09709946,-0.23417176,-0.007575069,-0.61702484,-1.3126968,1.0217927,1.9935392,1.1039423,-0.0385647,0.20965528,0.5900054,1.3292968,-0.8729617,0.3809051
IND144001AAA,-0.4216521,-0.18769813,-0.691923,-0.21933846,0.62621784,-0.6879219,-0.092484415,0.53531677,-0.023552708,-0.06959167,0.5071206,0.8166153,0.32449955,0.24249804,-0.04635311,-0.53252393,0.07016046,0.57089746,0.10131185,-0.50546587,-0.10959912,-1.0128058,-1.013061,0.42378095,1.0117499,1.0723162,-0.47751617,-0.24159442,-0.039906226,1.4275008,-1.299554,0.67619556
IND144040AAA,-0.5497984,-0.015259524,-0.79107136,-0.29958406,0.7774097,-0.8417824,-0.25257134,0.6403373,-0.2280108,-0.3260167,0.5254442,0.599558,0.33793393,0.27313358,-0.102044225,-0.4074106,0.2522281,0.5207496,-0.034865018,-0.66752607,-0.37240368,-1.1032494,-0.8060316,0.60041326,1.2627394,0.8902967,-0.4300911,-0.0833477,-0.12616171,1.5640255,-1.4097611,0.5567576
IND144401AAB,-0.4538108,0.14696722,-0.45916972,-0.4677901,0.6775719,-1.1141964,0.02075185,0.31038493,-0.18415488,-0.071194336,0.92383903,0.37276623,0.2987769,0.17378432,-0.29349113,-0.4166762,0.3482433,0.6984539,0.08107844,-0.38894367,-0.048259098,-0.6028819,-1.0009269,0.869726,1.3057287,0.81317157,-0.2535274,-0.115827635,-0.014175646,1.646406,-1.0869539,0.617296
IND144001AAC,0.279811,-0.17685808,-0.3099369,-0.20469442,0.10578738,-1.1921101,0.31855994,0.50702596,0.21874562,0.2819811,0.7449547,0.31259838,0.39774093,0.14150697,-0.2640146,-0.38965043,-0.000984954,0.86886275,-0.12248589,-0.45034647,-0.16159792,-0.33693254,-1.022901,0.7572666,0.9146619,0.3695425,0.15419088,-0.10610273,0.33140016,1.1124574,-0.6888399,0.46473074
IND144527AAA,0.46904433,-0.38432375,-1.2557715,-0.33984116,0.40686226,-0.65829104,0.20083268,0.32799384,0.067611754,0.41207832,0.51083124,0.521609,0.02601518,0.47400698,-0.94116914,-0.062956445,0.22523636,0.93076676,-0.20389603,-0.25060847,-0.048376285,-0.3847759,-1.3736175,1.0291753,1.7126372,0.945301,-0.013001731,-0.0062081227,0.4780056,0.86684686,-0.86095893,0.2590309
IND145001AAA,1.0864999,-0.5351416,-1.8272454,-1.228707,1.4409219,-0.1999127,-0.9478633,-0.08771345,1.8650076,0.86650884,-1.2155591,-0.8472439,0.2619719,-0.50001305,-0.36098328,0.26537937,-0.64475524,0.4117321,0.31428885,0.4425422,0.22475818,-1.9109786,-1.1500397,-0.3564347,1.799018,1.7320756,1.7142785,-0.29402426,0.7972771,0.7727729,0.1821443,0.7820453
IND176201AAA,0.9816936,-0.42763603,-1.8091619,-1.369549,1.3770579,-0.5846761,-1.0939189,-0.29628766,1.511469,0.8358219,-1.5033717,-0.58619696,0.22474696,-1.0016018,-0.29781365,0.22211142,-0.407343,0.31230724,0.41922262,0.66822845,0.27219322,-1.739621,-0.6529486,-0.4075725,1.7273306,1.7824967,1.7609533,-0.33177114,0.69437134,0.9501261,-0.029429182,1.0966133
IND147001AAB,-0.33283907,-0.30223808,-0.36790225,-0.66163546,0.032216594,-0.72043955,0.39814952,0.18468753,-0.00059677317,0.037701312,0.5689516,-0.36928743,0.17453817,0.098700486,-0.15815376,-0.4749203,-0.18570781,0.53471977,-0.30991063,-0.47826502,-0.37452623,-1.3107858,-1.2577052,0.35778153,0.70925254,0.6458208,0.0904566,-0.1668313,0.32559016,1.1968209,-0.54032916,0.9718741
IND147201AAA,-0.9533397,-0.81182814,-0.31317768,-1.2166532,-0.16138037,-0.46533355,0.7956023,-0.21310388,0.28902453,0.06996872,0.4080072,-0.7450181,0.46272913,-0.17670603,-0.89542884,-1.0287082,-0.41455004,0.84687376,-0.074349456,-0.81584543,-0.29060966,-2.2084677,-1.4571486,0.70573425,0.711995,0.8272206,-0.21581365,-0.35755968,0.37418228,1.0512619,-0.32878628,1.2298497
IND147001AAD,0.020110473,0.06270369,-0.5023883,-0.4889231,0.40667963,-0.6535317,0.4872081,0.10874621,-0.1316404,0.016271368,0.51261157,-0.05351242,0.084744394,0.0790258,0.17955354,-0.49070528,0.037687868,0.49179646,0.048740808,-0.48240095,-0.1531318,-0.79203594,-1.0585392,0.32373506,0.7683902,0.4649253,0.34470958,0.090191856,0.56161267,1.2049211,-0.9188625,0.51471275
IND147101AAA,0.047175676,-0.3076815,-0.39002493,-0.4030726,0.49482536,-0.7431193,0.60725695,0.29936567,-0.26726934,0.20547238,0.6668978,0.083937,-0.03361645,0.14469363,0.124973714,-0.69053954,0.08118932,0.6112052,0.25960407,-0.32155013,-0.30994847,-0.751236,-1.3144963,0.22852783,0.5947763,0.54980606,0.4942145,-0.1692043,0.3736497,1.1626153,-0.86234736,0.8457297
IND147105AAA,0.06468982,-0.18768018,-0.47766677,-0.40695173,0.51755685,-0.73568255,0.4889509,0.28922474,-0.20478082,0.08483288,0.7179546,0.09250518,-0.025314247,0.17645697,0.13644263,-0.5468183,0.08790207,0.52184,0.018262954,-0.2480528,-0.18099612,-0.7691895,-1.2809227,0.27652138,0.5943076,0.4667648,0.43654475,-0.018118886,0.42561683,1.1764517,-0.8290279,0.7826115
IND148023AAA,-0.9418725,-1.0337625,-0.26218864,-1.401442,-0.07966771,-0.67171454,0.80923843,-0.12717934,0.33133137,-0.032097325,0.46575147,-0.6628978,0.53367704,0.0044776285,-1.0684358,-1.1208122,-0.7573605,0.8780443,-0.0013813864,-1.0689529,-0.4459104,-2.2491558,-1.4855931,0.7826779,0.7334003,0.9639307,-0.0061283754,-0.20362607,0.4217186,1.0416998,-0.33501226,1.1672304
IND148028AAA,-0.024993243,-0.18993096,-0.43980366,-0.4929359,0.100068614,-0.8270217,0.27862608,0.21831462,0.068353385,0.31438482,0.45209917,-0.38795906,-0.0602255,0.15976782,0.13618861,-0.554515,-0.14815342,0.5338768,-0.35422242,-0.87158644,-0.2634118,-1.2234644,-1.1373316,0.13959454,0.96698177,0.48165694,0.41125175,-0.12021011,0.5533099,1.3742287,-0.72465557,0.6795298
IND151001AAA,-0.26183057,-0.12914215,-0.7256184,-0.7104576,0.95585704,-0.79836154,0.12607314,0.093672544,0.35104838,0.3762477,1.1069704,-0.18881917,-0.007941128,0.4666079,-0.5920989,-0.77401125,0.4585267,0.39349216,0.07587749,-0.06257725,-0.51834184,-0.5904462,-1.6532646,0.12532596,0.66262394,0.7681911,0.07065642,0.020030336,0.7861567,1.4891006,-0.2706789,0.2788291
IND148101AAA,-0.8548827,-0.5346721,-0.9406457,-1.1485107,0.9941477,-0.6419126,0.5317657,-0.12752128,0.5702163,0.307823,1.436541,-0.30207396,0.446772,0.094630614,-1.0141677,-1.1852859,0.58560807,1.0979766,0.7674105,0.044390116,-0.2514569,-0.63099,-2.2474887,0.22090329,0.9667361,0.66383874,0.17220518,0.044032868,0.72626793,1.2254653,-0.28396216,0.1587592
IND151103AAA,-0.8454518,-0.30107838,-0.7444273,-1.2566056,1.1559196,-0.3885238,0.7716146,0.043064862,0.60648614,0.25328124,1.2063402,-0.11645864,0.2698525,0.33814618,-1.1870182,-1.504988,0.56351733,0.9801706,0.8497968,0.061570585,-0.13896783,-0.56826746,-1.948317,0.29470024,0.94553953,0.71213657,0.07775579,0.2944048,0.7611628,1.3672333,-0.16689274,0.28998607
IND151302AAA,-0.30783153,-0.49486357,-0.9656395,-0.64829767,1.2130634,-0.65292287,0.14167334,0.026907865,0.41057378,0.41488716,1.0242646,-0.68272835,0.1630548,0.5190761,-0.63730675,-0.88573176,0.7844669,0.8875222,0.2230589,-0.11697033,-0.56234115,-0.3548248,-1.9098535,0.06932134,0.8860461,0.7920668,0.05750416,0.0500547,0.84150845,1.8116984,-0.41483697,0.39678678
IND151505AAA,-0.15509681,-0.44344163,-0.897673,-0.643468,1.2476662,-0.83827037,0.059890017,0.10805102,0.17626101,0.5466614,0.9703178,-0.69071853,0.11726038,0.5657828,-0.662333,-0.7844106,0.8808662,0.64096516,0.2430074,-0.117912844,-0.640964,-0.33780542,-1.9870298,0.115082175,0.7438724,0.80581516,0.042599604,-0.015271793,0.91668475,1.9036,-0.43309665,0.4119056
IND151506AAA,-0.018449923,-0.3993766,-0.9220006,-0.60650814,1.2920526,-0.76421064,-0.048285894,0.21702786,0.06380926,0.40621412,1.0701853,-0.7654325,0.1907014,0.6329277,-0.58104527,-0.5984436,0.8050395,0.53855795,0.12795855,-0.1093434,-0.5621655,-0.23573905,-1.9459791,0.0017983858,0.7899511,0.798258,0.15241788,-0.054306958,0.9882338,2.009615,-0.48018387,0.46821874
IND140603AAA,-0.9230645,-0.4904469,-0.45350116,-0.99663144,0.37106022,-0.22820659,1.0017828,-0.00511008,-0.18356347,0.14300905,0.7419854,0.38646257,0.17725885,-0.64661014,-0.42442584,-1.0323746,-0.10493131,0.81197757,0.8693268,-0.058245767,-0.2443298,-1.3085549,-1.8104622,0.3660637,0.8402302,0.5463223,0.37488022,0.11964024,0.7310879,0.6750207,-0.43888894,0.35065672
IND160102AAC,-0.15614907,-0.013119109,-0.33834288,-0.50617677,0.42348337,-0.6728361,0.4274982,0.07420199,-0.16361363,0.086242884,0.70479554,-0.055649158,0.016719922,0.1424492,0.112100236,-0.6812076,0.111403875,0.3066933,-0.094154105,-0.22277026,-0.21632516,-0.73504376,-1.2660456,0.38888642,0.57732207,0.5616243,0.19659339,0.03737698,0.3613101,1.254046,-0.6727452,0.6709809
IND173212AAA,-0.78266704,0.20255317,-0.57520604,-0.08826785,0.644956,-0.2798538,0.6886023,0.39447293,0.060900047,0.33883873,0.7126586,0.09707431,0.5148532,-0.5066788,0.42666277,-1.168061,-0.047556605,0.9246224,0.9962536,-0.015657756,-0.2562115,-1.9761597,-2.214143,0.19458683,1.1260743,0.5811455,-0.051109344,0.681755,0.052912563,0.646038,0.053239588,0.31128812
IND174001AAA,-0.6279296,0.16944881,-0.5246344,-0.7425825,0.7268496,-0.96974593,0.507581,0.028992303,0.031477455,-0.14253215,0.36761013,-0.0028514434,0.09566108,0.3890858,0.2951822,-0.7425246,-0.059202794,0.7803267,-0.01829029,0.4866919,-0.2598644,-1.1905632,-1.371421,0.3902238,0.7071475,0.43894807,0.2889919,-0.13319351,0.39464682,0.7602774,-1.066997,0.6217342
IND174307AAA,-0.1429124,0.2716555,-0.7011114,-1.2078564,0.8143832,-0.71193594,0.8032445,-0.72961986,-0.14535151,0.22949676,0.62525356,0.6048612,0.1653117,-0.5570415,0.24806857,-0.95704246,0.0029464148,1.0818932,0.69683695,-0.0033596014,-0.9112356,-1.641876,-1.1948028,0.34701955,0.6882791,1.6399826,0.23438638,0.21744473,0.109847315,1.1580111,-0.22833857,0.57632613
IND176041AAA,-0.80032545,-0.23512672,-1.1317631,-1.4774529,0.46584615,-0.12715603,0.721649,-0.67574114,-0.18982832,0.013971184,0.5296994,0.7936246,0.5215368,-0.964935,-0.1853573,-0.99765766,0.032952294,1.4515169,1.3763897,0.079148374,-0.44558144,-1.4647045,-1.4119575,0.17200029,0.54859275,0.89418954,0.36757556,0.46489844,0.42184722,0.91358984,-0.4328904,0.68643725
IND181152AAA,-0.10497583,-0.28384164,-0.22968222,-0.7043445,0.661709,-0.98846626,0.640641,-0.38538212,-0.36658686,-0.34211013,0.91308695,0.23632017,0.04821416,0.25635037,0.17269905,-0.91657114,0.26529515,0.11944537,-0.252607,-0.3550886,-0.22634712,-0.93849295,-1.3070633,0.30585235,1.0122435,0.26667914,0.117251225,0.54038614,0.39144439,1.2186428,-0.46500802,0.73612446
IND184104AAA,-0.11535094,-0.33364764,-0.22531696,-0.7410909,0.5477996,-0.95945257,0.56104124,-0.31597382,-0.2426874,-0.18875849,0.83539575,0.22732294,0.2686524,0.227103,0.21000354,-0.79729116,0.27201566,0.13334504,-0.31599927,-0.28774288,-0.16876984,-0.97588116,-1.3036367,0.28643256,0.9037697,0.18015307,0.15628669,0.543516,0.35154545,1.3220235,-0.45799172,0.87801373
IND160102AAD,-0.124046244,-0.23187982,0.07503676,-0.58113843,0.1870203,-1.5725374,0.4826528,-0.19067875,0.21848741,0.42081958,0.496968,-0.5871577,-0.23012307,-0.16606252,-0.21592672,-0.64223164,0.17044051,0.6540176,-0.09958058,0.078975454,-0.95147914,-0.48894536,-0.5974951,0.0413521,0.9311414,0.4404299,0.5330445,-0.1096813,0.41218346,0.91209686,-0.99537766,0.8283879
IND160002AAD,-0.27032346,-0.6494775,-0.14570482,-0.46792284,0.36425573,-0.8017843,0.56629276,-0.07526076,0.84781706,0.46426246,0.36199796,0.017282428,0.18069999,-0.6026129,-0.2133614,-0.85206926,-0.018580658,0.6085159,0.32377955,0.12442712,-0.46196967,-0.67959666,-0.88988227,0.053327933,0.7909831,0.67518324,0.014547228,0.0013374705,0.47227216,0.40960455,-0.37634858,1.1453998
IND173220AAA,-0.92840534,-0.31001967,-0.17516388,-0.24189956,0.52280265,-0.69520575,1.1477472,0.38111153,0.5111622,0.48172158,0.7974185,-0.26326948,0.6204839,-0.41108277,-0.17146665,-1.171,-0.45588815,0.68162984,1.0563325,0.04853821,-0.73776615,-1.7991407,-2.121797,1.0701582,0.8855498,0.26901954,0.344498,0.7211974,-0.1454114,1.2267166,-0.76121414,-0.14429872
IND175018AAA,-0.6277509,0.16987748,-0.5985314,-0.67358315,0.76681423,-1.0525398,0.4323737,0.06451644,-0.023225179,-0.26573238,0.35870132,-0.039405875,0.03944391,0.5076166,0.3330614,-0.62855196,-0.062003095,0.7343266,-0.14006554,0.43118986,-0.29365575,-1.1754923,-1.2912557,0.45577297,0.7663649,0.4148281,0.41214722,-0.174082,0.43290505,0.7810779,-0.98935086,0.6692648
IND174021AAA,-0.6261925,0.038247358,-0.59476924,-0.7003985,1.1017518,-1.2435707,0.8015823,0.09840103,0.4219829,-0.13702783,0.11531006,-0.4277012,0.26261795,0.20272365,0.83998066,-0.57137716,-0.6339165,0.87631863,-0.18921997,1.3043313,-0.5987262,-1.44589,-1.6339972,0.20075552,1.1741583,0.30929512,0.7070779,-0.3691484,0.54701775,0.23229912,-1.196223,0.77244073
IND176048AAA,-0.6451904,0.020647656,-0.51617295,-0.753526,0.9778729,-1.2874755,0.65865713,0.0854537,0.19643472,-0.328709,-0.021053853,-0.37962288,0.20835727,0.47364518,0.90121377,-0.2430233,-0.41524318,0.9921454,-0.31099063,1.030561,-0.419918,-1.4162903,-1.5717812,0.23763774,1.0591846,0.392676,0.6052677,-0.39343166,0.5322092,0.45780742,-1.2938426,0.8700985
IND174101AAB,0.3950857,-0.22784068,-0.6920275,-0.36043036,0.27546877,-0.82026494,0.2091918,0.05555805,0.03811304,0.030109562,1.01243,0.027475234,0.17069039,0.3183707,-0.019187517,-0.21607843,0.17877589,0.33371085,-0.3257112,-0.2641612,-0.15090472,-0.9072501,-1.0320903,0.42932755,0.6726572,0.31809092,0.40651584,-0.051440272,0.17704165,0.9758802,-0.62447536,0.6550064
IND175001AAA,-0.50734884,0.14066254,-0.63180584,-0.58274215,0.72277695,-1.0688089,0.32983702,0.099998176,-0.006260938,-0.3374388,0.47438133,3.6783214e-05,0.13327508,0.59882146,0.38081002,-0.5550027,-0.050748266,0.6707153,-0.16371733,0.4222772,-0.22547036,-1.1353182,-1.2585639,0.45006168,0.7066127,0.37409672,0.42574885,-0.20277222,0.47988856,0.93475163,-1.0639987,0.7130279
IND175101AAA,-0.4776934,0.093119204,-0.6041453,-0.49514186,0.74508196,-1.025245,0.33172825,0.21517813,-0.06608975,-0.34404096,0.52609676,-0.03148891,0.11421179,0.57286507,0.41830614,-0.4421471,-0.16362591,0.6144441,-0.2163818,0.46123865,-0.162598,-0.9787546,-1.1789006,0.45813304,0.70583665,0.44558734,0.5413084,-0.21421698,0.5846944,0.963571,-1.0264324,0.7431418
IND175015AAA,-0.6321974,-0.049386088,-0.821441,-0.6821587,1.0500225,-1.2923977,0.43146738,0.23093006,0.045167185,-0.49341726,0.05751102,-0.2683626,0.16342121,0.8221081,0.76111233,-0.30451456,-0.18388379,0.912834,-0.43277407,0.9572483,-0.26528314,-1.3478014,-1.3836738,0.41149327,1.0140848,0.38446814,0.7212102,-0.3951568,0.7210298,0.58713746,-1.2087001,0.9597451
IND176061AAA,0.069033645,0.13542442,-0.8146554,-0.54496616,0.041565176,-1.2077456,0.027999723,0.22038808,-0.19307278,-0.15517667,0.5122894,-0.4820636,0.18362829,-0.0008178903,0.4927042,-0.2601234,-0.115085825,0.5593026,0.11275645,-0.9646989,0.306461,-0.34064633,-1.4581101,0.12801535,0.6579069,0.4148192,0.1881467,-0.04923009,0.3003308,1.264516,-0.71430665,0.54482275
IND176110AAB,0.17657945,0.10420887,0.033166464,-1.1270375,0.32393003,-1.1890994,0.09051168,0.2875632,-0.15935126,0.24976674,0.26636714,-0.10492327,0.35776344,0.32094634,0.53240687,-0.49351105,-0.24126406,0.59850955,0.56678957,-0.41025415,-0.44686058,-0.2341346,-1.5563135,-0.14598617,0.49004242,0.4706595,-0.05615855,0.10831517,0.41377547,1.0817424,-0.7060723,0.8332074
IND177033AAA,0.29442742,-0.15671872,-0.024407845,-1.0240319,0.24855615,-1.1146561,0.09778688,0.21761148,-0.29732862,0.14530917,0.37844777,-0.13159476,0.3589456,0.4242473,0.4629085,-0.46653852,-0.11284763,0.45398498,0.49884295,-0.39638498,-0.42433625,-0.25838077,-1.3499408,-0.1586265,0.6001896,0.36166942,0.02422475,-0.046238225,0.4316892,1.1404641,-0.9191883,0.77582985
IND176303AAA,1.0583546,-0.23702514,-2.0699835,-1.2528338,1.285961,-0.43406788,-1.0949073,-0.40669712,1.6762768,0.9541476,-1.4515519,-0.5662628,0.52831984,-0.7461127,-0.21711132,0.16624874,-0.61891615,0.22009626,0.39383453,0.21856698,0.0669691,-1.7524194,-1.1399482,-0.64596933,1.6328913,1.494373,1.703885,-0.40627906,0.48973843,1.049591,0.13361736,0.9572001
IND176215AAA,-0.27579674,0.03993156,-0.74435955,-0.48930544,0.2381928,-1.0106522,0.057859432,0.2889046,-0.017129406,-0.23143648,0.7110501,-0.3279114,0.25365373,-0.15765509,0.41896844,-0.22997464,-0.26242486,0.6745953,-0.01669047,-1.198174,0.03916401,-0.50944746,-1.3926747,-0.041632034,0.5045501,0.44923234,0.073193386,-0.22117332,-0.024014125,1.1605833,-0.61093867,0.6133972
IND176310AAA,0.55305606,-0.4176845,-1.8613216,-1.2484652,1.6518347,-0.60415465,-1.0925701,-0.29889885,1.7071922,0.97688025,-1.3212236,-0.91153353,0.6415728,-0.8148306,-0.048447788,0.1797169,-0.6002248,0.34467748,0.45044908,0.5599819,0.37471536,-1.5704241,-1.0899248,-0.50004226,1.612651,1.8243634,1.6335639,-0.1978144,0.5858025,0.8451717,0.17030391,0.9225001
IND177001AAA,0.054789983,0.0171382,0.06502948,-1.1322474,0.28548092,-1.1014025,0.10229693,0.18376823,0.12404097,0.21876243,0.30735663,-0.21845423,0.48530167,0.21450754,0.4425147,-0.5477019,-0.24668168,0.69486046,0.6356637,-0.5294115,-0.21992671,-0.19798382,-1.4571245,-0.11785866,0.5138248,0.6052451,-0.11603062,0.014225558,0.47134924,0.75064045,-0.55596906,0.8736441
IND184121AAA,-0.0097245835,-0.21492612,-0.25101617,-0.63151354,0.55724084,-0.9792658,0.5590373,-0.37676525,-0.37928528,-0.27617767,0.89852685,0.2178324,0.19913074,0.2654166,0.12034372,-0.75801176,0.19811217,0.016156308,-0.29509592,-0.160772,-0.1965955,-0.8291751,-1.2236073,0.25225842,1.0272621,0.14649479,0.3004653,0.60819924,0.48101735,1.3901609,-0.49022788,0.9493989
IND181152AAB,-0.035711724,0.38735175,-0.30111626,-0.36662275,0.27186117,-0.83080167,0.8314028,-0.4228326,-0.6031104,-0.026021423,0.4126045,0.003691973,0.239602,0.2586797,-0.2674261,-0.2205467,-0.2690381,0.035230093,-0.22362658,0.2370821,-0.34391174,-0.7275682,-1.3875692,0.11631983,1.3701483,0.0032277196,0.61880356,0.8878208,0.16120216,1.9986322,-0.6015822,1.3528954
IND181201AAB,-0.1373504,0.47423592,-0.34114242,-0.44849217,0.20432727,-0.8580766,0.8233902,-0.5331762,-0.5223775,0.04833416,0.34701532,0.11740093,0.09758192,0.222362,-0.106390215,-0.21117,-0.2620886,0.106269136,-0.013198526,0.1569287,-0.3835845,-0.7472401,-1.4708254,0.024444686,1.4762822,0.008211849,0.7085824,0.940818,-0.028036062,1.9294181,-0.5330767,1.3346275
IND201001AAA,0.68091923,-0.368701,0.4783883,0.4481951,1.1717372,-0.746332,-0.010014259,0.411081,0.51834154,-0.09296398,-0.23285998,0.9878131,0.5203646,-0.6455062,-1.7169744,-1.4737723,-1.2985474,-0.29766712,-1.1403778,0.6465707,0.34939143,-2.0142303,-0.54355234,-0.23511095,1.9664652,-0.19239974,0.61169183,-0.9049409,1.107373,0.8154204,-0.9025764,-0.025476748
IND245101AAA,0.10305003,-0.031320605,1.4045689,-0.91866565,0.55450994,-0.3801757,0.5253,0.44398433,0.08944423,-0.012868654,-0.029456696,0.8119852,0.3373944,-1.016303,-1.3799741,-1.4548072,-0.518911,0.31427053,-0.5760834,0.333648,1.0262061,-2.2324018,-0.6504022,0.39502764,1.3827755,-0.53941506,0.53535837,-0.67043924,0.86273324,0.46754667,-0.84917444,-0.6231838
IND245304AAA,0.12418091,-0.09568755,1.2731202,-0.89678085,0.5098319,-0.47231537,0.53895557,0.37714797,0.1841444,0.14503969,-0.040025793,0.8817575,0.314864,-1.0387945,-1.5192314,-1.4373729,-0.65477186,0.20429392,-0.3688985,0.37336922,1.1986991,-2.304652,-0.71421844,0.551429,1.3092173,-0.58044267,0.59465176,-0.5829863,0.8869942,0.5524212,-0.84570175,-0.5102385
IND201007AAB,0.85261524,-0.8202157,0.15731703,-0.17604491,0.7028473,-1.0148124,0.06418996,0.28314674,-0.2651572,-0.62586826,-0.36754474,0.3974438,0.12021701,0.037184663,-0.06986292,-0.76399386,-1.2360879,0.9491836,-0.34964445,-0.644653,1.0662098,-0.5592204,-0.24458438,0.27272075,0.42867202,-0.03863342,0.51494956,0.026883064,0.49295312,1.1998131,-1.4754958,-0.44093916
IND250002AAA,-0.114501685,-0.40959558,-0.38042563,-0.43960997,0.2634582,-0.5861286,0.39161706,0.08735702,-0.45388123,0.38335827,0.29182872,-0.050608832,-0.19717054,0.42792198,-0.0379783,-0.8224314,-0.3415999,0.8445401,-0.26743615,0.21397714,0.31997952,-1.0124066,-0.84723055,-0.39010563,0.7670504,0.61491317,0.76343817,-0.35534638,-0.48760334,1.5354431,-0.10358047,-0.64369106
IND201304AAA,-0.31511453,-1.1006317,0.46963623,-1.2311205,0.39353833,-0.93913,0.37072942,-0.7794797,-0.029911539,-0.2094474,-0.4930919,1.1366694,-0.088880695,-0.8045237,0.22366668,-0.59284705,-1.1624515,1.8942095,0.68102646,-0.6247535,0.96049273,-0.5453338,-1.3177958,0.5531909,0.307867,-0.10952989,0.4737853,0.9920008,0.021165075,0.65056044,-0.6960701,-1.2061071
IND203205AAA,-0.66029555,-1.2373654,0.47249687,-1.3491474,0.28626183,-0.73422974,0.6105038,-0.7927249,0.0028932013,-0.3640734,-0.47640198,1.410136,-0.35401893,-0.86413646,0.17739995,-0.59632915,-0.9948807,1.9624808,1.0215784,-0.7023022,1.0614558,-0.74779034,-1.5110636,0.73523,0.06227093,-0.1674665,0.54792213,0.9337662,0.018220402,0.58643377,-0.49097216,-1.1548374
IND201301AAL,0.36699447,-1.7292506,0.33614355,-0.47356313,1.2584033,-2.1158383,0.024260202,-0.94096893,0.7262736,-1.0160643,-1.4386506,0.3627708,-0.47358012,-0.25301066,0.85305333,-0.5632556,-1.5554732,1.681484,-0.36526945,-0.8706346,0.6791231,-0.3153605,-0.67771703,0.79842323,1.6714451,0.5455032,-0.20357022,0.86729425,-0.9325746,1.1788203,-1.6735605,-0.13623361
IND201307AAA,0.25221303,-1.6615852,0.24157284,-0.46450457,1.1547333,-1.9563462,0.08124786,-0.9008266,0.6248028,-0.8301923,-1.4651307,0.33324292,-0.4966705,-0.30520755,0.79770434,-0.4790532,-1.4167613,1.6166421,-0.29785085,-0.788468,0.7160415,-0.38664263,-0.7528924,0.7351437,1.5218822,0.6151767,-0.10956318,0.78898114,-0.8981526,1.0099596,-1.6364048,-0.12376522
IND201306AAA,0.53505117,-1.2403328,0.15177634,-0.5757536,1.189005,-1.9765316,-0.113615766,-0.5085716,0.25654712,-0.7229422,-1.0000973,0.331625,-0.11933635,-0.1962417,0.6103636,-0.41859123,-1.3417947,1.2674835,-0.38175842,-0.59796417,0.737717,-0.32333034,-0.6946825,0.7037184,1.2324336,0.16019264,0.22837095,0.65884644,-0.37846813,1.3016013,-1.1956688,-0.53301483
IND205001AAB,-0.22790986,-0.18176842,0.6383667,-0.24821195,0.04879697,-0.78433883,0.056368124,0.66343206,-0.910027,0.12449165,-0.8553205,0.3021456,0.11927241,0.16500027,-0.6704522,-0.103768,-0.53137213,0.8721899,-0.26405326,0.26846018,0.8036791,-0.5187383,-1.1413305,0.18428937,0.5253325,-0.48905247,-0.13129109,-0.17625946,-0.21153857,1.1278858,-0.742312,-0.05125295
IND207123AAA,-1.1519842,-0.52133685,0.76313853,-1.3974241,-0.03324863,-0.45240963,0.54373854,0.05237292,-0.64801013,-0.25573057,-0.19351108,0.49135143,-1.0764805,-0.37358844,-0.60425824,-0.28194556,-0.60086226,0.89780337,-0.027685342,0.5085768,1.0272924,-0.61720115,-1.9163024,-0.21489803,0.4541697,-0.6439492,0.38963026,-0.35103834,-0.50126797,0.390285,-0.5762401,-0.039719604
IND202001AAC,0.18123707,-0.8754749,1.0002903,-0.44287422,0.41595733,-1.0716727,0.47145715,0.6379871,-0.5017553,0.022876553,-1.0566345,0.23883823,-0.27043504,0.45478818,-0.9062732,-0.014536449,-0.77652544,1.1637374,-1.1198008,0.8476461,1.1414195,-0.6202517,-1.4146899,-0.5728678,0.9071751,-0.20907061,-0.16717057,-0.68551546,-0.7834857,1.1214682,-0.99075246,0.528497
IND204215AAA,0.061672214,-0.92394745,0.9421548,-0.42657706,0.45472336,-1.3308482,0.6373701,0.41287386,-0.5632527,-0.0757378,-1.0113375,0.32974294,-0.33221608,0.38541946,-0.86582655,0.10524753,-0.9614141,1.1765705,-1.0838534,0.5518968,1.0343211,-0.6233462,-1.3794328,-0.5000066,0.72010124,-0.20559879,-0.17000332,-0.84098405,-0.9091427,1.2063465,-0.9731641,0.50027394
IND203001AAA,0.23071729,-1.5019964,0.19362892,-0.4475956,0.8226648,-1.713409,0.19585566,-0.91906905,0.60736513,-0.727944,-1.4106357,0.4321392,-0.38978967,-0.36883077,0.8245043,-0.44165683,-1.294917,1.4247357,-0.089964725,-0.5634312,0.6441459,-0.5226388,-0.6336476,0.4697652,1.5389289,0.48615986,0.0035733643,0.83857065,-0.8699022,0.75365984,-1.6138954,-0.009310559
IND203131AAA,0.31257007,-1.6358289,0.19868965,-0.5214532,1.0491053,-1.9797927,0.20676787,-1.0140119,0.5731289,-0.7556071,-1.642605,0.4194064,-0.35412827,-0.3498561,0.9129902,-0.48912704,-1.4002665,1.5203364,-0.12878492,-0.660698,0.65371865,-0.54967505,-0.70973265,0.54233146,1.6966246,0.45785686,0.038093146,0.8127867,-0.93843067,0.80253524,-1.8319234,0.05161158
IND203135AAA,0.38138607,-1.7042007,0.19077186,-0.5273183,1.1416903,-2.1195772,0.12749578,-0.9824221,0.650246,-0.87493306,-1.6115074,0.4896602,-0.33220083,-0.4283935,0.9209392,-0.55993116,-1.4826522,1.5170631,-0.050576832,-0.7297896,0.7591497,-0.5806536,-0.7043031,0.56745833,1.7584913,0.56031924,0.032468915,0.9008078,-0.92168206,0.9067621,-1.8208117,-0.12945297
IND203390AAA,0.4962792,-1.6597289,-0.0015730418,-0.6532681,1.4909806,-2.2396612,0.102940306,-1.062311,0.53972846,-0.93542546,-1.6845365,0.4455738,-0.3001106,-0.41072953,1.0925177,-0.43299556,-1.7423486,1.6118015,-0.30230922,-0.8260415,0.62156963,-0.50449866,-0.7452822,0.7607968,1.8748685,0.46418074,0.11811628,0.87695336,-0.8979018,1.0725223,-1.9858369,-0.13196157
IND203396AAB,0.3504864,-1.6910275,0.20690204,-0.5016823,1.0579406,-2.0519176,0.17745364,-0.9440427,0.6399929,-0.8472152,-1.5746709,0.47103968,-0.35841942,-0.4367495,0.9596275,-0.5340676,-1.4977535,1.5342064,-0.09773595,-0.743484,0.71208733,-0.54424584,-0.7077036,0.5482813,1.7716388,0.42590564,0.067397825,0.95781845,-0.93757004,0.8904819,-1.7294042,-0.21378687
IND204101AAA,0.2205118,-0.38191462,0.7675375,-0.68609166,0.43875524,-0.6418137,-0.29899704,0.6298761,-1.1498811,-0.12470567,-0.71232617,0.5405231,-0.43249616,0.45650774,-0.7202722,0.10548259,-0.70443326,0.779409,-0.34242344,0.29317677,0.4101887,-1.0061592,-1.187374,0.24742915,0.4086113,-0.120101415,-0.35217425,0.039382763,-0.22668701,0.62467515,-0.49177623,-0.04509924
IND207001AAA,0.10193025,-0.98526466,0.9666902,-0.26727468,0.44192842,-1.1440558,0.5239247,0.4889388,-0.6615023,0.0007017426,-1.0691017,0.3353706,-0.43285176,0.4617611,-0.88171315,0.10227179,-0.9032013,0.84431845,-1.2548459,0.6208311,0.9626047,-0.62027824,-1.3380847,-0.35502243,0.5928776,-0.2624634,0.074231066,-0.7418245,-0.93111205,1.295941,-0.8654613,0.5220138
IND205135AAA,-0.101938486,-0.3526579,0.97502446,-0.21064745,0.0049480377,-1.2511988,0.06731336,0.5169599,-0.96437085,-0.031027019,-0.8043461,0.48126066,0.06765271,0.03816396,-0.46972176,-0.24701083,-0.40455344,0.9349467,-0.23131539,-0.07282618,0.61628234,-0.56366223,-1.0769582,-0.1845543,0.46821767,-0.38513613,0.036189083,-0.27386522,-0.13485645,1.566607,-0.5024676,-0.11222121
IND209721AAB,-0.6475784,-0.119360186,0.4392862,-0.91881627,0.22225998,0.21764709,0.1900041,0.90287906,-0.9949634,0.34979182,-1.1723996,0.44870973,-0.122244515,0.075188555,-0.98827845,-0.19573417,-0.5717741,1.0951991,0.44469142,1.0128243,1.0335203,-1.0226697,-1.6073054,0.8978589,0.6730539,-0.6976119,-0.19876082,-0.08532928,-0.5023438,0.82603616,-1.2256285,0.037352413
IND283203AAA,0.06295003,-0.40107763,0.82680094,-0.055537652,0.068049125,-1.2833337,0.06536771,0.5531347,-0.98582715,-0.013813965,-0.6781846,0.39022687,0.0591548,0.0067016645,-0.42384052,-0.21903883,-0.34860426,0.8038121,-0.29533476,-0.0791305,0.670443,-0.48480922,-0.94225514,-0.30899587,0.47986177,-0.40022302,0.15583232,-0.26156962,-0.1859491,1.6056719,-0.5583908,-0.042777605
IND206001AAA,1.0159284,-0.009771659,-0.08672593,-0.57665133,1.0155495,-0.5876569,-0.023394873,0.04036272,-0.4126263,0.3046282,0.042870056,0.3423034,0.3069418,-0.5064432,-0.33394676,0.3821733,-0.054786023,0.33505148,0.2236754,-0.013970726,0.19395818,-0.28879654,-0.6306296,0.015095909,-0.30628937,-0.42188725,-0.02620456,-0.49675223,0.11458323,1.2866654,-0.08254216,-0.07103729
IND206122AAA,0.8495942,0.02194774,0.031958934,-0.689064,0.95124006,-0.51449186,-0.05024966,-0.0145020075,-0.4465074,0.35333905,-0.04365667,0.42990166,0.29197472,-0.59452194,-0.32989794,0.3513574,-0.09113307,0.36683884,0.16863716,-0.039105665,0.12209644,-0.3618215,-0.6489549,0.091941364,-0.2279584,-0.4739208,0.020186007,-0.517086,0.12289494,1.2292874,-0.06084131,-0.17605266
IND207302AAA,0.13108686,-0.97738266,0.8062593,-0.43250898,0.3883529,-1.1770262,0.4943094,0.46649104,-0.62968534,-0.07039972,-0.95530635,0.25824016,-0.37849143,0.5064098,-0.97103417,0.15508674,-0.85748416,0.6696313,-1.1694727,0.47718248,0.8797182,-0.64477324,-1.3229717,-0.39133853,0.52631027,-0.44373915,0.021630377,-0.71675605,-0.9564419,1.3376218,-0.77396446,0.35217932
IND207247AAB,0.1728523,-0.50545704,0.47252527,0.62073123,0.2696,-1.14341,-0.0048688212,0.89101624,-0.54628843,0.51940125,-1.0403659,0.07585981,0.59967977,0.036683608,-0.61604774,-0.17950109,-0.31532693,1.0055999,-0.64204,0.21620955,0.7318315,0.026642809,-1.5180035,-0.16634986,0.4535725,-1.0191548,0.23173079,-0.5046776,-0.27324516,2.1131432,-1.1408236,-0.25950828
IND208012AAA,0.10097232,-0.14787574,0.19729757,-0.89742255,1.1275676,-0.77695745,-0.42590377,-0.26093394,-0.9086068,0.65599895,-0.1954068,0.6022367,-0.10491953,-0.894529,-0.18100555,0.1587953,-0.24286933,0.25152537,-0.11671413,0.27145305,0.14624307,-0.48362315,-0.4429114,0.34392872,0.31609347,-0.72725934,0.112953946,-0.2776756,-0.035759322,1.0189126,-0.15287185,-0.17657287
IND209101AAA,-0.5288603,-0.34445482,0.22003472,-1.0670121,1.2564051,-0.7258427,-0.30051184,-0.40746018,-1.0065572,0.40353793,-0.14754559,0.6480541,-0.13068269,-1.1538547,-0.15944406,-0.23677249,-0.2118748,0.60389876,0.18192153,0.67338693,-0.13049039,-0.4161848,-0.50224054,0.5236267,0.17960346,-0.9280316,0.018074926,-0.64147645,0.13947882,0.96875715,-0.33013323,0.08679885
IND209111AAA,-0.35690522,-0.31786275,0.28123674,-1.0009068,1.3754995,-1.0012392,-0.39282405,-0.45580405,-1.0101393,0.38412228,-0.11679115,0.5584996,-0.18563409,-1.0822531,-0.16754505,-0.25619426,-0.29305586,0.70069385,0.031188603,0.7826425,-0.17907947,-0.42008048,-0.46535245,0.442921,0.16528077,-0.90057564,0.010494144,-0.70204586,0.10211102,1.0356671,-0.41506577,0.08031837
IND285001AAD,-0.16740403,-0.33264703,0.21442445,-0.9372998,1.5065709,-1.0640161,-0.30648834,-0.56519055,-0.98636615,0.38466877,-0.0012352354,0.48760203,-0.1050019,-1.0404403,-0.22866102,-0.17969275,-0.2886429,0.65035284,-0.13170934,0.797423,-0.06934514,-0.3292273,-0.5064366,0.34656578,0.13830626,-0.90662336,-0.1121216,-0.6733687,0.042000808,1.2173855,-0.55171067,0.05789039
IND209206AAB,-0.7247942,0.17373227,-0.06541722,-1.0574602,1.1220266,-0.36556968,-0.6616072,-0.21262722,-0.9517864,0.4417183,-0.4172043,0.9687998,-0.39784896,-1.0400983,0.23754427,-0.24489343,-0.54706395,0.009261075,0.6527981,0.25632575,-0.19011821,-0.63593984,-1.2777264,0.38567463,0.18548457,-1.5140486,0.26633584,0.24349202,-0.5242636,0.69987756,0.2509103,-0.28267553
IND210301AAA,-0.7753562,0.19174542,-0.081683934,-1.0632275,1.2390511,-0.22544923,-0.6853377,-0.3389176,-1.0760685,0.31006438,-0.4832771,1.0247415,-0.46386632,-1.2583083,0.4637166,-0.28143996,-0.61580354,0.183823,0.69179064,0.20785974,-0.14382504,-0.603615,-1.2232479,0.42171702,0.14278966,-1.5876768,0.36834237,0.18011622,-0.60392433,0.85424566,0.17561407,-0.42331865
IND208006AAA,-0.8044915,-0.34858608,0.30041742,-1.4275721,0.85836405,0.112610415,-0.113055244,-0.17776434,-1.0011363,0.55974466,-0.23697482,0.9577915,-0.10275926,-1.3308916,-0.19918564,-0.09113789,-0.054470256,0.5359516,0.7702472,0.37759352,0.28407592,-0.85973805,-0.6585072,0.7217647,0.45403245,-1.128634,0.2859914,-0.2586317,0.018076748,0.6994399,0.10406657,-0.2674741
IND208019AAA,-0.7710631,-0.32228044,0.46175817,-1.5056361,0.7625247,0.06823129,-0.105221756,-0.2387956,-0.8094176,0.30157283,-0.42780927,1.0285469,-0.33818772,-1.3243806,-0.08389729,-0.08255009,-0.026580071,0.656147,0.6274659,0.20972481,0.06203412,-0.83888936,-0.63675797,0.6840604,0.2560887,-0.93417484,0.57288903,-0.24310268,0.18887387,0.6983643,0.18855415,-0.3262387
IND209801AAA,-0.10816369,-0.22247507,0.24895835,-0.8165826,1.0763831,-0.74129075,-0.22358012,-0.22212018,-0.78305626,0.43715626,-0.29484355,0.65357167,-0.22977506,-0.8077007,-0.14574105,0.26361188,-0.22056307,0.31328154,-0.20390259,0.30669433,0.015488023,-0.62584645,-0.47089404,0.36138102,0.32721433,-0.78278595,0.012383263,-0.46830285,0.027183706,1.0196733,-0.04834746,-0.24352543
IND211002AAB,0.39313835,-1.024364,0.8563137,-1.2317528,1.5127846,-0.3695231,0.053623706,-0.6937402,-0.8669968,0.7897228,-0.30467424,0.76282114,-0.33298716,-1.052456,0.42668298,-0.2680739,-0.27822652,0.26265016,-0.4515285,0.8801447,0.015165477,-0.8886594,-0.7763079,0.06312858,0.61121655,-0.5946025,0.17634027,0.25540033,0.11394622,0.7184667,0.57023627,0.012314765
IND212601AAA,-0.05343786,-0.3397362,0.4573136,-1.048058,0.93535304,-1.0912831,-0.2367774,-0.21333042,-0.83268607,0.60951334,-0.6807751,0.52507687,-0.35888347,-1.0170254,-0.059959285,0.27579716,0.18850543,0.36999175,0.21190664,0.19529031,-0.016165763,-0.650685,-0.6546654,0.094360806,0.48269668,-1.0067292,0.013597028,-0.59642607,-0.072121106,0.8774525,-0.018242111,-0.18305416
IND221313AAA,-0.022966942,-0.69241107,0.6908087,-1.1407285,1.2710241,-0.17934567,0.05290135,-0.6923047,-0.9955209,0.64045453,-0.25021598,0.80729485,-0.2188658,-1.0501503,0.19111292,-0.12392916,-0.17438176,0.3702497,-0.20687635,0.6043873,0.03251434,-0.7387264,-0.56401974,0.39145118,0.4264365,-0.5438911,0.18564256,-0.0029865075,0.112382896,0.6476544,0.53988373,0.074674316
IND209625AAA,-0.5832075,-0.102976255,0.3565943,-0.81959325,0.3411002,0.4135613,0.27259937,0.99601877,-1.0319583,0.33198583,-1.200225,0.52929944,-0.12903047,0.11458704,-1.1367575,-0.20828734,-0.5644904,1.1711874,0.58910143,1.2246233,1.0983297,-1.0121979,-1.672497,0.9534535,0.7489271,-0.7435048,-0.19320305,-0.15253723,-0.4939609,0.93392044,-1.4177254,0.09218573
IND241124AAB,-0.64538926,-0.21752276,0.43993917,-1.0410079,0.32630906,0.37304717,0.24316996,1.0480319,-0.9844649,0.36499566,-1.2315488,0.58497846,-0.008445627,0.090751246,-1.0906,-0.27229935,-0.6900692,1.2450072,0.6580336,1.2433186,1.2569655,-1.150191,-1.7676722,1.0457118,0.7616278,-0.7508335,-0.15735002,-0.14517163,-0.6730648,0.925003,-1.5697908,-0.016718572
IND210001AAA,0.18074735,-0.3361197,0.43949953,-1.0798423,1.0132864,-1.1840752,-0.21000154,-0.26762795,-0.80558777,0.6841666,-0.68266225,0.40910208,-0.33673286,-0.967872,-0.1167948,0.41434926,0.2990244,0.3378863,0.011457583,0.13572071,-0.021432355,-0.7057785,-0.68398404,0.009074709,0.52100456,-0.9099529,-0.056396447,-0.62938184,-0.13856909,0.9909245,-0.13259673,-0.20984711
IND210427AAA,0.34124756,-0.2063287,0.46534216,-0.9280497,1.0970747,-1.2839735,-0.15374202,-0.43759993,-0.8121007,0.7234437,-0.5348947,0.3036412,-0.25568053,-0.86138964,-0.26154682,0.30835626,0.29898137,0.3132814,-0.11154028,0.17756806,0.12910931,-0.5621036,-0.6265344,0.052224394,0.42858896,-0.89108574,-0.15688127,-0.58285177,-0.25564906,1.2275778,-0.20313516,-0.17343542
IND210431AAA,0.23150755,-0.25633442,0.22402073,-0.76008743,1.6367855,-1.3161793,-0.25019372,-0.7619142,-1.1305611,0.33345163,0.11620999,0.23414496,0.009627071,-0.9974309,-0.321336,-0.11128179,-0.31345376,0.5975399,-0.29617468,0.8207352,0.021019947,-0.25941122,-0.529225,0.09055065,0.08775575,-0.8421704,-0.11616467,-0.4960751,-0.08899313,1.4428186,-0.62177444,0.110463925
IND210501AAB,0.59126323,-0.53533715,0.38930812,-0.79228085,1.1843395,-0.76845235,-0.35753572,-0.25679213,-0.9206149,0.309797,-0.09955495,0.19438463,-0.090868965,-0.9468524,-0.21828394,0.22764832,-0.07512692,0.53283477,-0.77577096,-0.07054867,0.33698758,-0.13441153,-0.3397843,-0.060403615,0.3110972,-0.8836703,-0.18157749,-0.25283748,-0.16865265,1.4002488,-0.47449738,-0.10347436
IND211011AAA,0.39785892,-1.2129171,0.74549717,-1.3600892,1.5924494,-0.45250782,0.28177905,-1.0697325,-0.72266394,0.8730761,-0.19613318,1.1785569,-0.23111707,-1.064782,0.3286147,-0.24545906,-0.17643364,0.21907632,-0.117438495,1.057254,0.30171183,-0.8849044,-0.6985377,0.23050494,1.1392117,-0.6856287,0.38079423,0.4391026,0.008897493,0.796191,0.63327587,0.13775691
IND211013AAA,-0.23646034,-0.97163,1.0591747,-1.4738663,1.5767219,-0.19639473,0.52006537,-1.0395784,-0.5543865,0.71200335,-0.17908783,1.8616804,-0.22853693,-1.5253216,-0.0727253,-0.37633657,0.049381465,0.40062222,0.6869407,0.9315436,0.6477553,-0.9773698,-0.6666971,0.20131941,0.83194405,-0.68465126,0.7476505,0.420289,0.11084404,0.86284477,0.90884995,0.32450515
IND485001AAC,1.0022304,-0.6967974,0.7893449,-1.2129129,2.0420527,-0.40649104,0.26260903,-0.85307205,-0.59397537,0.92665493,-0.2261934,0.86252475,-0.42417344,-0.7698966,0.19119638,-0.09501088,-0.041078594,0.51065606,-0.5932356,1.3121388,-0.008986669,-0.93454033,-1.2757461,-0.51696664,0.24048385,-0.056417745,0.27114663,0.05005643,-0.108927466,0.8150248,0.6405868,0.52182186
IND211008AAA,0.924081,-0.9635709,0.83474976,-1.0293936,1.5444107,-1.049583,-0.035662726,-0.95727384,-0.59338975,0.82477987,-0.010448084,0.78939235,-0.5782141,-0.83268124,0.19570865,-0.078718774,0.13019742,0.12675363,-0.63533723,0.84394586,0.32332498,-0.49009717,-0.6655575,-0.33611047,1.1532296,-0.14087063,-0.15422185,0.41596812,-0.096209325,1.081918,0.21014181,0.52415246
IND212501AAA,0.5488792,-1.0392499,0.90210325,-1.323405,1.7753633,-0.583408,0.18196048,-1.1108557,-0.73504263,0.9680525,-0.12802577,1.0878892,-0.0406198,-0.95977116,0.45547277,-0.28432393,-0.18587135,0.34203076,-0.20644066,1.1894873,0.39143,-0.95118326,-0.66783684,0.2171693,1.2099574,-0.68132985,0.28558105,0.5074138,-0.17897281,0.87669766,0.4719486,0.13993022
IND212402AAA,0.87634647,-1.2310338,0.7435134,-1.3013376,1.814716,-0.61136854,0.30220756,-1.2850444,-0.9807697,1.0025576,-0.15380423,0.9308224,-0.32938713,-0.9690372,0.13265225,-0.14525181,-0.15938212,0.23978394,-0.49552038,0.9569442,0.40731737,-0.7130033,-0.8289853,0.34262595,1.2689363,-0.6654847,0.12982973,0.500532,-0.22518937,0.95973784,0.36784744,0.11783856
IND221706AAA,1.0011723,-0.612521,0.5107528,-0.66479564,1.3135716,-1.0325061,-0.44568393,0.12747361,-0.5642243,0.68843347,0.2627165,-0.20112893,-1.2856483,-1.2518113,-0.24280855,0.3785456,-0.4350444,0.93520164,-0.3502609,0.6494742,-0.72029454,-0.5214848,-0.43878698,-0.26123363,0.585168,-0.8947589,-0.1997353,0.12662068,-0.45471355,2.4110587,-0.32187772,0.7588827
IND273014AAB,1.25177,-0.38338047,0.33473817,-0.86195964,1.218268,-0.94665545,-0.72183996,0.14343598,-0.54806954,0.74228555,0.14433041,-0.06591439,-1.1055168,-1.4673584,-0.2778511,0.1941223,-0.5769953,0.7149681,-0.3215127,0.56635845,-0.46190506,-0.50614417,-0.07491839,-0.5494335,0.5771197,-0.71031237,-0.2583742,0.06355892,-0.6674934,2.7784038,-0.3274064,0.43313736
IND223101AAB,0.8480027,-1.209672,-1.9027122,-0.03194398,1.1684859,1.021855,-0.06345931,-0.28454584,0.80182165,-0.6247854,-0.18506394,-0.40269816,0.2990145,-0.1128296,-0.40297607,-1.5792466,-2.0450711,-0.29760215,-0.74062675,1.4007516,0.44034934,-0.439514,-1.0863963,-0.9582729,1.7865814,0.4496632,0.90355706,-0.08236389,-0.40959078,0.8742776,0.19858772,1.1694334
IND222125AAB,1.1072514,-1.0109164,-1.730054,-0.31826463,1.1507225,1.1148547,0.08485361,-0.46079496,0.9440114,-0.56510407,-0.07388472,-0.09982599,-0.0042146267,-0.38724926,-0.46833792,-1.7992156,-2.1463788,-0.30493736,-0.69395643,1.087687,0.037301403,-0.7797508,-0.8880177,-0.43077305,1.5849538,0.08809491,0.979555,0.34995925,-0.28842255,0.8657142,0.06934324,1.4601018
IND224001AAA,-0.29149514,0.120818846,-0.77327114,-0.79497916,1.3519094,-0.4780856,0.21505019,-0.4162594,1.6562032,-0.7110389,-0.5726219,-1.3322265,-1.0062971,-0.9253885,-0.11026924,-0.8256886,-1.133931,1.0668145,-0.4188724,0.6615339,-0.5557645,-0.32886657,-0.37377906,-0.020051764,1.4450525,-0.1532599,0.53603345,-0.40383792,-0.5689945,0.2646601,0.10850227,0.7561479
IND224141AAB,-0.3913849,0.047220662,-0.94508636,-1.0647947,1.4303402,-0.2044185,0.10487645,-0.32580253,1.769591,-0.854028,-0.84644115,-1.5830146,-1.0553219,-0.7947922,-0.1661226,-0.8323522,-1.3239883,1.3215044,-0.65773576,0.63674647,-0.6750117,-0.544704,-0.552863,-0.22005087,1.3879782,-0.2512496,0.4983783,-0.59381294,-0.7051805,0.42815393,0.24939497,0.856628
IND224122AAA,-0.23731835,0.07263483,-1.0432224,-0.96489185,1.4515852,-0.6976053,0.17361969,-0.4767642,1.7937418,-1.0139661,-0.6497688,-1.4469442,-0.9242306,-1.0170398,-0.14213204,-0.8085835,-1.1967676,1.1344438,-0.55851495,0.8365408,-0.81199735,-0.25773966,-0.43011495,0.07881486,1.6639744,0.0473802,0.5588314,-0.36745864,-0.6930973,0.25039244,0.050654918,0.57348436
