hub,n2v_0,n2v_1,n2v_2,n2v_3,n2v_4,n2v_5,n2v_6,n2v_7,n2v_8,n2v_9,n2v_10,n2v_11,n2v_12,n2v_13,n2v_14,n2v_15,n2v_16,n2v_17,n2v_18,n2v_19,n2v_20,n2v_21,n2v_22,n2v_23,n2v_24,n2v_25,n2v_26,n2v_27,n2v_28,n2v_29,n2v_30,n2v_31
IND000000AAL,0.62755543,-0.4696421,0.14609325,-0.114991665,-0.3897965,0.5128064,-0.5563111,0.0844545,-1.161681,-0.32447436,-0.5533875,0.26269293,-0.27050358,0.15558296,0.15775791,-0.5785134,-0.34116697,-0.27710807,0.028397925,0.5908591,-0.4994902,0.4429116,-0.47350037,0.017428465,0.23185016,-0.2129879,0.08706612,0.4730105,0.2968224,0.07646118,-0.5293556,0.652908
IND411033AAA,0.61214566,-0.5316927,0.23543982,-0.13293058,-0.45386314,0.630465,-0.464884,-0.03574869,-0.9550213,-0.20616744,-0.53192437,0.25813589,-0.16947125,0.11041967,0.053819843,-0.44720578,-0.437344,-0.2868829,-0.075707935,0.5988779,-0.51215905,0.34476396,-0.40773478,0.1597564,0.22129185,-0.16506661,0.03535253,0.43169993,0.22947218,0.21206068,-0.50246847,0.55032647
IND000000AAS,1.4098941,0.42370355,1.6947942,0.60820156,1.6966314,0.87393343,0.28450182,-1.1005653,-2.4718215,0.5583378,0.24438918,-0.018461475,0.5024337,-0.23388733,-0.20658799,-1.820773,1.1660224,0.9653469,-0.7064044,0.6393798,-0.37038222,-0.20677961,0.4264379,-1.1775384,-0.44372565,-0.60057694,-0.77060074,-1.0091132,-0.8019811,-0.0845629,-1.10248,0.68559265
IND783370AAC,1.3830009,0.46458977,1.7569926,0.56820744,1.661001,0.9053576,0.3107285,-1.0451899,-2.5407734,0.5511414,0.33561996,-0.07281497,0.5354357,-0.32623395,-0.21446884,-1.8665974,1.0980799,1.0472683,-0.66386986,0.71961856,-0.4719823,-0.108057916,0.3913621,-1.2169188,-0.42504516,-0.6087161,-0.78916025,-0.9632377,-0.7606591,-0.09310185,-1.0937415,0.6394306
IND000000ABA,0.4275424,-0.22473402,0.026880054,-0.40863135,1.0204686,0.28889427,-0.1647803,-1.1847693,-0.20341703,0.056399126,-0.949282,0.7227322,-0.5919135,-0.09203786,0.70736927,-0.3433243,0.010754311,-0.4815707,-0.06120626,0.98024106,-0.10829718,-0.5891354,-0.911624,0.15352046,-0.13487302,-0.19019097,0.29180348,-1.3729266,0.0021461588,0.6546942,-0.5729198,0.67277396
IND683565AAA,0.49690273,-0.41009885,-0.0330144,-0.5556474,1.1012392,0.12729622,-0.26479417,-1.1611942,-0.21670532,-0.04744486,-0.8271461,0.74611485,-0.3573679,-0.18837474,0.63549054,-0.29943147,0.06952623,-0.5671819,0.06792277,1.0337051,-0.19545555,-0.612851,-0.82133096,0.28304633,-0.0019056408,-0.13806337,0.41887257,-1.5038271,0.094302446,0.6390902,-0.52387923,0.77578706
IND000000ABD,0.6407472,-0.79464734,-0.13588259,-0.54444826,0.45839098,-0.33848876,-0.23147535,-0.32455814,-0.28372917,0.09919623,-0.52268016,0.25182644,0.032176886,-0.029129416,0.6547485,-0.24021453,0.41035807,-1.2568891,0.1209601,0.5436699,-0.32017756,-0.40642276,-0.56708413,0.05803328,0.6973146,-0.18163496,0.6554322,-1.0410485,0.199396,0.8983469,-0.44567898,0.76395357
IND562132AAA,0.36239856,-0.05912399,0.12035535,-0.39879316,0.07604205,0.21415372,-0.101402596,-0.40734485,-0.47159415,-0.062300883,0.17820597,0.13061158,-0.39729804,-0.037550893,0.5754461,-0.075023346,0.11608887,-0.6373849,-0.45021978,0.46893674,-0.39810836,-0.10003629,-0.5963523,0.19269082,0.23529321,-0.0118463235,0.35578278,-0.29515982,-0.10301395,0.7010999,-0.24201252,0.3716674
IND000000ABG,0.86244464,-0.3343188,1.1625109,-0.29000863,1.713345,-0.053894207,-0.6963849,-0.15772834,-0.20465128,0.28257632,-0.7640667,0.8156082,0.0908967,0.32753348,0.2086448,-1.0730516,0.91517544,1.4550439,-0.12171464,0.22635633,-0.33657074,0.1613112,0.24524619,0.093787685,0.5516248,0.0746745,-0.2661112,-0.17127627,-0.30532655,0.61832595,-0.16624965,0.8676792
IND501359AAF,1.0510029,-0.21787374,1.6270583,0.3355907,2.7741053,0.5533894,-0.67739534,-0.7018652,0.49352866,0.01263717,-0.337858,-0.35069826,-0.11756046,0.86735594,-0.33331496,-2.0421546,0.42121813,1.3090286,0.2575335,0.95340335,0.18354934,0.6695057,0.3844591,1.1445891,1.8358817,-0.45449176,-0.6146472,-0.6861311,-1.587799,0.8749702,-0.106318906,0.78926796
IND000000ACA,-0.28905073,-0.34126252,0.2141203,-0.22245646,1.1477836,-0.32925734,-0.21348904,-0.48212108,-1.5814456,0.2766634,-0.40619326,0.07163269,-0.11063218,1.2953403,-0.57864857,-0.33634788,1.049343,0.39511204,-0.64039963,0.74204004,-0.31273028,0.008057928,-0.64687717,0.58790314,-0.5300665,-0.3309013,0.3510889,-0.12354755,-1.2876806,0.70634794,-0.31103987,-0.5652834
IND140406AAA,0.013212006,-0.3419457,-0.002292278,-0.29347464,1.3537519,-0.19773546,-0.15694353,-0.693539,-1.5204004,-0.15455385,-0.6133285,-0.2175055,-0.025489526,1.3068157,-0.6961731,-0.5830376,1.1751157,0.28866372,-0.75124276,0.8047724,-0.24088222,-0.08039955,-0.617745,0.6187685,-0.49972963,-0.47792858,-0.004280124,-0.24668697,-1.6040589,1.0462177,-0.13336761,-0.69152427
IND142001AAB,-0.4113523,-0.44635886,0.21918142,-0.4011189,1.0114807,0.097917855,-0.46140048,-0.35813487,-0.9741177,0.088779606,-0.17515826,0.029971369,0.15543011,1.3564029,-0.6048205,-0.26811346,0.92963594,0.32819626,-0.4486658,0.6297007,-0.38908306,0.015456399,-0.88910306,0.30665952,-0.53360987,-0.41692328,0.44533402,0.16180581,-1.166913,0.9314742,-0.25196442,-0.55000365
IND142401AAA,-0.09547988,-0.4328457,0.19649786,-0.23750977,1.153696,-0.12596072,-0.38733134,-0.69558823,-1.4586972,-0.14435744,-0.39081118,-0.23122038,0.09165977,1.1846943,-0.66585875,-0.43224403,1.1360441,0.28871542,-0.65679896,0.7472371,-0.084247924,-0.14038868,-0.64970595,0.47729063,-0.70729506,-0.3900658,0.11849416,-0.42309824,-1.3716937,0.95779705,-0.19591233,-0.7946517
IND143001AAA,-0.44068626,-0.42721233,0.2935175,-0.46481478,0.80565774,-0.34008026,-0.23372589,-0.68597794,-1.4746776,-0.23602259,-0.57931244,0.17200784,-0.23316346,0.79420626,-0.6307708,-0.24937528,1.083212,0.35901815,-0.55971545,0.82853013,-0.46965432,-0.37482524,-0.702027,0.29197183,-0.82095164,-0.014078058,0.30203477,-0.11072227,-0.94081527,0.7777603,-0.21542785,-0.42158172
IND144001AAB,-0.3818941,-0.44431955,0.41035494,-0.42810977,0.75520307,-0.51650816,-0.29930145,-0.61039704,-1.4525414,-0.22705539,-0.31124312,0.03354409,-0.3213476,0.90300643,-0.65152484,-0.2890792,1.2299443,0.28586233,-0.41365787,0.6651016,-0.26752746,-0.26260123,-0.66385746,0.27708182,-0.48131436,0.07863115,0.3795598,-0.173361,-0.81592244,0.87813205,-0.36447966,-0.5416884
IND144514AAA,-0.1862393,-0.44320944,0.22996551,0.0163387,1.0036589,-0.052521903,-0.24586101,-0.574924,-1.59273,0.10405555,-0.22018747,-0.0018632014,-0.028124772,1.2318343,-0.8257057,-0.5051711,1.2255194,0.3821991,-1.0047032,0.58697766,-0.08303834,0.20822321,-0.5450604,0.24026597,-0.8628686,-0.71369445,0.13839138,-0.475007,-1.4104106,0.9672854,-0.2689941,-0.49519187
IND147301AAA,-0.21380395,0.4211949,0.6145328,-0.23698239,1.1236598,-0.0432145,0.104429476,-0.88888407,-1.4250697,0.46185783,-0.9843304,-0.37007314,-0.2327923,1.7059547,-0.8921695,-0.6807995,0.5130766,0.34827644,-0.5140168,0.76062185,0.11815008,-0.10758008,-1.6752391,0.34411466,-1.3473812,-0.5350288,-0.45592937,0.20717183,-1.7604003,1.127717,-0.13316631,-0.24004862
IND152026AAA,-0.48579615,-0.3756128,0.264455,-0.23649332,1.0318593,0.1156418,-0.63372076,-0.430655,-1.0059522,-0.019158538,-0.11910997,-0.034512196,0.1690752,1.1078037,-0.43179476,-0.34489867,1.1037489,0.27389085,-0.49127424,0.8583642,-0.22265427,0.100652866,-0.75660527,0.37892056,-0.56733,-0.33568844,0.3431775,-0.054662585,-1.0332261,0.88896775,-0.20424616,-0.79619175
IND160002AAC,-0.58879244,-0.32953054,0.018283762,-0.57697904,0.86365813,-0.29051057,-0.36752602,-0.34162784,-0.9549026,-0.24297625,-0.01890455,0.059533916,-0.043981787,0.47526172,-0.3651872,-0.32056695,0.8033836,0.39397576,-0.58811474,0.56783485,-0.53929204,-0.3185752,-0.6039227,0.34059125,-0.29324824,-0.091402225,0.5360738,0.4645389,-0.6671706,0.8437995,-0.4703512,-0.33521694
IND000000ACB,-0.17658836,-0.11755866,0.091827706,0.0385977,0.24729985,-0.4353788,-0.5330797,0.53232497,-0.75789624,-0.24356166,-0.06549146,-0.18824326,0.20391017,-0.056124903,-0.334737,-0.3968289,-0.2572342,-0.5863762,-0.23057544,0.465194,-0.3942393,-0.15523797,-0.40071377,-0.038375232,-0.16248056,-0.18226896,0.08820287,0.19273227,-0.21835074,0.5899871,-0.21962212,0.06844277
IND000000AEL,-0.061418243,-0.13287868,0.12117583,0.052452818,0.21614371,-0.44284415,-0.54965657,0.564726,-0.84943175,-0.33426455,-0.071936384,-0.13830604,0.29704008,-0.07110162,-0.3953339,-0.47651693,-0.3555125,-0.60932344,-0.12936433,0.5071237,-0.33273673,-0.2992463,-0.47896156,-0.10508558,-0.19769223,-0.32193786,0.027884869,0.17030828,-0.32184926,0.55149716,-0.15059118,0.004701456
IND110024AAA,-0.48125154,0.5831306,1.2050706,-0.2979076,-0.090381995,0.698815,-0.2014972,0.7878836,-2.3910089,1.2352978,-0.48810178,-0.5466364,0.70715857,0.7506715,0.30968735,-0.060379293,-0.34110183,0.097845785,-0.18416415,0.43503234,-0.2787376,-0.5482944,-0.49254847,-0.60963094,-0.81998396,-0.2012343,-0.115056366,0.8490343,-1.1525763,1.9865214,-0.0013773309,1.2202709
IND110030AAD,-0.08823959,-0.2659158,0.113923356,0.031744055,0.2875289,-0.456844,-0.60065037,0.69110274,-0.8111669,-0.32725954,-0.14549188,-0.1071457,0.28413856,-0.05304134,-0.3929818,-0.4255453,-0.07214837,-0.70055777,-0.2124328,0.45017618,-0.21320535,-0.27768332,-0.42996493,-0.17024066,-0.16614652,-0.24554628,0.16467157,0.3028295,-0.14727755,0.6364328,-0.3542523,0.12184486
IND110037AAK,-0.10367579,-0.19553392,0.03986614,0.011387403,0.27843845,-0.45101392,-0.64672,0.5602069,-0.862705,-0.32920325,0.052877173,-0.16534775,0.26293564,-0.09152548,-0.3623476,-0.4022273,-0.22354421,-0.6959341,-0.33900034,0.54624486,-0.31762645,-0.13664913,-0.40004253,-0.10958277,-0.25738817,-0.17862232,0.07227167,0.14603622,-0.21102044,0.6219341,-0.32675338,0.17586423
IND110043AAA,-0.009776295,0.05675647,0.45609054,0.03296696,0.16984871,-0.5582557,-0.84313756,0.42614585,-1.0205677,-0.41832238,0.21136521,-0.10413331,-0.19992353,-0.11902729,-0.6225023,-0.49860018,-0.51923686,-0.7655738,-0.22072122,0.72597736,-0.394381,-0.44395456,-0.17543632,-0.063115604,0.06052739,-0.10557244,0.049081363,0.30866235,-0.48113915,0.4924938,-0.19132961,-0.14143865
IND110043AAC,-0.2057534,-0.19599907,0.17366636,0.06706455,0.36342084,-0.49792814,-0.4342867,0.5625798,-0.92016053,-0.37763503,-0.032596756,-0.05083736,0.23579367,-0.09777641,-0.41135958,-0.4417537,-0.33958873,-0.6090948,-0.23063603,0.52485734,-0.46449956,-0.21239202,-0.3223845,-0.1301679,-0.12441166,-0.16781923,-0.045634527,0.285796,-0.20098358,0.5163185,-0.22228475,0.07635371
IND110052AAA,-0.08130288,-0.12999503,0.113958254,0.07984594,0.24794658,-0.37785026,-0.60850745,0.60941565,-0.719532,-0.36529693,-0.08788128,-0.21024568,0.43465316,-0.047171876,-0.34871945,-0.42745787,-0.26793042,-0.69917995,-0.18427064,0.5010424,-0.38414022,-0.21438843,-0.36451417,-0.014119271,-0.12084619,-0.3267348,0.16200358,0.21187092,-0.3233972,0.5194409,-0.25574228,0.14745378
IND110064AAA,-0.112607636,-0.1518019,0.14661701,0.13975713,0.35027543,-0.45245993,-0.69237,0.82246095,-0.86620426,-0.42049116,-0.083074585,-0.1904754,0.12513088,0.037968274,-0.34727442,-0.40457878,-0.24152881,-0.72927505,-0.22885834,0.5719065,-0.24860291,-0.20998517,-0.36451048,-0.10446971,-0.06293412,-0.105724074,0.1033831,0.1652295,-0.3288217,0.53964525,-0.28223577,-0.03966282
IND110085AAB,-0.18181242,-0.07572348,-0.009193177,-0.3339786,0.53208214,-0.5072954,-0.23139958,1.1104015,-0.65345913,0.4941116,-0.5479303,0.058852866,-0.012827165,-0.1026693,0.17141293,-0.68732715,-0.35827714,-0.5935745,-0.43232542,0.7974754,-0.09825785,-0.100119986,-0.10397269,0.48874712,-0.449517,-0.8803572,0.41245502,0.6200377,-0.69327575,0.5484304,-0.29833767,0.41532344
IND110092AAC,-0.15100396,-0.14123246,0.062413476,0.12158049,0.19393478,-0.6105746,-0.61295754,0.652316,-0.81201196,-0.31637254,-0.19092536,-0.18040106,0.2622217,-0.107891805,-0.35113594,-0.48924243,-0.27035138,-0.5258295,-0.1698273,0.65403354,-0.520831,-0.18627417,-0.31288457,-0.15101638,-0.1650368,-0.14659865,0.20523044,0.22698879,-0.11014023,0.6053518,-0.3230905,0.1645685
IND110095AAB,-0.18083693,-0.2053488,0.07860714,0.07350483,0.21447434,-0.4532384,-0.4337999,0.49610186,-0.81127733,-0.2805717,-0.08459809,-0.19895016,0.32448542,-0.071427695,-0.2997682,-0.44097805,-0.2475213,-0.6856447,-0.273881,0.46588817,-0.44386414,-0.23935871,-0.4470563,-0.10219021,-0.16459432,-0.24489461,0.1312362,0.22615455,-0.23940931,0.6111575,-0.1652714,0.13474129
IND121002AAB,-0.10042297,-0.17483827,0.08354675,-0.010478016,0.2416521,-0.5068397,-0.75510377,0.6015101,-0.8659614,-0.43819687,0.029223235,-0.20616288,0.15552734,-0.046243206,-0.3576051,-0.53181624,-0.34373406,-0.65081894,-0.3431329,0.6111433,-0.3401118,-0.36155266,-0.3142568,-0.12132229,-0.071296915,-0.25528747,0.11247828,0.19780636,-0.33482736,0.3681997,-0.11410884,0.09988993
IND121004AAB,-0.74142975,-0.58669245,1.3070916,-0.29908654,0.3016336,-0.19637853,-0.26498047,1.2539907,-0.86290324,-0.11671623,-0.57362485,0.35522467,0.19384786,-0.49337152,-0.6094245,-0.16570343,0.3275303,-0.5815392,-0.06297234,0.497266,-0.08643237,-0.22689508,-0.48784876,0.13637888,0.117343456,-0.57818377,0.25373977,0.0057845004,-0.3561148,0.84730476,-0.153568,0.075434126
IND122001AAA,-0.49624783,-0.37153903,0.282448,0.00014794813,0.51311773,-0.7794556,-0.26356322,0.7296766,-0.97977287,0.1460505,0.027276253,-0.5829657,-0.07309346,0.4968225,-0.27273875,-0.41223082,-0.16347684,-0.78815967,-0.59579873,1.0989144,-0.40192854,0.15749547,-0.27347925,-0.04696095,0.012588523,-0.24298154,-0.6217435,-0.10620842,-0.35374647,0.44839886,-0.24187425,0.4122325
IND122015AAC,-0.2028933,0.7045951,0.31806147,-0.12397678,0.29250082,-0.3511426,0.059507847,0.5103566,-0.73399055,0.2500418,-0.2795193,-0.30608255,-0.06127775,0.27944803,-0.5043223,-0.5156984,-0.59112656,-0.87379116,-0.3091271,0.60861766,-0.1411961,0.097309224,-0.9606029,0.007603297,-0.7750366,-0.3567013,-0.3721073,0.7187075,-0.18797833,0.9752291,-0.09335812,0.7336997
IND124103AAA,-0.28796673,0.19305898,-0.011315626,0.023325853,0.4275211,-0.23483557,-0.87790537,0.71357363,-1.0126716,-0.18760456,0.012154575,-0.13105801,0.4589905,0.033445567,-0.7602769,-0.50051177,-0.38717464,-0.75178343,-0.7498953,0.71115863,-0.38285378,0.24334383,-0.63244545,-0.06684542,-0.33040392,-0.039496996,0.015764527,0.29377228,-0.3570552,0.7025896,-0.104006395,0.36699083
IND124112AAA,-0.22426425,-0.10226548,-0.476028,0.24523377,0.11029919,-0.6709368,-0.3640397,0.7449116,-1.0487854,-0.16427594,-0.44426653,-0.18562791,-0.60816836,0.14993972,-0.7126728,-0.48947948,-0.3585228,-0.39934108,-0.10280465,0.66862535,-0.6959678,-0.20183253,-0.22357677,-0.11728755,-0.38200933,-0.46497256,-0.09083005,0.09972253,-0.08770366,1.1346356,0.27925217,0.69548345
IND125001AAA,-0.25795558,-0.3033323,-0.038292363,-0.389088,-0.0069009615,-0.23680039,-0.38178888,0.9531469,-0.65111554,0.060460128,-0.152072,0.07111342,-0.4563892,-0.05793253,-0.5889121,-0.34733668,-0.18733335,-0.07394385,-0.031741314,0.5166714,-0.20524439,-0.67261624,-0.28681523,-0.2196783,-0.62418735,-0.84792656,-0.05380909,0.011514382,-0.33091512,1.1989782,-0.16639498,0.43485934
IND125005AAA,-0.36123785,-0.07966999,-0.3758444,-0.08753144,0.10316074,-0.35769078,-0.56209296,0.81038487,-1.0071472,-0.23307721,-0.1530713,0.15406643,-0.89461046,0.020015746,-0.89778084,-0.63501185,-0.19565876,-0.078820765,-0.059952613,0.6708078,-0.5502857,-0.2947431,-0.20383334,-0.6744332,-0.09546389,-0.62383586,-0.37885362,-0.28333917,-0.27636936,1.1265383,-0.03203973,0.54463804
IND125033AAA,0.06186821,0.5339815,-0.09584347,0.045805495,0.28728613,-0.59965134,0.12152117,0.6809124,-0.8844759,0.16904454,-0.56666356,-0.31502673,-0.24321748,0.3596765,-0.6195286,-0.51702344,-0.5888856,-0.82256573,-0.16302782,0.59709656,-0.28005278,-0.071957596,-0.85033405,0.22320217,-0.8772658,-0.5685134,-0.24628043,0.68784237,-0.10210384,1.1576095,-0.015514411,0.90766114
IND127021AAA,-0.26197013,0.10134465,0.01956601,-0.025603214,0.3991327,-0.31422445,-0.9564023,0.6640593,-1.0046004,-0.3321172,0.053922534,-0.17948201,0.45518672,-0.029692309,-0.6665266,-0.4541545,-0.33113486,-0.74238515,-0.61299133,0.73465526,-0.366186,0.11620145,-0.5519651,-0.19877951,-0.19954279,-0.049604896,0.054536965,0.18461539,-0.4027335,0.5957022,-0.21046409,0.35329646
IND131028AAB,-0.74224466,-0.5084955,0.58516353,-0.070067994,0.7062049,-0.09138401,0.009963229,0.2985236,-0.7115464,-0.48992944,-0.28459924,0.18961753,0.02651701,0.45677236,-0.2620115,-0.958862,-0.25346586,0.6070584,0.027299516,0.71021944,-0.07086973,-0.086927466,0.20737529,0.42912656,-0.6110914,0.020951109,0.28749922,0.27204108,-0.5137713,1.1753455,-0.4172105,0.12585959
IND201007AAA,-0.7191432,-0.41140452,0.4393789,-0.7953057,0.61943674,0.31264958,0.08485679,0.74386686,-0.963503,1.2203534,-0.813575,0.3837009,0.6041745,0.62401515,-1.1741999,-1.5203998,-1.1917108,-0.05322264,-1.2583251,0.53711545,0.40408033,-1.3255743,-0.92350715,0.14394428,-0.36261266,-0.44600686,-0.4365258,-0.44045085,0.191869,1.1543498,-0.68975383,-0.25215656
IND201301AAF,0.2984889,0.6406889,1.420877,-0.5067616,0.74906576,-0.7438389,0.45119518,0.45541343,-1.1768639,0.5337469,-0.24564968,0.303279,-0.5632858,-0.048413206,-0.9115835,-0.77180344,-0.27080137,-0.41717678,-0.7689088,0.15054195,-0.06987584,0.34600717,-0.4561728,-0.039634716,-1.886902,-0.9589218,0.19323918,0.56784177,0.75125974,1.2260983,-0.61565137,0.13278008
IND201301AAM,-0.16547865,-0.26537082,0.16959827,0.16376178,0.31317812,-0.40933633,-0.5574538,0.51619685,-0.82683754,-0.35949674,-0.029737392,-0.097391784,0.23013437,-0.09971755,-0.40642443,-0.30363068,-0.34786284,-0.6158592,-0.39566386,0.41422084,-0.42491797,-0.2074517,-0.3230192,-0.048974227,-0.15566216,-0.21824497,0.116155796,0.18519668,-0.37792623,0.6603156,-0.22216879,0.08633095
IND209304AAA,-0.5964477,-0.23726277,0.7601604,0.37329,0.25246918,-0.053673524,-0.679157,0.3011787,-0.7743113,0.567666,0.072617896,-0.7257823,-0.13128616,0.03541061,-0.45881474,-0.52310425,-0.36432225,-0.23690033,0.04329202,0.3340144,0.22218575,-0.42483345,-0.6669728,-0.013358812,-0.48902112,-0.6733209,0.78416675,-0.20942907,0.13416381,0.5761228,-0.15207832,0.664697
IND282002AAD,-0.20991287,-0.040846992,0.9646023,-0.30701452,-0.004699721,-0.36182886,-0.20204522,0.79748106,-0.8996175,-0.17072861,-0.1970951,-0.42807266,0.35683036,0.21544725,-0.044778686,-0.28210184,-0.74312234,0.13251695,-0.14209719,0.5350802,-0.18549606,-0.25905356,-0.48445812,0.217331,-0.34623277,-1.353438,0.08254092,-0.008425718,-0.28954896,1.0389583,-0.69670624,-0.3022856
IND301001AAB,0.5313349,0.044147566,0.15667048,0.0048688934,-0.079928406,-1.093187,-0.8801398,0.68688506,-0.8011633,0.55470854,-0.48339352,0.007288445,0.042986933,-0.39289472,0.08385368,-0.5754731,-0.30403176,0.22594523,-0.34346482,0.8290535,0.0842536,-0.18995449,-0.8510421,-0.44234014,-0.32530722,0.5427266,0.39066344,-0.4140854,-0.4998939,1.4850783,-0.5685216,-0.12780276
IND302014AAA,0.16170545,-0.16733369,0.52724093,-0.20086002,-0.155516,-0.6837456,-0.51853824,0.36903733,-0.58242524,0.59145516,-0.25829375,0.29578927,0.07195315,-0.8754235,0.2215974,-0.30254862,-0.39030635,-0.00981051,-0.70720047,0.73903453,-0.18748412,-0.046574928,-0.59099066,-0.34142834,-0.2109914,0.1405842,0.1742575,-0.36016297,-0.39193565,1.2953545,-0.2773361,-0.13688096
IND302022AAD,-0.2620593,-0.11456205,0.101016894,0.16657591,0.23727629,-0.520509,-0.6932451,0.64096975,-0.81063294,-0.2659025,-0.13913767,-0.20091581,0.20099798,-0.014533537,-0.23978013,-0.411061,-0.34014216,-0.55543625,-0.245175,0.42623597,-0.53093886,-0.17207637,-0.3906589,-0.1469511,-0.12554468,-0.055239666,0.0558751,0.19001122,-0.16867334,0.7577862,-0.24112183,0.20240153
IND328001AAA,-0.07777149,0.016237767,0.56599325,0.122436546,0.017949907,-0.52147067,-0.41871145,0.71619546,-0.8616336,-0.38226238,-0.27663726,-0.4798437,0.28247043,0.23253348,-0.10585258,-0.32436943,-0.65834045,-0.2819898,-0.12884039,0.73128027,-0.3682476,-0.23544003,-0.42691696,0.003701539,-0.2319392,-1.1477323,0.031380653,-0.116673976,-0.24663743,0.9292408,-0.610384,-0.4839048
IND382430AAB,0.20419556,-0.27139091,0.72792983,0.24927305,-0.42592752,-0.41506502,-0.6908483,0.050892536,0.0008815561,0.22618365,0.0141422115,0.7230004,0.5766212,0.16584814,-0.3246229,-1.0038295,0.05260403,-0.15373753,-0.30103192,1.1096374,-0.9426653,-0.0026023258,-0.6065975,-0.29780504,-0.079607196,-0.47035372,0.022500573,0.03820755,-0.13906345,0.8124748,0.2120477,0.49889264
IND390022AAA,0.10147904,-0.30820748,0.77854174,-0.08247819,-0.117820635,0.10338863,-0.8706545,0.08783881,-0.12775846,-0.22619751,0.2828977,1.0131918,0.477888,0.37393373,-0.23757033,-0.6094963,-0.13436645,-0.561806,-0.09479705,0.7638129,-0.8540629,-0.29042885,-0.55464464,-0.2838946,-0.101690285,-0.33081096,0.21705455,0.27023664,0.17108531,0.9276439,-0.16986616,0.6985729
IND421302AAG,0.03476749,-0.32779402,0.50903,0.017199388,-0.36882964,0.32943198,-0.1717647,0.22794391,-0.6599846,0.00048432196,0.25795484,0.5507002,-0.026161363,0.13837402,0.15335283,-0.8730819,-0.1275073,-0.24198444,0.31475398,0.67184955,-0.40180746,-0.046158276,-0.3754232,0.83538926,-0.4522461,-0.18695603,-0.19297524,-0.05639166,-0.008589649,0.2881083,-0.43568653,0.51036084
IND462022AAA,-0.24475974,0.40368566,0.28276923,0.40165964,-0.03629241,0.1758311,-0.036160488,0.15131018,-1.1274959,-0.12146759,0.20463924,-0.4522419,-0.21807924,0.14962949,0.13828611,-0.71492326,-0.17097458,-0.48707733,-0.04243026,1.2370636,0.12616575,-0.45379376,-0.7840436,-0.14610988,-0.19515401,-0.3499976,0.877596,-0.53634745,0.58863074,0.41983676,-0.051649597,0.3104223
IND474003AAA,-0.0472408,0.5517344,0.63914335,0.21200095,0.70998335,-0.5565929,-0.5465225,0.6480225,-0.8654729,-0.38901943,-0.34697965,-0.21669473,0.36838457,0.27638856,-0.34859252,0.25935614,-0.9048599,0.10233702,-0.09462173,0.9445305,-0.6659255,-0.33625308,-0.6434528,0.3881226,0.13902777,-0.8480429,-0.18177927,-0.26977855,-0.20394321,0.6181124,-0.7707052,0.115884215
IND501359AAE,0.52729094,-0.3076835,0.092594385,-0.33698678,0.11109387,0.6925963,0.08096737,0.5924697,-0.73065656,-0.08417618,-0.0006845354,-0.42381108,-0.3296377,0.12574606,0.084205896,-0.45708585,-0.49985102,-0.4934409,0.06588868,0.5147462,-0.77237105,0.11764453,-0.7808879,-0.13769533,-0.08967536,0.096265055,0.47286192,-0.23574094,0.07060059,-0.07335626,0.092963025,0.1019204
IND521225AAB,0.47927004,-0.46288192,0.72044027,-0.7930292,-0.0044620396,0.14893824,-0.014448559,0.29695928,-0.7660577,-0.19629434,-0.6721117,-0.8397462,0.2791154,0.17185141,-0.29233488,-0.5002707,-0.69751334,-0.4764363,0.11408055,0.94174194,-0.5887183,-0.089234605,-1.099595,-0.09425626,0.19986348,0.39499113,0.23735373,0.58087677,0.037601728,-0.2663745,-0.09852953,0.3177381
IND600056AAB,0.92870164,-0.61043054,0.18397744,0.29361564,0.9046699,0.49358007,0.11844758,0.2798256,-0.20190716,-0.52737015,0.09545166,-0.08797094,-0.36915657,-0.3492143,0.20530684,-0.37451974,-0.046942312,-0.5745839,-0.86026037,0.451617,-0.05521764,-0.3160044,-0.98191047,0.065345235,0.08217607,-0.27970412,0.33330914,-0.19319847,-0.5777696,0.20867567,-0.051129684,0.2600042
IND712311AAA,0.28639352,0.13280758,0.28895026,-0.4426084,0.06778523,0.04560002,-0.6699226,0.37529978,-0.45629498,0.13678367,-0.032836694,-0.49479806,-0.26361117,0.13660975,0.07586911,-0.8234709,0.08970489,-0.6926446,0.04971621,-0.5290269,-0.7868477,-0.20124963,-0.50639725,0.70674855,-0.23313488,-0.12349267,-0.16217148,-0.48419765,-0.23056807,0.34364602,-0.16502981,0.36668843
IND751002AAB,0.049892444,-0.03087499,0.050331056,-0.7508311,0.5329809,0.29400358,-0.3377219,0.10204115,-0.20734145,-0.37144864,0.06933537,-0.687241,-0.34649518,-0.2439226,0.32432213,-0.4622295,-0.29226178,-0.9519768,-0.34229732,-0.02677756,-0.90058357,0.09953007,-0.529887,0.41380268,-0.0009121275,0.06726454,0.1887659,-0.14774501,0.270962,0.8480155,-0.07451368,0.16585808
IND821115AAB,-0.6031444,-0.45634165,0.61692065,0.52439904,0.5780074,-0.6756383,-0.8749267,0.2215141,-0.8326826,0.27643517,-0.28868032,-0.28866225,-0.18704902,0.31206477,-0.17135946,-0.88152516,-0.7925566,-0.528895,-0.08565476,-0.49759942,-0.64006996,-0.3011196,-0.7626392,-0.25550306,-0.06836761,-0.26395285,0.40683106,-0.17871103,-0.27104577,0.4323149,-0.19312191,0.39871696
IND834002AAB,0.25697517,-0.23756352,0.23539491,0.760924,-0.07778143,-0.11197881,-0.07334379,0.24834858,-0.9864196,0.3396808,0.05970499,-0.45063606,0.1451655,-0.24270813,-0.67444587,-0.83365494,-0.0911886,-0.7856465,0.0061309296,0.029417159,-0.85534215,-0.46205336,-0.36976135,0.8398046,-0.27657598,-0.14393581,-0.33124194,-0.032142956,-0.3680258,0.7571837,-0.7888546,0.35856918
IND842001AAA,-0.3468965,0.31301224,0.19769333,0.82754564,0.84699523,0.4190121,-0.9657705,0.7047811,-0.7063201,0.44309944,-1.0834197,-0.79780215,-0.2655309,-0.4521782,-0.21608774,-1.70524,0.1378992,-0.05723669,-0.15063995,0.86483175,0.01611184,-0.51494205,-0.73603183,-0.47962865,0.6556729,-0.56831366,-0.52734107,0.9443927,-0.09458091,0.8630972,-0.18847401,-0.2554607
IND000000ACK,0.8412669,-0.39473283,1.1017094,-0.27901584,1.7275099,-0.06365093,-0.74890447,-0.19922669,-0.22448166,0.26352602,-0.81593907,0.75309134,0.09977032,0.33158043,0.20204331,-1.0433568,0.885279,1.5179663,-0.21247602,0.3086522,-0.3638938,0.0970699,0.27021143,0.04923027,0.46992064,-0.0134010445,-0.28106877,-0.11841653,-0.25243342,0.593035,-0.13444707,0.9395596
IND000000ACN,1.0470464,-0.48753598,1.5045844,-0.21883902,2.4082851,0.12432927,-0.94967574,-0.2578324,0.018231098,0.21180683,-0.821122,0.77450204,0.18306923,0.5942694,0.2446199,-1.3584424,1.1632653,1.7118471,-0.11927674,0.49016047,-0.33313495,0.23352604,0.51805085,0.38121247,0.9837551,-0.13412562,-0.3841036,-0.17438602,-0.615877,0.8302274,-0.3257609,1.3510214
IND000000ACT,-0.54873973,-0.8055884,0.26188606,-0.027600955,0.75311095,-0.7353852,-0.63086265,0.065653846,-0.7426562,-0.76018703,0.010808038,-0.08604281,0.558752,0.26238766,-0.35539597,-0.4565011,0.078965686,0.08228449,-0.39897653,0.7065469,-0.5413645,0.35801587,-0.24981622,0.17978452,-0.4299227,-0.25009853,0.36517236,0.33673564,-0.76771784,0.8147371,-0.36593086,-0.25910303
IND000000ADV,0.72402674,-0.16458808,0.24946259,-0.27344033,1.5506942,0.14940593,-0.3322827,-0.46184048,-0.37972912,0.45382136,-0.48230937,-0.5354435,-0.46605128,-0.0731355,-0.30287376,-1.2477211,0.51786107,1.7851161,-0.41240242,0.5386921,-0.20557755,0.04183089,0.05387423,-0.15563743,0.3269089,-0.87761444,-0.23981372,-0.3127006,-0.95338374,0.06423014,-0.16605626,1.0570061
IND600044AAC,0.8718078,-0.37358615,0.72654015,-0.19886993,2.0176003,0.6144988,0.028390322,-0.785069,-0.8276919,0.36852598,-0.9379051,-0.16317116,0.26280326,0.103738256,-0.60958594,-1.0008515,1.2161112,1.2547325,-0.207425,1.3700571,-2.1757102,-0.043726016,-0.6048877,1.0848254,0.86080366,-0.34244,-1.1528381,0.011162572,-1.0900533,-0.620399,1.2864345,-0.16423897
IND000000AEM,1.0262436,-0.19710837,0.52040255,0.012040844,1.5142229,0.08557299,0.119662195,-0.4466299,-0.6750209,1.0988506,-0.6682449,-0.5091207,0.0709145,0.10669387,-1.0692285,-0.6500196,0.27110475,1.506722,0.19038875,0.09261207,-0.91455144,0.7095348,-0.4918244,-0.6434897,-0.18301742,0.61235523,0.37720948,-0.43846777,-0.5595522,0.20667727,0.3605581,0.05754547
IND110037AAB,0.9260412,-0.44894832,0.74849087,-0.042903014,1.0825831,0.20978262,-0.2216256,-0.5269821,-0.26441103,0.74449646,-0.3325011,-0.2592898,-0.30969426,-0.007223975,-0.8728082,-0.98315203,0.2444389,1.2760204,0.16758947,0.15443893,-0.30930632,0.21066988,0.058172543,-0.6847189,-0.15191586,-0.11808573,0.21737412,-0.340065,-0.5795162,0.14799228,0.3272969,0.2900173
IND110064AAB,0.8863075,-0.5105397,0.6886069,-0.012214633,1.0823232,0.13597822,-0.2749597,-0.48168918,-0.28410766,0.70496404,-0.4085161,-0.34901285,-0.35673624,-0.025457276,-0.82582027,-0.9744182,0.19840664,1.2650046,0.08964528,0.19768927,-0.27251104,0.111135185,0.08443696,-0.73049515,-0.03936347,-0.1174298,0.24143578,-0.35105544,-0.61613655,0.124617964,0.24504805,0.24066468
IND000000AET,1.3440545,0.49443963,1.56958,0.60802984,1.6458646,0.85945916,0.35167992,-1.0521129,-2.347466,0.4942763,0.2862938,-0.07153826,0.489138,-0.30138898,-0.11999561,-1.7404824,1.0245489,1.0135039,-0.6312023,0.6716499,-0.39685646,-0.035500273,0.40264115,-1.0815548,-0.386239,-0.60486865,-0.751778,-0.898473,-0.76400095,-0.083723605,-1.015577,0.61257523
IND000000AFJ,1.0962397,-0.7090777,0.39147678,0.8383847,1.0742874,-0.024559021,-0.4604332,-0.29086104,-1.0383707,0.6356795,-0.1869343,-0.40984654,-0.32681316,-0.84277457,-0.73796135,-1.6361458,0.17708537,1.676043,-0.17759423,0.15085648,-1.5313684,0.32973304,-1.0294592,-0.23565389,-0.07351757,-0.11103865,0.7702744,0.2023425,-1.8787943,0.11089581,0.6968101,-0.4998224
IND695121AAA,1.2502493,-0.77377194,0.39222786,0.9531153,1.231039,-0.07615381,-0.49325275,-0.30064976,-1.1683962,0.7758803,-0.3038236,-0.43062565,-0.3557538,-0.93305886,-0.7640924,-1.7647463,0.17885922,1.842603,-0.16950718,0.30495256,-1.7158328,0.45452708,-1.3011205,-0.19792078,-0.030029755,-0.29966727,1.0515993,0.4155812,-1.9580723,0.15026054,0.85116327,-0.55247885
IND000000AFR,0.20432599,-0.9053795,-0.16669801,-0.61095715,1.6370844,-0.15924855,0.061257247,-1.0635569,-0.47571516,-0.095891416,-0.80053276,0.8126828,-0.12841758,-0.65609443,0.48138377,-0.41679215,-0.22278515,-0.77867943,0.19723843,0.6961735,-0.3300128,-0.86274356,-0.639983,0.5277318,0.3073091,-0.02073338,0.09441238,-1.4085726,0.089370675,1.0022508,-0.61852753,0.7012927
IND683511AAA,0.33986104,-0.258391,0.038949933,-0.5257695,0.8954329,0.2813066,-0.031446896,-1.0623719,-0.08141467,-0.11152592,-0.70843476,0.40320018,-0.41181603,0.09545367,0.722813,-0.14900988,-0.20832984,-0.39854425,-0.25737178,0.7486528,-0.064640574,-0.58457905,-0.64465106,0.18218258,0.027418097,-0.17873263,0.2764935,-1.1613028,-0.025275076,0.79481363,-0.577489,0.7173811
IND000000AFT,0.36169988,-0.71514076,0.8224693,0.00086806616,-0.67592615,0.31141818,-0.41420174,0.25530317,-0.6043267,-0.27295268,-0.13012013,0.74367636,-0.67712986,-0.033835605,0.19070469,-1.1072892,-0.13242683,-0.44316518,0.60811114,0.7156212,-0.33575848,0.17938739,-0.36538827,0.62667215,-0.64789045,-0.19268143,-0.54181343,-0.3481333,-0.5703146,0.26906982,-0.7819954,0.58029366
IND400072AAB,0.3505665,-0.5931639,0.46911204,0.050173044,-0.57503897,0.4754522,-0.4931586,0.2337577,-0.9234629,-0.08794988,-0.21358132,0.8162602,-0.4520963,0.09143427,0.31689194,-1.0507959,-0.20521572,-0.17285909,0.4117352,0.6643485,-0.3038635,-0.23284952,-0.31056792,0.5242907,-0.32082874,0.10178319,-0.26592258,-0.10559082,-0.08465303,0.08012097,-0.8300491,0.6496933
IND410209AAA,0.6264157,-0.31641576,1.1204098,0.1963676,-0.78199273,0.8208272,-0.55874527,0.66366816,-0.5494403,-0.17480479,-0.71896,0.9624671,-0.8899696,-0.20181087,0.5275368,-1.4194262,-0.47314072,-0.8814997,0.3312768,0.6342808,-0.34800035,0.16172148,-0.6542586,0.6852325,-1.3712829,-0.28215235,-0.69533795,0.03633997,-0.75680345,0.69231474,-0.41658077,0.93420786
IND410210AAA,0.45922834,-0.35185206,1.0962294,-0.28902125,-0.83047134,0.5070671,-0.21513437,0.51172084,-0.49825552,-0.18091774,-0.6381796,0.7783785,-1.0282669,0.3672274,0.5551042,-1.4520146,-0.13560878,-0.70028013,0.34594575,0.87086517,-0.2398411,0.23279501,-0.6442381,0.44634068,-1.2412646,-0.3551751,-1.1000361,0.0043938393,-0.84506565,0.5395085,-0.80246377,0.7566375
IND110014AAA,-0.4403281,0.55133384,1.2263281,-0.25465497,-0.060271695,0.72360986,-0.23841436,0.7917211,-2.4625478,1.2162992,-0.53124666,-0.5861169,0.7075458,0.84134734,0.3607081,0.030162588,-0.32302153,0.06047294,-0.13134745,0.4324869,-0.2239873,-0.60664386,-0.6240057,-0.61099595,-0.81053686,-0.34674484,-0.21508282,0.84005624,-1.2232597,2.008225,0.092951775,1.2570359
IND110020AAB,-0.481208,-0.5702462,0.9058172,-0.5784824,0.13842086,-0.0068068122,-0.27536094,0.7539598,-0.8398497,0.306796,0.06856888,0.19617401,0.22142653,-0.14129703,-0.003758612,-0.3044555,-0.06645286,0.19545475,-0.17324573,0.31388482,0.2523518,-0.45814556,-0.30830985,0.2521435,-0.7874646,-0.6991331,0.35428077,0.030731048,-0.2816218,0.90122133,-0.46689832,0.23187904
IND110037AAM,-0.5204942,-0.42104426,0.8529725,-0.49874577,0.06075317,-0.06739504,-0.3028583,0.63879436,-0.7894208,0.32293102,-0.061170716,0.19897847,0.1767385,-0.07830623,-0.15474528,-0.2756421,-0.124508545,0.07518076,-0.14357044,0.348048,0.12670535,-0.41726747,-0.12542021,0.22950096,-0.6251565,-0.6862641,0.29019356,0.055265665,-0.2911538,0.9736301,-0.4530615,0.16587897
IND110035AAC,-0.26018423,0.05139779,1.1709511,-0.95470715,0.0636397,-0.39259067,0.32487378,0.3782845,-0.5622912,1.1086093,-0.4192654,0.17373739,-0.0865162,0.43221992,-0.04568485,-0.2653601,-0.295219,-0.17446002,0.18219888,0.28761655,0.6450918,-0.32667074,-1.095767,0.5669346,-1.2950895,-0.8541159,0.010094056,0.49213448,-0.36020914,1.462343,-0.19057532,0.60217315
IND201001AAC,-0.342048,0.26727575,1.2508672,-0.84620976,0.1873756,-0.12910257,-0.025572708,0.48921886,-0.41970238,0.7063403,-0.3469757,0.24525295,-0.11392703,0.2470061,0.055283647,-0.41357177,-0.3420911,0.05697011,0.075663306,0.23949848,0.80925107,-0.48080033,-1.31268,0.6734443,-1.2647372,-0.7982099,0.017554477,0.72920823,-0.20605633,1.586125,-0.42044124,0.52317363
IND201301AAD,-0.70404214,-0.36411038,0.8019312,-0.56661713,0.2452231,-0.0406039,-0.3200837,0.7505739,-0.8444345,0.2955346,-0.04442306,0.3518344,0.1364023,-0.23349208,0.045604296,-0.3511,-0.053295646,0.20267648,-0.13594867,0.30926895,0.102090254,-0.3330317,-0.14272502,0.25229836,-0.58415353,-0.80701137,0.36469,0.022475373,-0.23280679,0.9558015,-0.5337045,0.2743897
IND202001AAB,-0.48369828,-0.33345407,1.2982804,-0.7984058,0.092062235,-0.3554674,-0.18018337,0.80967766,-0.83698004,0.21752726,-0.14654763,0.042618275,0.22485977,-0.026641617,0.087412305,-0.31485623,-0.42463517,0.7485499,-0.093440026,0.54803634,0.060827773,-0.42364946,-0.3063981,0.048892185,-0.50924784,-1.2852792,0.17439051,-0.13208091,-0.5293649,0.5377928,-0.79864234,0.21972564
IND226004AAC,-0.17838456,0.12492092,1.352987,-1.001113,0.12274051,-0.3837284,0.19704586,0.43868044,-0.4175504,0.9100768,-0.3113325,0.06858784,-0.010172318,0.47460994,-0.12085121,-0.25237712,-0.3543791,-0.021102402,0.055837657,0.19436947,0.6374557,-0.24958473,-1.0172937,0.4847581,-1.2122651,-0.71465456,0.082572155,0.5929482,-0.41055968,1.5062997,-0.51225907,0.61803913
IND282001AAA,-0.5126765,-0.47978914,0.59007746,-0.20211999,0.2456487,-0.20482883,-0.65053356,0.6610212,-0.76147366,0.31203058,0.02847268,-0.22936888,0.16957319,-0.16154261,-0.19627632,-0.4525484,-0.19535936,-0.21502231,-0.01738927,0.2664658,0.17130312,-0.2758976,-0.38505426,0.14235128,-0.41336694,-0.66970193,0.4396917,0.1283955,-0.07175086,0.656795,-0.22116525,0.34960267
IND282001AAC,-0.33067033,-0.2879439,0.39231312,-0.49371576,0.40552083,-0.28078642,-0.49878138,0.77470297,-0.64038694,-0.19678123,0.029717356,-0.025238708,0.27468997,-0.3572663,-0.048888277,-0.41425338,-0.16144113,-0.3694788,-0.08063042,0.49883407,-0.0031318641,-0.3293716,-0.3872523,0.16123216,-0.3192106,-0.59363353,0.20979328,0.39984718,-0.3073036,0.62341315,-0.30487114,0.2112221
IND811399AAA,-0.3769257,-0.51745254,0.72181857,-0.5131261,0.364806,-0.13593446,-0.6525959,0.5468029,-0.5508689,0.41175112,-0.14491317,0.021143468,0.36166272,-0.16965002,-0.4832626,-0.5128731,-0.16797146,0.15244178,-0.29256287,0.42726305,0.4849574,-0.6753339,-0.33391824,0.074405715,-0.79932076,-0.64288044,0.66704845,0.15342174,0.12420835,0.65939,-0.6680453,0.25215778
IND110039AAA,-0.20813899,-0.21532668,-0.05012,-0.39456987,0.6823322,-0.7745097,-0.14491773,1.2255965,-0.7466684,0.51542413,-0.5255393,0.18644217,-0.04988481,-0.17249312,0.27056098,-0.7916413,-0.27545178,-0.48928398,-0.42220697,0.99664766,-0.4177966,-0.275017,0.053682417,0.5360987,-0.27371943,-0.862084,0.5802571,0.6322323,-0.9178539,0.42794538,-0.3529659,0.3211223
IND110078AAA,0.030604577,0.12129436,0.58094114,0.045399975,0.17871054,-0.60750943,-0.98146206,0.3546484,-1.1010022,-0.5193249,0.32740125,-0.0918386,-0.29272702,-0.1857623,-0.7076497,-0.59023434,-0.6050341,-0.75824386,-0.29673398,0.8142432,-0.41665053,-0.4588168,-0.11507475,-0.003920193,0.15272251,-0.10604874,0.046014816,0.37894702,-0.53265375,0.47038263,-0.20241381,-0.20729947
IND110044AAB,-0.22984149,-0.79227805,0.4810248,-0.73852366,0.5148292,-0.16077289,-0.7296216,0.7302656,-0.76450765,-0.01968181,-0.20700002,0.33539867,0.6987308,-0.29762217,-0.6388749,-0.7227665,-0.14739932,0.05336903,-0.5398541,0.40646362,0.3001086,-0.46638495,-0.10676797,-0.017362252,-0.6996569,-0.57755643,0.45084122,0.3274598,0.0670791,0.55392694,-0.68238753,-0.049599484
IND110083AAA,-0.18705447,0.485644,0.03227576,-0.7067042,0.61633325,-0.6424363,0.095864266,1.1906469,-0.7154168,0.9092715,-0.6367983,0.1255188,-0.18470308,0.32403097,0.138379,-0.93826014,-0.5773962,-0.54939264,-0.41788295,0.7945347,0.12125683,-0.15876675,-0.7215724,0.68374693,-1.0381707,-1.1852505,0.36835623,0.9965858,-0.6704695,0.9877794,-0.16586177,0.8365725
IND110087AAA,-0.05209933,0.3403323,0.27395692,-0.6496727,0.5408259,-0.6063025,-0.26096007,1.215677,-0.67666954,0.8247849,-0.63888997,0.21369219,-0.18260185,0.055566415,0.09564797,-0.94311327,-0.6585111,-0.5953699,-0.41739458,1.0274915,0.35244036,-0.02474992,-0.46670714,0.8769763,-0.7262689,-1.0891659,0.09720672,0.8797644,-0.75321054,0.57125086,-0.518954,0.6287211
IND121001AAA,-0.830777,-0.71892947,1.4806471,-0.41288117,0.44397163,-0.21279824,-0.27536973,1.3163253,-0.9251673,-0.38744447,-0.5299293,0.27955225,0.09019619,-0.70930684,-0.4550144,-0.23719865,0.39132097,-0.567501,-0.14172861,0.51852655,-0.08547574,-0.29855955,-0.5233459,0.15825216,0.11262201,-0.6032888,0.117767915,-0.07139797,-0.3455815,0.7591392,-0.13193473,0.1550797
IND121004AAA,-0.85478896,-0.51719534,1.3765761,-0.38734382,0.21436937,-0.22973284,-0.14678241,1.3034449,-0.9923186,-0.19122097,-0.6226195,0.26390818,0.17708586,-0.6139054,-0.5862407,-0.26657653,0.4681826,-0.59490484,-0.04036289,0.49794373,-0.059059992,-0.15704256,-0.5172557,0.19741012,0.16510946,-0.5967015,0.25008553,-0.12442182,-0.48023376,0.85797334,-0.080889195,0.029486092
IND121004AAC,-0.89562535,-0.6704408,1.4182161,-0.34140518,0.37345442,-0.15006208,-0.22574401,1.1570026,-0.8703718,-0.1305512,-0.5617521,0.38877964,0.10728943,-0.58055776,-0.609638,-0.20037873,0.29363117,-0.72316647,-0.06252758,0.49415565,-0.05901506,-0.3165313,-0.5180836,0.24512133,0.2856178,-0.5569637,0.29723096,-0.0680975,-0.50318164,0.8163428,-0.07827457,0.044818457
IND121102AAA,-0.7957618,-0.68248224,1.3930708,-0.35549167,0.33559427,-0.20885773,-0.2726785,1.3742037,-0.8385541,-0.1364664,-0.5987984,0.26861832,0.06086298,-0.5245546,-0.64997876,-0.17656045,0.46269786,-0.57126,-0.023278892,0.5002607,-0.040188584,-0.27309796,-0.5648365,0.15668836,0.28526235,-0.5762807,0.3296894,-0.06159041,-0.33726856,0.8930421,-0.04997362,0.13840066
IND122001AAD,-0.42011866,-0.21050946,0.47096837,-0.12961008,0.7077077,-1.0030359,-0.004433493,0.78132766,-0.94389164,0.6061919,0.029047787,-0.72220653,-0.35927725,0.8820301,-0.38473287,-0.6908632,-0.18267776,-1.0937649,-0.56231755,1.4300956,-0.08591605,0.31684998,-0.88889873,0.06538454,-0.3025758,-0.5509906,-1.1765459,0.117435485,-0.53891164,0.43245205,-0.35689062,0.7981208
IND122050AAA,-0.3826787,-0.31401542,0.5009683,-0.14741307,0.7618766,-1.0726784,-0.035155345,0.8334094,-0.99334836,0.58588564,-0.0036055802,-0.7657539,-0.3204322,0.90922827,-0.33600166,-0.69457424,-0.17326488,-1.1275932,-0.6411106,1.5879412,-0.11969224,0.29795498,-0.9254842,0.07964941,-0.33076045,-0.5758163,-1.2488186,0.111688666,-0.5471596,0.5124788,-0.36894855,0.97234386
IND122001AAJ,1.2419285,0.36149397,0.313864,-0.48764914,0.63183075,0.81618035,0.14983347,0.22842987,-1.3296033,-0.3189007,-0.19493787,-0.25784898,-0.3642955,0.4470033,-0.98008245,-0.55145204,-1.3806448,0.18118827,-0.23946236,0.28256994,-1.0916158,-0.01585736,-1.043903,0.26577893,-0.39529476,0.8362257,0.86637926,-0.59071404,0.36564296,0.5100681,0.46747446,0.202904
IND507123AAA,1.112882,0.2412965,0.24400304,-0.5370959,0.60981935,0.82027954,0.05144177,0.29206276,-1.452323,-0.43455514,-0.014927876,-0.109606,-0.2993911,0.39379695,-1.0003015,-0.45562124,-1.3091228,0.20138386,-0.020606859,0.20450404,-1.074571,0.042378433,-1.0116607,0.2610963,-0.24108297,0.73679614,0.9466611,-0.7647719,0.42266652,0.5130475,0.47607324,0.15561704
IND122002AAD,-0.9131549,-0.8415655,0.16842078,-0.44314632,0.84585404,-1.2090069,-0.58552855,1.2746731,-1.0180892,-0.09583945,-0.06106241,-1.1258012,-0.13389228,0.4716006,-0.24567051,-0.80579007,0.39754966,-0.26596606,-0.87934893,1.5500236,-0.88593554,0.268581,-0.3506883,-0.38559684,0.60145074,-0.34153894,-0.5442906,-0.69064903,-0.08328286,0.31904963,-0.036162294,0.0016042766
IND122503AAA,-0.9060419,-1.0430249,0.21092899,-0.22555749,0.9184583,-1.2344259,-0.67002654,1.390553,-1.0937569,0.049725104,0.048620246,-0.91702974,0.0075115263,0.37235638,0.007932648,-0.5541135,0.32080698,-0.428846,-0.8538975,1.7737411,-1.2252275,0.3476073,-0.14415024,-0.30934447,0.48498002,-0.2332394,-0.35008073,-0.67492807,-0.04189195,0.32904786,0.013859155,-0.045913145
IND122004AAA,0.4860833,-0.47990796,0.7785357,-0.19951163,1.8184295,0.52500373,-0.5526942,-0.7477581,-0.5378232,1.1423181,-0.58077294,-0.17054461,0.24690504,-0.07625488,0.6383395,-1.2855308,-0.085155495,1.2775626,0.36964387,0.33932054,-0.5325471,0.08451823,0.46180567,-0.65453607,0.7085333,-0.1859415,-0.6790663,-0.63413405,-0.1911079,0.350564,0.07156101,0.15299363
IND122413AAE,1.0664796,-0.48689216,0.78896654,1.1752379,1.5091411,-0.37585342,-0.19216986,-0.51211876,-0.6541285,0.1880177,-0.953623,0.18938039,-0.46159038,0.59442973,-0.46119466,-1.1340822,-0.048839115,1.1735674,0.40179244,0.5118481,-0.8323964,0.056905035,0.4506464,0.18305618,-0.15199044,0.060191587,0.59626275,-0.7197054,-0.66115445,0.30145583,0.3007844,0.20861593
IND123001AAA,0.9023361,-0.3833365,0.5924446,-0.31202385,1.4240843,0.6121951,-0.3743726,-0.62707597,-0.4821103,0.77540815,-0.72879845,0.5953669,-1.5495262,-1.702095,0.122458145,-1.5964183,0.52424544,1.8762416,-0.29562387,1.3756418,-1.128977,0.033369984,0.6539989,-0.1310688,-0.123486616,-0.1472534,-0.25594196,-0.33697602,-0.81796724,0.33397418,-0.13503051,0.7724089
IND123401AAB,1.1910143,-0.6446699,0.50729823,-0.24491283,1.4973031,0.6233416,-0.2573774,-0.439319,-0.45449498,0.8306481,-0.6035487,0.4498088,-1.6770319,-1.8642259,0.119446464,-1.8556548,0.4779799,1.9350629,-0.28505856,1.5581577,-1.1763645,0.07472516,0.68449897,-0.23428383,-0.09450406,-0.16616672,-0.2062,-0.2692485,-0.9066416,0.32505596,0.0004919991,0.75714666
IND123106AAB,0.7468443,-0.33490872,0.7107128,-0.3166317,1.5990576,0.60045826,-0.46665743,-0.7548009,-0.6344385,0.9400185,-0.57075346,0.514891,-1.4287155,-1.861964,0.22352336,-1.503795,0.58149755,2.2382221,-0.47478902,1.354112,-1.1504494,-0.22115433,0.5276718,-0.121285014,-0.07290437,-0.25964135,-0.44135845,-0.36932907,-1.0092982,0.31878275,-0.20678858,0.9850816
IND124001AAB,0.12839885,-0.7122779,1.0598576,-0.35937697,1.1375793,0.0063459952,-0.06500012,0.32430968,-0.28186956,-0.07308048,-0.36300787,-0.23976636,-0.3786714,1.170479,-0.97324866,-0.82936597,-0.5326911,0.53655225,0.4554591,1.3190496,0.31189725,-0.20290932,-0.012037004,0.73713833,-1.414932,0.3431385,-0.57748306,0.525921,-0.3714087,1.5855575,-0.85721934,0.33566928
IND126102AAA,-0.056350883,-0.8828803,1.063047,-0.5033612,1.331893,0.027581804,-0.3334002,0.2983532,-0.47628495,-0.1873776,-0.34931237,-0.27115133,-0.09790553,1.3844013,-0.45457295,-0.7019916,-0.5719225,0.7097982,0.8282577,1.0889844,0.42939758,-0.5849601,-0.493966,0.7918318,-1.1103495,0.58807176,-0.6770871,0.6836236,-0.57218736,1.5825825,-0.64998007,0.49838313
IND124141AAA,-0.18192524,-0.07505593,-0.050287277,-0.13370612,0.4447406,-0.3612925,-1.0517516,0.6667501,-1.0172352,-0.5045471,0.1845425,-0.06663418,0.5703128,-0.13840447,-0.5519753,-0.4774672,-0.2424777,-0.6777238,-0.4814544,0.70990235,-0.44470644,0.042045075,-0.4637228,-0.2005135,0.03795552,-0.072801135,0.16594803,0.08186683,-0.361361,0.4434495,-0.2639329,0.24056421
IND124507AAA,-0.76246643,-0.6140418,0.6832015,-0.09414516,0.8780962,-0.09068424,-0.10813427,0.17912742,-0.8569432,-0.5356088,-0.11994276,0.114502795,0.039495643,0.29805356,-0.23348041,-0.9785871,-0.28417704,0.64135283,-0.03174234,0.9191135,-0.002044278,0.10303655,0.23247355,0.5821304,-0.59247476,0.059336852,0.119743004,0.35747084,-0.640802,1.1602129,-0.22700448,0.1618428
IND125047AAB,-0.35490662,0.24101965,-0.5436275,-0.4002154,0.07433742,-0.42320392,-0.114675656,1.1351447,-1.071246,0.2968041,-0.48067692,0.42160627,-1.3058507,0.29042777,-1.0903565,-0.7232775,-0.45628348,0.25758275,-0.3804018,0.65526783,-0.39585456,-0.6139106,-0.83419615,-0.18931843,-0.6748457,-1.1166143,-0.25028005,0.25709543,-0.0056131445,1.5684079,0.21755649,1.0813489
IND335513AAA,-0.02349557,-0.36060682,0.08146164,-0.7751762,0.7593698,-0.11892443,-0.8122599,0.7346917,-1.2981877,0.10605654,0.19475265,0.31192875,-1.2136621,0.11276736,-1.246656,-0.60451007,-0.029302701,0.45030132,0.21024124,0.5650935,-0.5471359,-0.4133636,-0.31282413,-1.3832102,0.020237057,-0.9332209,-0.9224894,-0.23635636,-0.38130984,1.4366459,-0.33044598,0.9950777
IND335523AAB,-0.13302349,0.25617296,-0.3324525,-0.78410846,0.43527725,-0.45616403,-0.020884015,1.1001908,-0.89945287,0.35956472,-0.28774,0.12890899,-0.9023107,0.17926757,-0.8940733,-0.5748081,-0.28652075,-0.30113512,0.33830714,0.6753631,-0.091064766,-0.25522712,-0.99024844,-0.39162117,-0.94789445,-0.89583373,-0.6177234,0.5769458,-0.3697294,1.5361514,-0.14061402,1.1847701
IND335524AAA,-0.017408634,0.35791498,-0.27289736,-0.9563278,0.3850318,-0.50296706,0.0039200704,1.0518116,-0.95416313,0.37475908,-0.35703337,0.082817614,-0.55979985,0.38881257,-0.9052685,-0.64679956,-0.21861126,-0.2972992,0.36743107,0.51245433,-0.039609518,-0.17733209,-0.8821254,-0.40973145,-0.7597747,-1.018157,-0.7263247,0.4202691,-0.41673777,1.1977992,-0.2353041,1.1335645
IND125051AAA,-0.22891031,0.17145029,-0.51672864,-0.50537765,0.12740578,-0.4937266,-0.18514119,1.2335432,-1.0801562,0.4707173,-0.27213308,0.42125198,-1.5146881,0.42548025,-1.235367,-0.7501303,-0.53693956,0.17224093,-0.36121085,0.9027679,-0.3739115,-0.74661803,-0.9100093,-0.03735006,-0.7228049,-1.0716583,-0.37152675,0.3729625,-0.07802549,1.7040902,0.34143257,1.0925786
IND125104AAA,-0.6425128,-0.36104375,-0.18407583,-0.94653356,0.5351912,-0.27772287,-1.339446,0.90310466,-1.4824291,-0.22032377,0.26617137,0.47407734,-1.0809947,-0.1258841,-0.9055209,-0.8925904,-0.16193606,0.14274263,0.4725738,0.9191869,-0.88024276,-0.28239706,-0.03791385,-0.95564693,0.5462866,-0.65152735,-0.53414005,-0.62749255,-0.18534738,1.0914364,-0.30532736,0.22675765
IND125121AAA,-0.38445508,-1.1277773,-0.059703857,-0.7736451,0.3492833,-0.26709816,-1.0542382,1.1983948,-0.8658849,-0.3682985,0.12841208,0.51718205,-0.57161635,-0.33874792,-0.59890604,-0.5663247,-0.13455014,-0.019104443,0.20541231,0.45187312,-0.62446386,-0.75575435,-0.24538735,-0.4333954,0.08229958,-1.1328768,0.050241657,-0.5017312,-0.4281745,1.2036786,-0.11861234,0.031216348
IND126112AAA,-0.66557944,-0.80931896,0.40583542,-0.4357322,0.8804739,-0.22390886,-0.4656706,0.17336032,-1.0453408,-0.7857778,0.24452531,-0.1173995,0.056270134,0.76761925,-0.46128318,-1.1628165,-0.36552173,0.63259244,0.011319133,0.43177244,-0.05881847,0.43406647,0.46834952,0.38088107,-0.43084544,0.06580907,0.43010765,-0.0019886633,-0.53986454,1.1082928,-0.3093965,0.021041712
IND127201AAA,-0.19351971,0.0009837892,-0.05077297,-0.084864154,0.41500682,-0.3004921,-1.0824891,0.6735277,-1.0225401,-0.41008204,0.13941164,-0.14177866,0.5524851,-0.061638907,-0.60458094,-0.46725425,-0.27237022,-0.7239366,-0.6032472,0.7154894,-0.42811352,0.075345136,-0.4895982,-0.18092285,-0.11160766,-0.044494603,0.11191253,0.12777117,-0.39971286,0.52698416,-0.23029718,0.2866087
IND131021AAA,1.318692,-0.5087264,0.89506054,0.76941,1.141631,0.5221486,-0.704074,-0.4543389,-0.8244015,0.4102007,-0.62001026,-0.47971973,-0.17037292,0.41193852,-0.4542576,-0.95477957,0.67669964,1.5480145,0.4990588,0.25181413,-0.4276126,1.0747777,-0.19354837,-0.04021163,0.10086051,0.10261749,-0.44064826,-0.2057225,-0.6760204,0.31968796,-0.08166814,-0.055668954
IND131028AAA,0.91674405,0.037275646,0.5617563,-0.013077304,1.400592,0.7185873,-0.76735795,-0.9362588,-0.8574944,-0.06562075,-0.39938995,-0.21784003,0.100862205,-0.27359614,0.14980833,-1.0554852,0.58193225,1.6015991,-0.03369534,1.1146703,-0.7827415,0.7350346,0.32216108,-0.04313477,-0.116961375,0.33624697,-0.44991416,-0.74923813,-0.626333,0.19099438,0.17445268,-0.31431806
IND132103AAA,-0.71739185,-0.44579956,0.50374365,-0.18247704,0.8862062,0.11784235,-0.27726752,0.18700998,-0.9406694,-0.51477903,-0.07332072,0.09976415,0.027811883,0.3799301,-0.045318987,-0.9555835,-0.438567,0.79365003,0.012498723,0.71865666,0.09131067,0.017077247,0.30964231,0.3831569,-0.72046494,-0.03258934,-0.016995002,0.18143858,-0.67285347,1.4457917,-0.38664067,0.08515905
IND136118AAA,-1.2345729,0.17238666,0.7015757,-0.6694336,0.5669854,0.31040764,0.032664448,0.057418734,-0.5152012,-0.29535913,-0.8895264,0.41311812,-0.1049622,0.6152633,-0.34102657,-1.8044006,-0.56156296,0.3729999,0.0644701,0.51036996,0.18176742,0.9703223,-0.39662263,0.50482917,-1.1692021,-0.44363222,0.32873148,0.44053382,-1.266195,1.0563524,-0.17735559,0.52477646
IND201204AAA,-0.7644259,-0.46792182,0.61006624,-0.27223632,0.6748038,0.0043033147,-0.28242567,0.17411184,-1.0006036,-0.48018184,-0.58331627,0.0818888,0.009883972,0.2875403,-0.35043168,-1.136163,-0.3200523,0.8150662,0.13825572,0.7413087,0.06525915,-0.034963056,0.14751942,0.628601,-0.65174073,0.19305837,0.1622411,0.41288307,-0.38918114,1.2994304,-0.2808862,0.020298155
IND244001AAA,-0.5652096,-0.3099641,0.8634794,-0.051605098,0.87290907,0.3257207,0.10392552,0.16276439,-1.1492949,-0.1053186,-0.35385698,0.5024918,-0.116015054,0.639805,-0.5514526,-1.0415659,-0.585391,0.6598027,0.2743353,0.631166,0.5067463,0.19454989,-0.07250625,0.31854808,-0.5496996,0.09264106,0.35563585,0.58470726,-0.67093396,1.3077244,-0.54887736,0.12998582
IND244235AAA,-0.5758071,-0.25805354,0.95668674,-0.5309638,1.0241224,-0.02519778,0.7826899,-0.019633513,-0.72199905,-0.20168208,-0.30164447,-0.052934006,0.012467758,0.35525164,-0.38387838,-1.4511672,-0.030769456,0.44484648,0.24291809,0.51152,-0.20398848,0.13838653,0.30794424,0.32273844,-0.67295194,0.12931532,-0.3033073,0.8491236,-0.382308,1.4517528,-0.30879694,0.59291446
IND247667AAA,-0.61765486,-0.5446939,0.8034905,-0.22347018,0.843311,0.090004995,0.10539876,0.6121572,-0.66043186,-0.5722854,-0.07035096,0.03161751,0.10505154,0.62286097,-0.4311542,-1.2098945,-0.16203517,0.95849496,-0.22886842,0.7101868,0.40658286,0.041014902,-0.11204615,0.60504025,-0.52723104,0.2275702,0.32473198,0.29836768,-0.5233079,1.181253,-0.48036635,0.3989032
IND247667AAB,-0.31935015,0.18258289,0.81296486,-0.7643756,0.88177025,0.22467571,0.3011551,0.08723178,-0.87816864,-0.07537777,-0.29639578,0.146704,-0.27117646,0.72911423,-0.3714427,-1.1410519,-0.7721784,0.5821504,0.06846155,0.6370529,0.46938232,0.039298434,-0.5382634,0.88199294,-1.2238142,0.2705818,-0.5046929,1.0351123,-0.37634477,1.4974283,-0.35007492,0.5723293
IND248001AAD,-0.8541579,-0.68838173,0.7231923,-0.26086542,1.0040809,-0.13348834,-0.16098873,0.17106937,-0.97981685,-0.49711937,-0.24709672,0.37539482,0.14480527,0.38310352,-0.2495607,-0.93919975,-0.43289074,0.65745884,-0.24329348,0.8960284,-0.06079691,0.17614806,0.35984668,0.53641886,-0.43426687,0.034615267,0.22790553,0.37044004,-0.46742773,1.1829555,-0.39753896,0.18170315
IND249407AAA,-0.6714077,-0.46401924,0.7981053,-0.2563846,0.9413502,-0.011785363,-0.08832519,0.76204467,-0.83094585,-0.7311191,0.18441491,-0.06960515,0.04932056,0.5583948,-0.47490582,-1.1897781,0.048167963,1.2032524,-0.38216305,0.7805575,0.24650818,0.117162645,0.10399127,0.610265,-0.3837312,0.2772553,0.53272486,0.06960088,-0.71809924,1.2208743,-0.45078862,0.41871667
IND251001AAA,-0.85506827,-0.6055616,0.8836242,-0.30812195,1.1760602,-0.16233937,-0.027672028,0.13059263,-0.9586285,-0.5068244,-0.420321,0.3647707,-0.036299177,0.4980911,-0.31154525,-0.8425243,-0.5674939,0.6337012,-0.2042874,0.96640074,-0.19832715,0.17136632,0.31387648,0.6385657,-0.5718513,0.08257089,0.2800675,0.5805538,-0.4249061,1.1839012,-0.2580891,0.46657342
IND131301AAA,-1.0064512,-0.53980315,0.61789364,-0.4157871,0.85640293,-0.1192897,-0.5797825,0.49712843,-1.1790521,-0.89354926,0.12358661,0.06859284,0.44007927,0.24010453,-0.050381567,-0.90924305,-0.1899354,0.65776867,-0.14523329,1.0378654,-0.026818555,0.15666898,0.4521395,0.43710512,-0.19824262,-0.10768977,0.5771396,-0.16681385,-0.53068435,1.1933957,-0.5244371,-0.16216567
IND132001AAA,-0.78316116,-0.57982486,0.52018565,-0.21086396,1.0077354,0.092544764,-0.31426078,0.2528896,-0.990818,-0.69612634,0.13563994,0.1076312,0.13627645,0.38599285,-0.06906784,-0.96254843,-0.45458394,0.8045182,0.077890135,0.72365063,-0.034659196,-0.01733253,0.29611734,0.3689683,-0.74715877,-0.0835175,0.06637683,0.108441964,-0.6893926,1.4814934,-0.41293797,0.10413764
IND132103AAB,-0.81044585,-0.98005104,0.40222728,-0.36030647,0.8751822,-0.30401,-0.5578765,0.32448,-0.8841461,-0.5989281,0.023354193,-0.03719317,0.030513605,0.14435066,-0.10053713,-0.86277413,-0.37988022,0.83224666,-0.03453439,1.0022836,-0.0878438,0.4540488,0.2541506,0.4031484,-0.30421332,0.042936567,0.39549586,0.23773584,-1.0130006,1.1576688,-0.2600967,-0.07461518
IND133004AAA,-0.42528388,0.51754737,0.013149561,-0.4026191,0.6437788,0.38825268,-0.83016735,-0.3433131,-1.1954741,-0.5703548,0.0076941703,0.032628093,-0.12887412,0.1737085,-0.9518297,-0.6147862,0.9010578,0.56473315,-1.1099635,0.27872545,-0.8505341,-0.2687557,-0.4611089,0.31721616,-0.059114404,0.20849939,0.7098538,0.54360706,-0.5709421,1.0208889,-0.67270654,-0.8056109
IND135001AAA,-0.4299918,0.026437929,-0.065202124,-0.21818641,0.6800986,0.38385943,-0.8070363,-0.31544286,-1.2109456,-0.6157488,-0.069498375,0.15678199,-0.1542749,0.0990114,-1.0486027,-0.43226618,0.7626967,0.6171879,-1.2252988,0.2419806,-0.8770588,-0.30134577,-0.3857134,0.69240624,-0.03944235,0.15114272,0.64857614,0.57539606,-0.66209626,1.0703198,-0.65914893,-0.5624829
IND134102AAA,-0.4149525,-0.34125316,0.071588345,-0.80676687,0.7159568,-0.16872697,-0.33885685,-0.1597473,-1.0332336,-0.46366027,-0.13064595,-0.3125636,0.3038546,0.34567922,-0.44573373,0.05263805,0.6984854,0.72900647,-1.0175809,0.27709472,-0.84588015,0.098032534,-0.76475424,0.18055344,-0.34984884,-0.09523971,0.47558337,0.49414095,-0.55834675,0.42982966,-0.4579021,-0.007927929
IND174103AAA,-0.5521252,-0.5677562,0.15899023,-0.79629767,0.8558185,-0.26661694,-0.43157893,-0.26093498,-1.2119998,-0.5605036,0.08689392,-0.13714914,0.24495289,0.40461567,-0.090292126,-0.08249773,0.6999052,0.778689,-0.7488668,0.5865657,-0.7857704,-0.07296309,-0.7429066,0.30048874,-0.3806599,-0.07091888,0.60661274,0.4603595,-0.4785168,0.17947552,-0.68910074,-0.17737511
IND134109AAA,-0.48125213,-0.37658334,-0.02438533,-0.38651267,0.7312871,-0.05254947,-0.6410024,-0.33250818,-1.1911192,-0.44985095,0.33278665,0.08911104,-0.2758656,0.38082308,-0.02803922,-0.017731667,0.69450396,0.562635,-0.3266734,0.56416696,-0.3607838,-0.08260156,-0.5532915,0.21395527,-0.050915398,-0.051951192,0.47290322,0.30654472,-0.8260436,1.0698698,-1.0559709,-0.36256307
IND134203AAA,-0.79602414,-0.43293634,0.1010213,-0.5635711,0.86186385,0.073506065,-0.562754,-0.16700284,-1.01687,-0.103760116,-0.36714703,0.10025468,-0.26322827,0.2374848,-0.3490814,-0.18980804,0.98365545,0.24620499,-0.37968284,0.60558575,-0.64049006,-0.08810413,-0.5710253,0.18484569,-0.66668534,0.15516636,0.38306,0.39711514,-1.1246516,0.9230068,-0.9828039,-0.25679955
IND140501AAA,-0.7988024,-0.57458097,0.108559035,-0.46010098,0.8415384,0.004469218,-0.68545514,-0.12267599,-1.0436705,-0.08936535,-0.24768505,0.062353205,-0.2590859,0.18931527,-0.21764421,-0.20656219,1.0802326,0.19687566,-0.3445608,0.7099705,-0.58246887,-0.09414081,-0.52107626,0.31552064,-0.50446737,0.15354416,0.5058596,0.4632666,-1.0253141,0.85745585,-0.898268,-0.37308416
IND173025AAA,-0.64670974,-0.107182615,0.10816296,-0.009013667,0.61749196,0.19410513,-0.93803084,-0.47352698,-1.204216,-0.51048535,0.06962314,0.21588342,-0.15928572,-0.035255432,-0.71206945,-0.53640646,0.8562698,0.65067637,-1.1138431,0.3679193,-0.71783954,-0.46780196,-0.32613564,0.591603,-0.071797885,0.042605042,0.631101,0.46835557,-0.6340206,1.027003,-0.7795206,-0.6168824
IND136027AAA,-1.3907399,0.33738914,0.861918,-0.89774764,0.48319176,0.38599864,0.12630233,-0.021174751,-0.7173547,-0.24857442,-1.0474164,0.33976203,-0.02490474,0.7232322,-0.48085022,-1.9992015,-0.5699384,0.31756723,0.23190242,0.68406856,0.0118951425,1.2690965,-0.5402909,0.44034413,-1.5632484,-0.56107175,0.5054919,0.46058157,-1.5558548,1.1562297,-0.19984198,0.68608046
IND132039AAA,-1.5813642,0.61327565,0.9178675,-1.2071364,0.38772714,0.3023209,0.17742652,-0.006096584,-0.87120485,-0.17388189,-1.2484387,0.4150745,0.0060092504,0.7958545,-0.47565103,-2.196022,-0.620278,0.2921781,0.33477536,0.79926246,-0.07959212,1.3599066,-0.6664951,0.42832878,-1.7055769,-0.45643067,0.5249054,0.496899,-1.6997474,1.36122,-0.14567426,0.79126954
IND136128AAA,-1.3285725,0.28347912,0.7218663,-0.7689022,0.5387341,0.34921968,0.03925201,0.07784363,-0.5330816,-0.39056244,-0.9932656,0.3271738,-0.15899023,0.59534514,-0.36131498,-1.9239545,-0.5128099,0.340687,0.2100162,0.6402171,0.12612392,1.0693624,-0.46895316,0.468717,-1.3242316,-0.46130648,0.39822808,0.33968133,-1.3472433,1.083745,-0.19704226,0.58448684
IND140001AAA,-0.4854907,-0.596143,-0.27971882,-0.3851445,0.9896562,-0.16851334,-0.40050972,-0.12317709,-0.8056269,-0.15935992,-0.07257399,0.11032185,-0.047038577,0.4695861,-0.08923541,-0.46567923,1.1296973,0.80111253,-0.20738852,0.86884266,-0.5827755,-0.7158952,-0.91067237,0.18592009,-0.59220135,-0.32154548,0.6862147,0.47691143,-0.6917693,0.80662715,-0.9164795,-0.29039803
IND140118AAA,-0.52296877,-0.70729023,-0.28559428,-0.40914947,0.98358834,-0.0836749,-0.6000832,-0.16391742,-0.83522683,-0.3550171,-0.005530892,0.119819246,-0.03764302,0.4043773,-0.053347994,-0.4663492,1.1592633,0.6761208,-0.25035363,0.89995414,-0.41291964,-0.66126,-0.8458939,0.19552341,-0.61609507,-0.39399043,0.628823,0.3924026,-0.679408,0.7682189,-0.85242033,-0.27406812
IND140301AAA,-0.4438184,-0.5422418,-0.2137213,-0.31775147,0.89502555,-0.09021428,-0.26865262,-0.21343708,-0.9098234,-0.16159795,-0.2201758,-0.092763744,-0.044749666,0.44617862,-0.2162514,-0.44034517,1.0866437,0.8291164,-0.29744017,0.86617523,-0.5613822,-0.54182786,-1.008112,0.1925843,-0.6330066,-0.31079233,0.5931179,0.71979964,-0.61531925,0.976671,-0.8810984,-0.3075026
IND140901AAA,-0.6065373,-0.5154455,0.10088006,-0.23386158,0.741333,-0.27359462,-0.29298916,-0.15773365,-1.1057174,-0.11735907,0.01243998,-0.0015431144,-0.0056328317,0.42273375,-0.19438839,-0.38408315,1.1603495,0.5437253,-0.5474167,0.82125443,-0.5372308,-0.23820233,-0.8990883,0.29965353,-0.39261842,-0.038323622,0.4853774,0.60464454,-0.5173869,0.9342084,-0.8848319,-0.38972104
IND140401AAA,0.08691603,-0.57630605,0.33956394,-0.28472784,1.4535078,-0.26197144,-0.3374533,-0.8418834,-1.4699388,-0.1989552,-0.49588552,-0.06326668,0.21286754,1.161487,-0.61901814,-0.389248,1.2172297,0.12838013,-0.7019812,0.67899853,-0.24163231,-0.052390423,-0.5939791,0.5978402,-0.5781773,-0.5183347,0.089697346,-0.2738855,-1.4198334,0.8519705,-0.24913871,-0.84629965
IND160055AAA,-0.5951518,-0.40395975,0.1537572,-0.2279653,0.76043415,-0.15653129,-0.35053003,-0.27418044,-0.99202204,-0.24791327,0.033677727,-0.08452966,-0.009832222,0.3442128,-0.26714608,-0.2876758,1.0538278,0.48475176,-0.5407322,0.76619726,-0.41109818,-0.31172004,-0.7876605,0.13577713,-0.29742894,0.015635105,0.46343687,0.4425631,-0.5286258,1.017285,-0.8609704,-0.42800462
IND141003AAB,-0.043453135,-0.20504104,0.1254709,-0.07575624,1.0687243,-0.290277,-0.6113222,-0.71820927,-1.9083155,0.14153332,-0.33850992,-0.12399839,-0.084219076,1.1624613,-0.6262546,-0.2780757,0.78845245,0.3546481,-0.5183089,0.8524094,-0.25353688,0.2949126,-0.68351704,0.26378778,-0.890809,-0.23096783,-0.004012842,-0.5666193,-1.0410645,0.23547488,-0.3279645,-0.8165497
IND142026AAA,-0.01744669,-0.38080844,0.22740863,0.06955472,1.0262002,-0.36534104,-0.8763615,-0.7125116,-1.8910507,0.34214187,-0.52425826,-0.16461974,-0.0052434653,1.3162752,-0.52911377,-0.32932845,0.7812875,0.49447966,-0.29483038,0.980936,0.004713548,0.31741104,-0.8137745,0.13251066,-0.95976776,0.0072793257,0.03681277,-0.435268,-1.1166492,0.16055681,-0.31322214,-0.83975786
IND141109AAA,-0.10065978,-0.63252753,0.06338,-0.06622987,1.0573299,-0.23864833,-0.84062266,-0.8573467,-1.906187,0.12748055,-0.5761463,0.015149858,0.030533472,1.2230402,-0.46947896,-0.36548603,0.7445177,0.38899186,-0.35708615,0.97506666,-0.04698957,-0.0030599209,-0.8455299,0.096206926,-1.0666724,0.0004614004,0.25904626,-0.38512206,-1.1381073,0.112240255,-0.3894079,-0.9072179
IND141115AAA,-0.19498716,-0.58528227,0.24732047,-0.10763156,0.95195097,-0.09451948,-0.28047252,-0.52022177,-1.6818973,-0.13253622,-0.16267984,-0.069904774,0.029058618,1.0720675,-0.64170796,-0.36128062,1.332104,0.48641676,-0.9325298,0.8121363,-0.20264229,0.31885284,-0.52079517,0.21185558,-0.83743775,-0.7061642,0.07851554,-0.65162057,-1.4379715,0.834862,-0.39926305,-0.56051683
IND144001AAA,-0.09207831,-0.30492455,0.539338,-0.47523737,0.85795856,-0.72249603,-0.5485603,-0.6101775,-1.5112934,0.016433552,-0.27301028,0.12555724,-0.3890112,0.8186414,-0.86350846,-0.16140841,1.4437244,0.5959312,-0.4216544,0.8520337,0.0848996,-0.2361177,-0.7032261,0.57293373,-0.3547242,0.4860555,-0.056068953,-0.48655367,-0.8640955,0.9174238,-0.58890826,-0.3941673
IND144040AAA,-0.21279307,-0.64277506,0.4098111,-0.6384895,0.833168,-0.821483,-0.9696774,-0.72873384,-1.5094382,-0.029807402,-0.13150167,0.2646423,-0.46961406,0.6701634,-0.6454426,-0.10781886,1.4956902,0.43948555,-0.25425708,0.8708484,-0.19407375,-0.3954785,-0.33280808,0.6217648,-0.27356926,0.35928524,0.10189508,-0.44087145,-0.9018696,1.0174499,-0.404136,-0.36252114
IND144401AAB,-0.37166446,-0.69709224,0.51694864,-0.6008864,0.9133201,-0.58854824,-0.20895205,-0.54371333,-1.5639706,-0.26889324,-0.5639588,0.18916887,-0.28253818,0.7797216,-0.64742637,-0.29313567,1.4106567,0.29279786,-0.538941,0.9499641,-0.39260855,-0.48216724,-0.64760435,0.26160592,-0.69519794,0.14062132,0.38139176,-0.07098261,-0.80297214,0.7922347,-0.14633812,-0.46711496
IND144001AAC,-0.28875396,-0.30760673,0.09545101,-0.25451872,0.6412915,-0.11874507,-0.49426827,-0.34417218,-1.2158498,-0.14613397,0.05152574,0.18311171,-0.00737383,0.37717128,-0.3211741,-0.5044346,1.0544982,0.23729628,-0.4007321,0.6755452,-0.19739419,0.1681646,-0.50845665,0.4834012,-0.41957045,-0.2541876,0.19583733,-0.06976588,-0.9809071,0.8086207,-0.5916706,-0.9695114
IND144527AAA,-0.22731899,-0.19739716,0.28719524,0.14762375,1.1089681,0.04720928,-0.5154572,-0.39086625,-1.5306103,0.19406632,-0.2573919,0.013289235,0.06261832,1.3226845,-0.60111773,-0.27614084,1.1151006,0.53434116,-0.791587,0.9735294,-0.3577704,0.37707868,-0.6759836,0.3622642,-0.75263697,-0.42360777,0.037805863,-0.6598051,-1.3618222,0.5956751,-0.42029512,-0.65905476
IND145001AAA,1.2841667,-1.346452,0.037674036,-0.88016313,2.6140997,0.46056867,-1.8713242,0.3342377,0.6492155,0.96731216,-1.295742,-0.14593336,-0.5741227,0.48671257,-1.0565778,-0.99804497,-0.29169106,2.010302,-0.092061386,0.7371153,-1.1091218,-0.7099311,-1.4975897,0.23472005,1.0857811,-0.16871962,0.20826356,0.010484376,-0.29187676,1.1384152,-0.51307285,1.1128578
IND176201AAA,1.3979914,-1.3679587,-0.15017945,-0.94537425,2.4737728,0.49811357,-1.8901715,0.25007394,0.5367632,1.0605526,-1.2507008,-0.4129814,-0.22814585,0.560952,-0.6242403,-1.1306264,-0.2737014,2.1696894,-0.05966071,0.6245786,-1.124795,-0.9348782,-1.663993,-0.24840938,1.0971537,-0.51966786,0.3323392,0.07481485,-0.118041605,1.2149817,-0.5998264,0.98621625
IND147001AAB,-0.920153,-0.117726736,0.13016465,-0.35403532,1.184434,-0.060372405,-0.20612834,-0.6397194,-1.2031595,-0.6546453,-0.35248095,-0.044787176,0.08493575,0.539605,-0.78239405,-0.43025368,1.0584223,0.27013406,-0.6023147,0.6290149,-0.3952056,-0.15253471,-0.75576115,0.25626475,-0.030572288,-0.27420107,0.60907054,0.47007516,-0.6480865,0.65139174,-0.935914,0.22145711
IND147201AAA,-1.3791922,0.5453229,0.4341309,-0.23526585,1.5091852,-0.14066575,0.07859604,-0.9924896,-1.1935258,-0.5899043,-1.2462736,-0.24056908,0.20594883,0.8724489,-0.9818063,-0.9398812,0.882429,0.6148322,-0.7665286,1.0350629,0.025861641,0.30101055,-1.6568434,-0.20098236,-0.2656968,-0.4620237,0.25233644,0.70454514,-0.96727085,0.5403792,-0.98343474,0.8537123
IND147001AAD,-0.7256465,-0.32953537,0.21904573,-0.30354398,0.8542527,-0.025936615,-0.4240228,-0.29220048,-1.072198,-0.29082635,-0.028518192,-0.0073615243,-0.21943703,0.43963355,-0.45210454,-0.2885701,0.92263484,0.25887707,-0.5139685,0.5974432,-0.46504188,-0.15720184,-0.57083046,0.23323178,-0.35951194,0.014772244,0.6265455,0.3262711,-0.66723895,0.90169096,-0.8673286,-0.4937181
IND147101AAA,-0.70813864,-0.464523,0.15447947,-0.2806882,0.8769851,-0.19406699,-0.570205,-0.18752894,-0.88366175,-0.20248826,-0.053908013,0.09152225,-0.20194504,0.5749804,-0.43444896,-0.25981426,0.8283454,0.605404,-0.7067731,0.63402617,-0.6425668,-0.35693657,-0.88938123,0.22388586,-0.46974522,0.04509309,0.5213341,0.36232245,-0.78691393,1.0834619,-0.9143826,-0.31320828
IND147105AAA,-0.6877085,-0.5765707,0.12632355,-0.34141523,0.85893697,-0.17529875,-0.6197011,-0.34085935,-0.8756162,-0.3045747,0.043557417,0.11344447,-0.13434282,0.5077772,-0.28697702,-0.34250256,0.8072771,0.4637388,-0.56941515,0.5728378,-0.5701031,-0.27362004,-0.7604543,0.1345138,-0.511772,0.0011905496,0.49860746,0.33263296,-0.77688646,0.9209411,-0.8383451,-0.4330148
IND148023AAA,-1.5289919,0.50832194,0.4409498,-0.27901006,1.5557241,-0.30912167,0.104493685,-1.1714774,-1.4677556,-0.6985779,-1.239435,-0.16157018,0.5149224,0.9704045,-0.96038127,-1.0186245,0.93168366,0.6888506,-0.8997872,0.9716858,-0.08209839,0.18025266,-1.7542145,-0.31815183,-0.21132381,-0.47546983,0.36138463,0.71003693,-0.87414473,0.63776964,-1.0480283,0.9394254
IND148028AAA,-0.8654837,-0.2358975,0.23297602,-0.38761958,0.8304048,-0.48916847,-0.34676796,-0.20451668,-1.0873154,-0.83083516,-0.17818972,-0.23147959,-0.11290661,0.06324243,-0.5097951,-0.16556731,0.9215294,0.28988034,-1.0198027,0.5686752,-0.46057162,-0.2613259,-0.81159353,0.075061716,0.19747771,-0.1512715,0.901411,0.08465885,-0.67445576,0.7177612,-0.8635823,-0.1942847
IND151001AAA,-0.8047882,0.18597034,0.1325866,-0.6426054,1.4954756,0.4942149,-0.7236185,-0.098930344,-1.0512377,-0.1392136,-0.24398385,0.3242975,0.14081375,1.2045652,-0.25944906,-0.18539083,0.95297015,0.45148957,-0.5231121,0.8683097,-0.8030485,0.021692304,-0.5412877,0.016186139,-0.5035266,-0.06005823,0.1660354,0.055336405,-0.25795922,1.1133357,-0.4827438,-0.7914744
IND148101AAA,-0.70429605,0.9975986,0.42986882,-0.6218678,1.5531943,0.5408209,-0.4784091,-0.13043095,-1.1419789,0.17518096,-0.31449872,0.26983896,-0.094066575,1.9249581,-0.44260952,-0.57212025,0.83375776,0.5044834,-0.72656983,1.0522428,-0.7751858,0.46330717,-0.9707006,-0.26265174,-1.0711257,-0.22424482,-0.28503963,0.56778336,-0.3047486,1.718429,-0.33365363,-0.48670858
IND151103AAA,-1.0292814,0.86206144,0.33153874,-0.70835483,1.9968814,0.33925858,-0.21492149,-0.3167809,-1.263196,0.3520126,-0.885154,0.41725665,0.023535868,1.9178993,-0.30462885,-0.53952104,0.5619118,0.2685654,-0.5058858,0.69617087,-0.7558838,0.09528136,-1.0457531,-0.039918467,-1.0280148,-0.43455902,-0.07507305,0.5444647,-0.3881816,1.8098348,-0.30111843,-0.38774368
IND151302AAA,-0.88219446,0.33947897,0.22506699,-0.6351389,1.6965632,0.7646146,-0.7857961,-0.13065179,-1.2671304,-0.056993827,-0.33185312,0.36037174,0.28309324,1.3307824,-0.22134912,-0.31298053,1.100738,0.64449614,-0.6935329,0.87354225,-1.2127873,0.14389342,-0.57848984,-0.1045346,-0.6598646,-0.12889223,0.03638083,0.08452456,0.0053365054,1.2517747,-0.38952342,-0.8717046
IND151505AAA,-0.9312173,0.30851242,0.14742279,-0.6819764,1.7704062,0.6290645,-1.0368489,-0.07621341,-1.1760294,-0.079876475,-0.25262558,0.45076233,0.27063492,1.1373718,0.0334527,-0.2704444,1.1070524,0.6263217,-0.5640931,0.9580174,-1.1182414,0.16693573,-0.5622556,-0.14760171,-0.49687913,-0.06522354,0.15757391,-0.044155393,-0.030564617,1.2194258,-0.37431574,-0.9125601
IND151506AAA,-1.041172,0.15301147,0.08156702,-0.6702857,1.7327288,0.5552556,-1.2765245,-0.019114006,-1.1551583,-0.16400775,-0.29015914,0.39980373,0.19100922,1.0178887,0.15536694,-0.2923267,1.2159933,0.52082187,-0.47816697,0.8915381,-1.133252,0.021846123,-0.56515056,0.010098415,-0.55172753,-0.09614803,0.30516928,-0.11778396,0.016965399,1.0783349,-0.4492739,-0.8617403
IND140603AAA,-0.6368405,0.70739853,0.39396307,-0.41089633,1.140527,-0.09812095,0.059119254,-0.578226,-1.1868427,0.24727489,-0.5505307,-0.13266745,-0.24181508,1.0035571,-0.70228076,-0.64243895,0.4711408,0.30535758,-0.6223086,0.58998084,-0.28410104,-0.17999288,-1.1788771,0.24435109,-0.9283499,-0.039716884,-0.25940117,1.1189865,-0.6059551,1.4640697,-0.9543587,-0.009473067
IND160102AAC,-0.58957374,-0.45378438,0.07177009,-0.48107946,0.7294098,-0.08863053,-0.32380512,-0.30956417,-0.9056617,-0.28345233,0.05312671,-0.09310859,-0.15884236,0.58829606,-0.38146824,-0.32390314,0.84003407,0.41599867,-0.5502672,0.6615683,-0.50400376,-0.26433694,-0.61949074,0.0776297,-0.44752276,-0.024773523,0.4411655,0.31048703,-0.69401056,0.9543386,-0.8782653,-0.3509144
IND173212AAA,-1.256371,0.58005756,0.49288622,-0.22931278,1.5937705,-0.1683733,0.13472235,-0.1438024,-0.9084346,0.020335818,-0.07200009,0.42244226,-0.73857707,0.2983848,-1.1955194,-1.0581264,0.45741358,0.7000918,-0.39191234,0.5033309,-0.5671574,-0.33791137,-1.8705379,0.04051084,-1.1856294,0.45119447,-0.42771742,0.44642988,-1.4138767,0.8918079,-0.30767003,-0.3010428
IND174001AAA,-1.1122342,-0.5117655,0.28037786,-0.7083496,0.9991635,0.008889465,-0.14992148,-0.7302971,-0.84427804,-0.023734478,-0.11175331,-0.24687132,-0.48341954,0.3753497,-0.9043928,-0.2302115,0.36393455,0.53952014,-0.5751318,0.89626485,-0.78369516,-0.1709648,-0.92519504,0.30071846,-0.2937073,-0.34631965,0.41176674,0.4138021,-0.64264417,1.127788,-0.50059104,-0.43438482
IND174307AAA,-0.37020734,-0.36093336,-0.44184563,-0.40157518,0.6842969,-0.18768837,-0.5679535,-0.47024482,-0.82244295,0.21705514,-1.3620886,-0.6441185,-0.6004895,1.1142858,-1.1680335,-0.9561163,0.9052756,0.7110656,-0.89739436,0.8444403,-0.24217348,0.27714866,-0.5797964,0.07783155,-0.8238669,0.09228914,0.9538726,1.0861155,-0.35418206,1.7498521,-0.52067685,-0.096248806
IND176041AAA,-0.09719418,0.19759929,0.27692312,-0.4328385,1.3952998,-0.39469793,-0.36262852,-0.55007774,-1.3390105,0.028655754,-0.6211023,-0.73359686,-0.9550139,0.89856374,-1.0199091,-0.6102786,0.69330424,0.73200554,-0.41093126,0.75508374,0.024866104,0.477725,-1.4272355,0.3090722,-1.2915179,-0.021580592,-0.1613933,1.6988308,-0.22998625,1.4683812,-0.43046206,0.018311692
IND181152AAA,-0.6557994,-0.13383129,0.45791954,-0.96266884,0.7980777,-0.2661832,-0.8359982,-0.57081056,-1.0499885,-0.21715595,0.18087758,-0.1152236,-0.2834992,0.71996284,-0.39936393,-0.84904826,0.80564314,0.5142388,-0.6690768,0.86018866,-0.5729104,-0.50232166,-0.24778898,0.017110933,-0.29280418,-0.18190582,0.47076082,0.7244764,-1.0685283,0.49201345,-0.8109431,-0.38909873
IND184104AAA,-0.65431935,-0.11655531,0.4000787,-0.907798,0.673202,-0.29053998,-0.84716225,-0.5783764,-1.0361764,-0.24833499,0.13070884,-0.1398419,-0.33239034,0.6779223,-0.25472066,-0.7249006,0.72230446,0.5177806,-0.7817686,0.8501004,-0.52394986,-0.45562512,-0.29548708,0.081991605,-0.20056058,-0.15034226,0.63332415,0.57737917,-1.0450801,0.4905191,-0.7678032,-0.47458827
IND160102AAD,-1.0082921,-0.25156504,0.37306154,-0.4155394,0.5641968,-0.09231708,-0.5900068,-0.9828992,-1.0092835,-0.22104189,-0.21238631,0.44374835,-0.27477273,-0.03891666,-0.7548664,-0.12710841,0.64317083,0.74805933,-0.91548246,0.38723013,-0.84791446,0.10922162,-0.9800521,-0.33196667,-0.5968061,0.11747707,0.15111946,-0.03119209,-0.47995007,0.12637426,0.08687973,-0.16738242
IND160002AAD,-0.21259561,0.2416331,0.2464087,-0.43099922,0.99983674,-0.08586893,-0.039621703,-0.93934023,-0.80923057,0.13240837,-0.28557545,-0.026678506,-0.10220794,0.45428956,-0.4119404,-0.018978618,0.5126243,1.0158172,-0.7706554,0.41099796,-0.90091586,0.37452802,-1.0784681,-0.16626824,-0.535144,0.01674491,0.37834936,0.20742035,-0.43682486,0.5938303,0.06849687,0.061968055
IND173220AAA,-0.76707983,1.1343106,0.67156506,-0.41310447,1.1075481,-0.70022064,0.21119925,-0.35622746,-0.8166993,0.18253168,-0.437254,-0.45653477,-0.14834107,0.61659515,-1.5896829,-0.66654253,0.638084,0.7244881,0.10719948,0.886493,-1.5025274,-0.006142983,-1.0761452,0.28247213,-1.5788213,0.31644818,0.6106038,0.4370282,-1.3306234,1.5440162,-0.68561447,0.06742207
IND175018AAA,-1.1504765,-0.6606919,0.2623513,-0.63552785,0.98233896,0.0035342302,-0.22676736,-0.74766207,-0.9717761,-0.0015312751,-0.014806018,-0.3523119,-0.4266094,0.18501684,-0.7905552,-0.1484096,0.49881473,0.42712834,-0.5778723,1.0229058,-0.799288,-0.15382858,-0.7870724,0.35052082,-0.14571132,-0.28474954,0.41870582,0.42885053,-0.71235883,1.1926461,-0.5001218,-0.5056147
IND174021AAA,-1.4922264,-0.8454094,0.28881222,-0.88872415,1.3203291,0.35290655,-0.10224721,-1.3305606,-0.96585304,0.5176936,-0.32995108,-0.19701216,-0.41523996,-0.19212301,-1.2641699,-0.072273366,0.54016066,0.30903164,-0.4478685,1.077207,-1.4348389,0.29149607,-0.86662877,0.38998002,-0.04243263,-0.57225865,0.7670762,0.46018288,-0.34625542,1.4738802,0.039158706,-0.2868435
IND176048AAA,-1.489479,-1.1841742,0.27878016,-0.9348548,1.3255538,0.29321656,-0.12963814,-1.1602597,-0.8611168,0.29715693,-0.19735816,-0.30905184,-0.5427693,-0.04852433,-1.0453343,-0.04105699,0.4437048,0.34312946,-0.5946284,1.2470666,-1.3051182,0.14331438,-0.87127906,0.5757626,-0.093060665,-0.75653744,0.7612076,0.37957093,-0.4914187,1.4779453,-0.27627364,-0.3127465
IND174101AAB,-0.5323372,-0.5318675,0.0844744,-0.3828157,0.46663964,-0.060705174,-0.64604926,-0.42680547,-1.0175806,-0.5498754,0.14981724,0.39154488,-0.22732455,0.519715,-0.48792693,-0.29114357,0.6732548,0.20047028,-0.56025195,0.618527,-0.22772513,-0.064895414,-0.62015325,0.031193577,-0.06388234,0.19400138,0.8178578,0.041896034,-0.713761,0.82390666,-0.8433892,-0.5721324
IND175001AAA,-1.157855,-0.74290746,0.19757105,-0.6245817,1.0081521,-0.018843256,-0.3437701,-0.7751243,-0.9282718,-0.027154695,0.13801852,-0.18530184,-0.33893687,0.23953041,-0.69562715,-0.14249082,0.52067477,0.31363502,-0.56254125,0.992163,-0.82771355,-0.18180189,-0.79722244,0.3298185,-0.08028483,-0.30309728,0.506859,0.3694895,-0.66108435,1.1860741,-0.4477609,-0.5183587
IND175101AAA,-1.1408911,-0.84527284,0.16508047,-0.5932902,0.97743285,-0.00017623598,-0.395216,-0.7519704,-1.0106928,-0.11949727,0.22559185,-0.12046807,-0.28906542,0.1659844,-0.5684768,-0.17428574,0.6230098,0.2599187,-0.43601644,0.9985369,-0.7896306,-0.1441367,-0.8041478,0.3337589,-0.16279301,-0.34370527,0.47504637,0.34372765,-0.6002068,1.0591223,-0.5589989,-0.56643414
IND175015AAA,-1.5561768,-1.283802,0.36388898,-0.72524583,1.1891491,0.2366091,-0.32600114,-1.1337768,-0.9566733,0.28354186,-0.03435692,-0.164764,-0.5618958,-0.19723205,-0.79767406,-0.018869665,0.4616396,0.3449418,-0.53803873,1.1186249,-1.3817241,0.041596785,-0.7173969,0.577535,-0.088540725,-0.7711966,0.6650344,0.4577462,-0.559636,1.3290465,-0.13721403,-0.4598527
IND176061AAA,-0.9655298,-0.6011595,0.20115215,-0.84912777,0.82907856,-0.24938874,-0.072897136,-0.17011875,-1.0563959,-0.33364227,0.28042188,-0.18607068,0.004170722,0.5560657,-0.05806083,-0.15278344,0.9207711,0.6896393,-0.43120962,0.5935243,-0.74608934,-0.30770046,-0.78882587,-0.020037632,-0.32665703,-0.4529839,0.78289115,0.011175036,-0.10755522,0.87202376,-0.46126765,-0.42046002
IND176110AAB,-0.45341203,-0.61845887,0.25375345,-1.0594827,0.5691353,0.13714269,-0.629785,-0.155643,-0.8752222,-0.4460807,0.26963097,0.34220037,0.26471043,0.6191038,-1.1637051,-0.43835765,1.0597987,0.4856849,-0.7062311,-0.17199552,-0.7019464,0.38022533,-0.9304666,0.14143,-0.21383122,-0.09393497,0.86582994,0.5311198,-0.9904432,0.8556139,-0.8436675,-0.12693442
IND177033AAA,-0.52490574,-0.6937285,0.117286935,-0.9423764,0.5423824,0.0023259402,-0.8393987,-0.225057,-1.0599742,-0.45002425,0.11430012,0.25629136,0.34488234,0.5133874,-0.87232023,-0.3023636,0.9535452,0.54060966,-0.6655412,-0.05142678,-0.6014177,0.27975613,-0.9095395,0.050311275,-0.27321544,-0.052025884,0.93402493,0.44741762,-0.9832093,0.906651,-0.7746835,-0.14992335
IND176303AAA,1.051473,-1.2710258,0.05097,-1.124591,2.6708546,0.71129584,-2.0667484,0.016714828,0.5478706,0.9310671,-0.9990416,-0.34099588,-0.34935188,0.5955418,-0.7310827,-1.1601582,-0.53341633,2.17189,0.1017343,0.60076946,-0.98790467,-0.6474045,-1.6231633,0.010159703,0.8816453,-0.11362001,0.47619343,0.12011626,-0.24186431,1.3044419,-0.102629334,0.9922973
IND176215AAA,-1.1201811,-0.21280411,0.38362053,-0.8980203,0.59423363,0.05478172,0.087437384,-0.13879454,-0.8515625,-0.044662397,0.0021310118,-0.18527475,-0.066812254,0.9418081,-0.12678617,-0.3180568,1.0396024,0.7808292,-0.30950132,0.46760893,-0.7634909,-0.3664521,-0.724655,0.10705421,-0.34186602,-0.3458077,0.7292991,0.04532476,-0.13503098,0.8494379,-0.43836805,-0.35215878
IND176310AAA,1.1915442,-1.2858518,-0.04385496,-0.99848324,2.5439272,0.70674676,-2.196046,0.09855516,0.6935834,1.1385123,-1.311146,-0.5720655,-0.23369001,0.5035075,-0.7981003,-1.1411053,-0.08680508,1.9770938,-0.22331607,0.9329889,-0.84557974,-0.63122135,-1.6210533,0.25892133,0.8860462,-0.25810987,0.37757376,0.089398965,-0.25521123,0.916533,-0.50619304,0.87717396
IND177001AAA,-0.41508457,-0.5039867,0.24471508,-0.949142,0.52594256,0.38307726,-0.5569876,-0.0025347816,-0.94877106,-0.5685524,0.14383729,0.19353153,0.4673823,0.58463365,-1.1166466,-0.33510268,1.1461023,0.79685646,-0.93533903,-0.07182015,-0.72791886,0.3782771,-0.89094454,0.014468295,-0.42094567,-0.36194748,0.90310496,0.47479963,-0.7943444,1.0081819,-0.5336025,-0.008009431
IND184121AAA,-0.7229123,-0.16827309,0.4869844,-0.94628453,0.7180255,-0.22247158,-0.8503754,-0.44547153,-1.0436779,-0.38614395,0.22818942,-0.0825425,-0.45876887,0.71686476,-0.21408007,-0.8041268,0.8738052,0.49002886,-0.6785969,0.82947963,-0.5505287,-0.5078237,-0.24767111,0.030210849,-0.19651078,-0.17463309,0.7022492,0.6920549,-1.055585,0.48690188,-0.7195206,-0.44013655
IND181152AAB,-0.4948043,0.036180172,0.1953744,-0.9694262,0.6082638,-0.45859239,-0.5824671,-0.23238343,-1.2236181,-0.68703514,-0.008459904,0.082770385,-0.91333824,0.44937977,0.22257407,-0.34134668,0.61788744,0.7649072,-0.9402184,0.96601593,-0.7022929,-0.25282064,-0.54019576,-0.24686664,-0.33865848,-0.3818463,1.4988478,0.36104023,-0.8195262,0.47560412,-0.3305945,-0.46393374
IND181201AAB,-0.5582234,0.19655609,0.17481801,-1.0985804,0.53943413,-0.21567784,-0.5040709,-0.3026982,-1.4261638,-0.6714072,0.010760696,0.18779564,-0.94475186,0.32204482,0.16949871,-0.44579497,0.7672379,0.9148901,-1.0147325,1.0152335,-0.6362707,-0.21137875,-0.48407432,-0.31598788,-0.44499183,-0.5752758,1.5120155,0.23898375,-0.90103716,0.4154386,-0.31122416,-0.4537346
IND201001AAA,-0.45634216,-0.7705101,0.2337661,-0.18663244,0.885431,0.96094346,-0.1015938,0.48943895,-1.3148953,0.79781145,-0.8031484,0.77581614,0.74209964,0.2941986,-1.4157914,-1.9374855,-0.67391175,0.8044036,-1.3352062,0.20968863,-0.30712068,-1.799646,-0.6940228,-0.16210808,0.7405545,-0.04668512,0.4216419,-1.550663,0.17408055,0.84980786,-0.83757836,-0.4021555
IND245101AAA,-0.8683414,-0.49328244,0.4371294,-0.8708714,0.75187826,0.39944097,0.1394081,0.7329699,-1.1353078,1.3097689,-0.8528473,0.27378213,0.73353994,0.72368914,-1.2175038,-1.5908924,-1.2120031,-0.09690396,-1.3076189,0.64279807,0.49976414,-1.3579874,-1.0730337,0.16211733,-0.31685728,-0.45936182,-0.5858082,-0.47893068,0.23099037,1.0872242,-0.6726435,-0.14863437
IND245304AAA,-0.74778897,-0.44586498,0.45752758,-0.9200732,0.670059,0.28179824,0.3019745,0.7608466,-1.3020866,1.3520188,-0.93327266,0.37138262,0.7581509,0.84047985,-1.2407514,-1.4851074,-1.2855889,0.013866936,-1.3881376,0.6838047,0.2791069,-1.5194845,-0.944706,0.15395363,-0.27217504,-0.3806201,-0.46327162,-0.38300353,0.22953932,1.2117907,-0.6698911,-0.01989455
IND201007AAB,-0.5959465,-0.5141516,1.0437068,-0.08712727,0.97139835,0.0025669313,-0.7487465,0.77321285,-1.4042603,-0.3719835,-0.21633127,0.58251023,0.13458964,-0.23927951,-0.83432525,-1.1799912,-0.20193645,-0.0014855575,-1.3062061,-0.15282646,-0.3209887,-0.1696863,0.27243686,-0.8446543,-0.7826538,-0.34334207,0.6279727,0.16659996,0.27957797,0.8651888,-0.67154443,-0.7421135
IND250002AAA,-0.8486583,-0.53396744,0.58779883,-0.34864753,0.76840615,-0.12690082,-0.40802398,0.21066043,-1.0631816,-0.65919584,-0.43335408,0.14452653,0.12796666,0.30100328,-0.30719694,-1.1778699,-0.19745922,0.8392605,0.20240077,0.7078567,0.06090469,-0.0712684,0.18008125,0.6318569,-0.4353047,0.1412319,0.2457988,0.36712354,-0.3762045,1.3029808,-0.3793968,-0.0003693372
IND201304AAA,0.42812562,0.73121953,1.6185627,-0.65764725,0.94694036,-0.7930294,0.3428902,0.38417244,-1.5063401,0.5685854,-0.25852272,0.25162312,-0.44500488,-0.08906981,-0.93941844,-0.82014936,-0.17277087,-0.4098866,-0.67924833,0.14291152,-0.081747696,0.39977947,-0.49357143,-0.0840612,-2.0241332,-0.95821464,0.14154513,0.70998764,0.8384261,1.3036933,-0.65276045,0.098715395
IND203205AAA,0.41195327,0.79074943,1.4650345,-0.6712422,0.99201113,-0.9037842,0.58399725,0.4880008,-1.1308002,0.6388871,-0.21525678,0.3986562,-0.70925283,0.017888373,-0.9062689,-0.82515424,-0.45276225,-0.5478364,-0.580042,0.27017248,-0.075156845,0.42019394,-0.77763546,0.07829783,-2.2178638,-1.0413759,-0.03411542,0.8865175,0.8388467,1.3605626,-0.58476955,0.35392976
IND201301AAL,0.36286387,0.13687684,2.7347682,-0.095381096,1.7344218,-0.12734215,-0.27003285,-0.3747385,-1.7557213,0.121449955,-0.3506889,0.30682817,-1.043434,-0.7436756,-1.1188742,-1.6668272,0.3507731,0.23737787,-1.2172208,-0.15121128,-1.0021847,0.43585068,0.1606399,-1.2628492,-0.8247401,-1.0498976,0.8127816,0.09471465,1.3663943,1.2245907,-1.0890976,-0.7241883
IND201307AAA,0.2714663,0.22140211,2.6064374,-0.0044226623,1.556339,-0.18337324,-0.13683596,-0.37144905,-1.6031353,0.14957933,-0.3959126,0.2804073,-1.1393358,-0.7545804,-1.1433916,-1.5988585,0.24302088,0.34874505,-1.0981462,-0.08972671,-1.0094842,0.44782826,0.14623575,-1.1825986,-0.83290946,-1.0811757,0.75073296,0.06902221,1.3494036,1.1635221,-1.0123261,-0.6358441
IND201306AAA,0.21701127,-0.17475015,2.115673,-0.15459669,1.2617004,-0.20798445,-0.436541,-0.03349,-1.7272805,0.008648262,-0.15627366,0.3605094,-0.66445225,-0.69604635,-0.7957263,-1.337409,0.11763101,0.07150148,-1.0688894,0.12081515,-0.75420886,0.3002963,0.209179,-0.6973189,-1.0164948,-0.8589844,0.7577182,0.007060384,0.8436924,1.153822,-0.81348413,-0.6441615
IND205001AAB,-0.30531114,-0.5933932,1.1671572,-0.33519873,-0.0874072,-0.25995553,0.084278345,0.81269056,-1.0337951,0.19414562,0.032380752,-0.3894687,0.17389101,0.059644546,0.29151395,-0.67216253,-0.37620997,0.27620232,-0.31855005,0.57056665,0.04805002,-0.8406883,-0.12720636,-0.14371455,-0.37872314,-1.4928125,0.038683753,0.121137396,-0.34410006,0.8957858,-0.79485863,-0.1370762
IND207123AAA,-0.7199691,0.275138,1.4390327,-1.3917899,0.06268069,-0.27369562,0.022022294,0.34537548,-0.79270416,1.0576471,-0.78202075,0.2007942,-0.032011133,0.4048854,-0.13804828,-0.30637905,-0.5334235,0.93730384,0.15155421,0.3913267,0.4033678,-0.48706228,-1.2677089,0.32704237,-1.1084741,-1.1738305,-0.074798904,0.49019814,-0.65010124,1.1810657,-0.79746115,1.007175
IND202001AAC,-0.03874002,-0.45548013,1.707672,-0.49090543,0.5274232,-0.41240874,-0.1802934,0.9847142,-1.5136602,-0.03865173,-0.24064691,-0.083083436,0.38486615,-0.040980145,0.18219855,-0.6599773,-0.35036275,1.5216947,-0.4545907,0.8189759,-0.11635598,-0.81710577,-0.049582638,-0.33223104,-0.39188516,-1.9656414,-0.09626469,-0.1970342,-0.7123744,0.15302624,-0.92043495,0.43181905
IND204215AAA,-0.3861539,-0.6309317,1.6670887,-0.54652554,0.43238243,-0.2754607,-0.34267983,1.2133781,-1.4523852,-0.2516392,-0.17644988,0.17072968,0.44725555,-0.1071337,0.17470017,-0.7042882,-0.39440724,1.5158043,-0.7091525,0.8370943,-0.417404,-0.76157725,-0.075031534,-0.36194086,-0.4172633,-1.9570616,0.21059676,-0.3194269,-0.75214475,-0.06327547,-0.96353555,0.41287416
IND203001AAA,0.23087408,0.08531161,2.1383069,0.14995399,1.5825117,-0.053041823,0.07373634,-0.5272656,-1.3762119,0.2924721,-0.26792786,0.3547057,-1.1509364,-0.80384356,-0.93022877,-1.4975188,0.08773728,0.33056575,-1.0706668,0.103589304,-0.78189355,0.3910097,0.28939098,-1.000456,-0.7823347,-1.0273705,0.47789153,0.21043785,1.0893945,1.0228565,-0.82552683,-0.5281413
IND203131AAA,0.23356442,-0.010936445,2.4149356,0.16375946,1.7659798,0.03841126,-0.08026442,-0.5041389,-1.6938953,0.29582107,-0.265489,0.40736058,-1.1945115,-0.932116,-1.0057333,-1.6394333,0.14237697,0.3068423,-1.1458453,0.0543367,-0.8933287,0.3754431,0.33488676,-1.031047,-0.8240228,-1.0996059,0.5087557,0.1614577,1.2642076,1.0728192,-0.97919506,-0.6838742
IND203135AAA,0.37249485,-0.019481977,2.5005012,0.19575079,1.8125827,0.07062522,-0.028263908,-0.5904062,-1.7461867,0.25780523,-0.18946713,0.51570034,-1.364178,-0.8725054,-0.9148766,-1.7194709,0.08405676,0.30569214,-1.2495025,0.14840654,-0.9061876,0.40837982,0.44179478,-1.0375545,-1.0110712,-1.0953159,0.5405291,0.20587486,1.2777241,1.1514723,-0.94009846,-0.7454673
IND203390AAA,0.28226492,-0.193595,2.7175648,0.20733227,1.8378433,0.087826476,-0.40156648,-0.4940033,-1.9374667,0.033361495,-0.21475698,0.3698457,-1.3554466,-1.0675507,-0.98563653,-1.8423324,0.19372258,0.3238874,-1.440768,0.13436754,-1.0803072,0.403386,0.46269804,-1.1790698,-1.1311215,-1.1673834,0.55327547,0.050195668,1.400593,1.2758974,-1.0495292,-0.85366744
IND203396AAB,0.2441949,0.009769505,2.5266047,0.1592577,1.7621096,0.076116286,-0.17250133,-0.54208803,-1.7114059,0.20307395,-0.34939864,0.48695362,-1.2760419,-0.91400796,-0.94934493,-1.7183278,0.09699402,0.21104349,-1.2244396,0.008434123,-0.90733546,0.43506572,0.41885048,-1.0534527,-0.9992987,-1.0497713,0.6044805,0.11266576,1.2303017,1.2184448,-0.87917274,-0.73782563
IND204101AAA,-0.21186423,-0.14636914,1.0944481,-0.50123936,0.058180276,-0.43941686,-0.19413847,0.8434344,-0.99126387,-0.19344804,-0.18793699,-0.44398272,0.42372894,0.31368208,-0.032609913,-0.3109511,-0.78503203,0.14576548,-0.05587935,0.51469785,-0.30846965,-0.22689496,-0.53892356,0.20384875,-0.3260262,-1.4899148,0.031687416,-0.08606372,-0.29486457,1.1529787,-0.76081264,-0.3675695
IND207001AAA,-0.54540604,-0.7091652,1.5188354,-0.69512963,0.42727306,-0.46300218,-0.40779802,1.4021585,-1.4470912,-0.38087744,-0.059223767,0.24133058,0.37611872,-0.026980892,0.3643047,-0.85219234,-0.4405974,1.4609958,-0.49153674,0.8494728,-0.4591152,-0.5847186,-0.2542972,-0.43178704,-0.38197532,-1.897595,0.25255597,-0.402076,-0.7968459,-0.16936257,-0.966518,0.31427294
IND205135AAA,-0.43854266,-0.74841696,1.0074162,-0.27103645,0.34247127,0.04900195,-0.108820915,1.0365163,-1.1755403,0.1481689,0.18330964,0.03161704,0.36658743,0.012989902,0.45446402,-0.6161169,-0.33559012,0.1335784,-0.32804248,0.6383827,-0.07374719,-0.7948629,-0.08142935,-0.18074091,-0.6478795,-1.5406941,0.045204632,-0.020753928,-0.2571509,0.8417887,-0.63333833,-0.105888925
IND209721AAB,0.08936271,0.051788855,1.3963397,-0.6499925,-0.63062686,-0.7277954,0.7567909,0.58705646,-0.7603916,0.3934899,-0.4265342,-1.1945153,-0.42972437,0.43940413,0.06969108,-1.0153755,-0.87801474,0.47985432,-0.08223624,0.72203565,0.09442703,-0.93650913,-0.85729873,0.18220873,-0.30078238,-1.7500575,-0.3396321,0.47964236,-0.69973785,1.6476262,-1.0012919,0.18873699
IND283203AAA,-0.58005154,-0.93466693,1.0020288,-0.29487392,0.5160669,0.040135663,-0.2073754,1.003736,-1.2100286,0.05290391,0.21898769,0.124499336,0.3853751,-0.055270508,0.48281282,-0.595456,-0.3331812,0.075859554,-0.23934956,0.67692316,-0.12748075,-0.84244215,0.0014835948,-0.21013772,-0.5949654,-1.4644188,0.06413027,-0.021710431,-0.22857475,0.71035326,-0.64934653,-0.053951897
IND206001AAA,-0.18299314,-0.5497098,0.11686459,0.05440763,0.26012808,-0.52200884,-1.2054118,0.52716374,-0.6681217,-0.054152444,-0.02040782,-0.5865967,0.17704163,-0.08162535,-0.5212854,-0.5574266,-0.14468019,-0.47782457,-0.25539365,0.607441,0.052017465,-0.32698378,-0.37001425,-0.18946399,-0.1207349,-0.45729116,0.5257791,0.053749684,0.018287843,0.37326473,-0.1261286,0.68329126
IND206122AAA,-0.2759097,-0.38537115,0.19136915,0.10644376,0.2680453,-0.50063825,-1.1516812,0.4423195,-0.71376723,0.11726462,-0.08374163,-0.68011695,0.06112881,-0.022133991,-0.54868186,-0.5933972,-0.17786877,-0.49706346,-0.23182373,0.5335742,0.040902942,-0.32935745,-0.4138096,-0.25282684,-0.20135055,-0.45106152,0.537788,0.023545546,0.06760374,0.30942625,-0.092466876,0.7678684
IND207302AAA,-0.6790515,-0.7261808,1.4974487,-0.78092366,0.4439516,-0.51608354,-0.4156231,1.407819,-1.4501373,-0.50225407,0.033569045,0.11515171,0.53004235,-0.18639886,0.34032026,-0.9278418,-0.44338524,1.3087585,-0.4400346,0.89575416,-0.42124328,-0.44729638,-0.16962047,-0.49552348,-0.34569326,-1.7643131,0.1176679,-0.35991028,-0.6839267,-0.28597635,-1.0262904,0.3735674
IND207247AAB,-0.46311325,-1.4400207,1.39458,-0.2762049,0.123917036,0.19262831,0.08951045,1.0627315,-1.278289,0.1589737,0.28385288,-0.4392033,-0.21540095,-0.5771694,0.49253336,-1.0572624,-0.021060837,0.21458922,-0.19420286,1.0678889,-0.021542262,-1.1264739,0.50183326,-0.09847613,-0.19400102,-1.7110828,0.52811444,0.30250606,-0.3154417,0.8058199,-0.70721334,-0.22433758
IND208012AAA,-0.5324649,-0.28385216,0.89443797,0.2641727,0.2872983,-0.28157356,-0.77725035,0.23644574,-0.6671284,0.45388055,0.095806934,-0.73090297,-0.102747075,-0.021881342,-0.48308438,-0.52249557,-0.3874351,-0.3156878,-0.0007933182,0.55660033,0.18405336,-0.5015506,-0.64867496,-0.11792159,-0.6518936,-0.6795038,0.9080506,-0.38130653,0.1717102,0.5790227,-0.2779323,0.7064952
IND209101AAA,-0.8028895,-0.23810446,0.83712703,0.50855434,0.28543368,0.11287089,-0.7779507,0.08108641,-1.0042589,1.1272216,-0.40382215,-0.9340864,-0.73105353,-0.0021229314,-0.248326,-0.6522316,-0.6138346,-0.1317236,0.12371576,0.48934475,0.24014494,-0.265072,-0.78838545,0.048864685,-1.0459259,-0.7707665,0.7705529,-0.22613814,0.27872193,0.68996775,-0.20768769,0.97451544
IND209111AAA,-0.8304461,-0.40576482,0.8758319,0.6330441,0.34982744,0.12444785,-0.9183408,0.20153937,-1.0394589,1.0568838,-0.4174329,-0.891837,-0.7496887,-0.16635321,-0.1774536,-0.61151,-0.59937626,-0.09278382,0.047188498,0.60860056,0.22859555,-0.3344942,-0.66841173,0.0050637107,-1.0081764,-0.83076984,0.8054175,-0.4243768,0.24561061,0.6474446,-0.38163036,0.9262301
IND285001AAD,-0.80102706,-0.50897646,0.9179198,0.66259027,0.45820123,0.14776835,-1.1394137,0.37516677,-1.026703,0.94551337,-0.33380052,-0.91255486,-0.7016722,-0.1640633,-0.24004947,-0.60597247,-0.66057575,-0.062456526,-0.015242451,0.7656947,0.122966416,-0.4079481,-0.44286332,-0.059822313,-0.93622375,-0.81015235,0.90374964,-0.43757984,0.26961562,0.65394497,-0.31167006,0.8658851
IND209206AAB,-0.43676254,0.21410991,1.0671606,0.37480214,0.50826,-0.17524084,-0.5514966,0.13414489,-0.67898464,0.7409179,-0.04072711,-0.70948815,-0.6545725,0.48872963,-0.4809017,-1.2005866,-0.95977247,-0.7636607,0.3170924,0.39182985,1.2168677,-0.46069932,-0.68304884,0.19666722,-0.5847681,-0.4737722,0.69423777,-0.5568098,-0.38186538,0.7772004,0.21156561,1.1269987
IND210301AAA,-0.45888656,0.30209637,1.1477349,0.21795812,0.48520193,-0.16965437,-0.5704041,0.20702878,-0.75122005,0.86748505,-0.0014810278,-0.7207121,-0.5651537,0.61507046,-0.52074337,-1.1921222,-0.9760459,-0.8671501,0.4102898,0.39132804,1.2417713,-0.3977671,-0.7053691,0.11430954,-0.6373426,-0.4873891,0.81204146,-0.5891788,-0.4286227,0.9359659,0.15051246,1.2673978
IND208006AAA,-0.41461366,0.38603917,0.7806516,0.03964194,0.4534463,-0.11258743,-0.059248082,0.1898585,-0.872406,1.1944102,-0.044471912,-0.837376,-0.5341112,0.52040327,-0.48301888,-0.61312574,-0.60119504,-0.58169264,0.07403231,0.27698332,0.39249626,-0.49107102,-1.4257255,0.4186277,-1.1694515,-0.9071963,0.63845176,0.2501605,0.10087856,0.7686305,-0.18801059,1.15719
IND208019AAA,-0.28403857,0.16864894,0.77088755,0.20711733,0.5317889,-0.24040125,-0.12460163,0.14047207,-0.94160575,1.1921018,-0.06388478,-0.90848386,-0.6415229,0.50715053,-0.3990711,-0.6576777,-0.64368176,-0.417345,0.16708207,0.1965189,0.69754076,-0.29938054,-1.5971599,0.37634465,-1.1783938,-0.8124459,0.34210327,0.33217603,0.2167699,0.9550546,-0.21836306,1.1007463
IND209801AAA,-0.5962584,-0.36950788,0.6883616,0.44669646,0.45551747,0.026991362,-0.77761954,0.3457707,-0.8672157,0.49989843,0.15279216,-0.77268505,-0.070294134,-0.029190999,-0.35892525,-0.58473945,-0.4238465,-0.24792485,-0.033465635,0.38929063,0.34512368,-0.48813695,-0.62265086,0.033387866,-0.62117505,-0.6004916,0.8059795,-0.3388041,0.032468867,0.59591776,-0.23609358,0.7848833
IND211002AAB,-0.83528495,0.21918087,1.3250906,0.6050671,1.2704593,-0.02374392,-0.40005803,0.027000973,-0.5977736,0.8633739,0.27042556,-0.76358646,0.28989616,-0.19611786,-0.5772065,-0.44976968,-0.67919254,0.2519926,0.21071687,0.63411254,-0.44971237,-0.8913116,-1.0277318,-0.00538718,-0.19158985,-0.75484467,0.79624903,-0.43814903,-0.13745925,0.47244203,-0.42453167,1.0871681
IND212601AAA,-0.3595966,-0.14962216,1.0023277,0.016906675,0.078224026,0.1930807,-0.96806973,0.10280764,-0.7627278,0.6671634,0.30867338,-0.9393721,-0.044381008,0.2632525,-0.67426986,-0.59593654,-0.49799314,-0.3297464,0.32536724,0.26684636,0.37063938,-0.3611468,-0.78714174,-0.13593721,-0.60391504,-0.7855874,0.84601665,-0.23919614,0.1643909,0.9624049,-0.07826285,0.7739262
IND221313AAA,-0.7830764,0.042618465,1.1729943,0.59074676,0.77319074,0.12603195,-0.1611451,0.045101985,-0.75441265,0.8891558,0.050849296,-0.8105845,-0.0032405604,-0.0028118612,-0.38374484,-0.23436846,-0.60805815,0.08664962,0.21032415,0.3413803,-0.01343478,-0.7721219,-1.3576007,0.10387651,-0.23016201,-0.70046043,0.56249774,-0.013846681,0.08913014,0.59558225,-0.37325943,1.085392
IND209625AAA,-0.0062978882,0.019276844,1.412418,-0.7933841,-0.6874182,-0.7956781,0.7880651,0.6961931,-0.77221066,0.5345947,-0.47947186,-1.3715882,-0.6291476,0.44659102,0.19300425,-1.1090231,-0.94791234,0.6426492,-0.06451899,0.9459013,-0.028508825,-1.1405152,-0.908632,0.2699354,-0.2977889,-1.8754249,-0.34678122,0.54970294,-0.7090368,1.7790891,-0.98444575,0.37370464
IND241124AAB,-0.038225733,0.07470587,1.5065742,-1.0872046,-0.79925954,-0.9444376,0.8707659,0.64734954,-0.9076186,0.62605476,-0.480488,-1.4305848,-0.69778156,0.63147014,0.11590105,-1.2348024,-1.1133475,0.65066165,-0.12449942,0.99102724,-0.037832763,-1.1006957,-0.9544699,0.3860914,-0.111227855,-2.0149868,-0.3197583,0.49192622,-0.8308671,1.9523857,-0.985841,0.4313367
IND210001AAA,-0.41003865,-0.24003601,0.99910825,-0.057665233,0.16698699,0.12396572,-1.1694647,0.13939805,-0.6961547,0.58186746,0.36991924,-0.98271143,-0.0076426687,0.20931341,-0.7363636,-0.5772089,-0.44138375,-0.32882416,0.2980882,0.42484856,0.28963652,-0.4256791,-0.6388951,-0.14427517,-0.44716677,-0.7958476,0.9580626,-0.3159832,0.1447588,0.87962776,-0.004848842,0.6881728
IND210427AAA,-0.4423255,-0.4030384,1.0160019,-0.08716513,0.21281022,0.045544818,-1.3143208,0.20556115,-0.6477792,0.42181304,0.4250186,-1.0343442,0.07121875,0.0568043,-0.7566325,-0.60508305,-0.41444844,-0.25385538,0.27753976,0.505584,0.2048623,-0.506728,-0.5697398,-0.16124164,-0.35555515,-0.7471817,1.0476328,-0.3597648,0.11141557,0.7830248,-0.10949994,0.6776521
IND210431AAA,-1.0403602,-0.6285344,0.9407034,0.43935734,0.4400579,0.10568441,-1.5362649,0.43214476,-0.983259,0.57060635,-0.27031586,-0.9936733,-0.5257769,-0.42827156,-0.3429833,-0.58961827,-0.56475914,-0.0369216,0.027784131,1.1237406,-0.14040875,-0.43193847,-0.12569222,-0.12108687,-0.5642082,-0.87482697,1.0008463,-0.5138932,0.30428,0.5062074,-0.508078,0.83867943
IND210501AAB,-0.69779295,-0.4598265,1.2020583,0.21728036,0.3469325,-0.18316518,-1.4551381,0.7192984,-0.5711709,0.53839785,0.09064973,-0.6317163,-0.038500343,-0.42519635,-0.615985,-0.5262925,0.08402164,-0.031544637,0.15878393,1.152583,0.25065655,-0.77704173,-0.3632908,-0.032225303,-0.038769044,-0.8634846,1.2734854,-0.38044664,0.07204562,0.54230845,-0.43663654,0.6129457
IND211011AAA,-0.80873066,0.2606427,1.2894087,0.42932218,1.5833286,0.052348245,-0.43710503,0.16445504,-0.6917425,1.1679287,0.3752115,-0.53613836,0.08417002,-0.24541187,-0.58455956,-0.59804094,-0.50531435,0.391127,0.044649333,0.7570928,-0.4825088,-1.4000468,-1.1728892,0.17914912,0.016499538,-0.5147937,0.9521179,-0.116825,0.12335166,0.53027093,-0.28929418,1.4469558
IND211013AAA,-0.87008655,0.328848,1.4133681,0.05386139,1.5892639,-0.30488518,0.37376988,-0.09455109,-0.8266761,1.6549625,0.073529124,-0.9330228,-0.40636602,-0.0006567778,-0.48461348,-0.75987226,-0.7672206,0.036770355,0.5049805,0.7075773,-0.46444282,-1.1736516,-1.584893,0.5183125,-0.45495677,-0.6287883,0.6953277,0.54467887,0.4256387,0.8420193,-0.0703924,1.7227166
IND485001AAC,-0.48257205,0.2355436,1.5543597,0.59661007,1.8804737,-0.14146595,-0.9415479,-0.12290025,-0.95388764,0.60653895,0.27842125,-0.7598162,0.41115388,-0.019142225,-0.52481645,-0.003555305,-0.877572,0.5371655,0.48390198,0.9110876,-0.60778475,-0.6170279,-0.9654145,0.0832025,0.164039,-0.93524724,0.24637203,-0.5736985,-0.04767789,0.37499648,-0.90931386,1.3167098
IND211008AAA,-0.50067425,-0.35339427,1.194128,0.35149074,1.9006448,0.0033557464,-1.1491643,-0.18306643,-0.95153916,0.6015392,0.7461966,-0.26417688,-0.15033387,-0.80710423,-0.16761212,-0.17878903,-0.6037533,0.8967658,0.6080911,1.0437092,-0.5985981,-0.8958537,-0.46577957,0.5440642,0.339438,-0.7868228,0.8642752,-0.76484805,0.25010705,0.41743582,-0.6473635,1.0033152
IND212501AAA,-0.8793664,0.41104674,1.3614781,0.25186202,1.4378259,-0.12928575,-0.57480145,0.104803875,-0.7054649,0.93000156,0.4095087,-0.6310811,-0.021374196,-0.51167244,-0.6920613,-0.6827395,-0.65431285,0.58122057,0.13944983,0.8043747,-0.65221876,-1.483182,-1.0310642,-0.03763555,0.12868945,-0.59898776,1.1508405,-0.21870035,-0.089266054,0.5114976,-0.4380701,1.3820935
IND212402AAA,-0.581165,0.15043533,1.3380946,0.570853,1.6302665,-0.0015181812,-1.000417,0.37132433,-0.68479604,0.8538604,0.4060937,-0.63579005,0.13309656,-0.46582076,-0.5078534,-0.49971163,-0.6058522,0.61877525,0.01933581,0.9642406,-0.56288224,-1.6413558,-0.9064836,0.24498713,0.24812898,-0.5678237,1.2499202,-0.18325764,-0.09678394,0.6259797,-0.3952947,1.242862
IND221706AAA,0.33142278,-1.0939894,1.0805378,0.26207045,0.87674206,-0.23414858,-1.3373368,-0.25998417,-1.3961129,0.29618084,-0.5548253,-1.6266441,0.078487925,-0.568616,-1.2477432,-0.29813525,0.0004971789,0.23362333,-0.34183335,1.0668279,0.46766642,-0.78722656,0.06553935,0.039577536,-0.29007673,-0.86593443,1.581445,-0.13285263,-0.6719977,0.079928905,0.110474214,0.9493408
IND273014AAB,0.19561084,-1.1919338,1.1094993,0.35144868,0.7060034,-0.4631245,-1.6094004,-0.0025551477,-1.1487161,-0.10155155,-0.57696044,-1.2562006,0.1748618,-1.0935893,-1.3294872,-0.55189145,0.05381695,0.5854418,-0.21182743,1.3820243,0.44262877,-0.93831617,0.20259023,0.15370084,-0.2905862,-0.8447081,1.5019106,-0.33706406,-0.6031243,0.090363055,-0.03276768,1.3411803
IND223101AAB,0.51121193,-0.28503382,0.6854029,0.8047034,1.6563929,0.33283988,0.49404073,-0.20982462,-1.3850203,1.7581816,-0.9752066,0.41768482,-0.6444784,0.53045785,-0.25477242,-1.6944597,-0.6863995,1.2457441,0.24200577,0.02967697,-0.5527402,1.7929219,-0.17097409,0.12110793,1.1759994,0.6833533,0.9557942,-1.5920253,-0.8753766,1.119418,-0.5898796,0.021308234
IND222125AAB,0.60474235,-0.3919245,0.61655134,0.58082634,1.8583264,0.17115502,0.8459473,-0.10640058,-1.6861858,1.5426601,-1.1581656,0.2085927,-0.9297354,0.19244348,-0.199984,-1.7066083,-0.39944485,1.0871346,0.32095373,-0.09389666,-0.26207477,1.6291205,-0.56802136,-0.060803637,1.1426246,0.73797053,0.92068577,-1.2526071,-1.1793125,0.87968856,-0.30165988,-0.0030011914
IND224001AAA,0.8710971,-0.72147053,1.3430861,0.8967361,1.3918632,0.7755073,0.34556666,-0.7283873,-0.12816313,0.7371231,-0.79958403,0.5071896,-0.8347431,0.8031696,-0.83881354,-1.3387357,0.015157905,1.1116846,0.3026899,1.1582998,-1.0939257,0.48357952,-0.46538058,0.037450522,0.096623465,0.39375067,0.73538774,-1.1159729,0.73789304,0.067172274,0.22827585,-0.16649957
IND224141AAB,0.89539325,-0.61044925,1.5736412,1.1848544,1.7736418,0.6310603,0.3425192,-0.7855561,-0.06332849,0.70986736,-0.8665558,0.39630127,-1.2065804,0.9175956,-1.0160375,-1.3112476,0.28828165,0.98808074,0.48257482,1.2117361,-1.438222,0.06963778,-0.53659475,-0.24411312,0.27406454,0.38130426,0.6688197,-1.057763,0.84921676,0.18697274,0.3019413,0.061277054
